{"train/physics_comp_1":5.662377589032985e-07,"gradients/layers.0.bias":{"bins":[-4.079988138983026e-05,-3.880639997078106e-05,-3.6812918551731855e-05,-3.481943713268265e-05,-3.282595571363345e-05,-3.0832474294584244e-05,-2.8838994694524445e-05,-2.684551327547524e-05,-2.4852031856426038e-05,-2.2858550437376834e-05,-2.086506901832763e-05,-1.8871587599278428e-05,-1.6878107999218628e-05,-1.4884625670674723e-05,-1.2891145161120221e-05,-1.0897663742071018e-05,-8.904182323021814e-06,-6.910700903972611e-06,-4.917219939670758e-06,-2.9237387479952304e-06,-9.302575563197024e-07,1.0632236353558255e-06,3.0567048270313535e-06,5.050185791333206e-06,7.043667210382409e-06,9.037148629431613e-06,1.1030630048480816e-05,1.3024110558035318e-05,1.5017591977084521e-05,1.7011072486639023e-05,1.9004553905688226e-05,2.099803532473743e-05,2.2991516743786633e-05,2.4984998162835836e-05,2.697847958188504e-05,2.8971961000934243e-05,3.0965442419983447e-05,3.295892383903265e-05,3.4952405258081853e-05,3.694588667713106e-05,3.893936809618026e-05,4.0932845877250656e-05,4.292632729629986e-05,4.491980871534906e-05,4.691329013439827e-05,4.890677155344747e-05,5.0900252972496673e-05,5.289373439154588e-05,5.488721581059508e-05,5.6880697229644284e-05,5.887417864869349e-05,6.086766006774269e-05,6.286113784881309e-05,6.485461926786229e-05,6.68481006869115e-05,6.88415821059607e-05,7.08350635250099e-05,7.28285449440591e-05,7.482202636310831e-05,7.681550778215751e-05,7.880898920120671e-05,8.080247062025592e-05,8.279595203930512e-05,8.478943345835432e-05,8.678291487740353e-05],"_type":"histogram","values":[1,0,0,0,0,0,1,1,0,1,1,2,2,2,4,2,5,8,2,3,2,2,8,5,5,1,0,2,1,0,1,0,0,0,0,1,0,0,0,0,0,0,0,0,0,0,0,0,0,0,0,0,0,0,0,0,0,0,0,0,0,0,0,1]},"gradients/layers.1.bias":{"bins":[-5.3944568207953125e-05,-5.18367814947851e-05,-4.9728994781617075e-05,-4.762120806844905e-05,-4.5513421355281025e-05,-4.340563828009181e-05,-4.129785156692378e-05,-3.919006485375576e-05,-3.708227814058773e-05,-3.497449142741971e-05,-3.286670471425168e-05,-3.075891800108366e-05,-2.8651133106905036e-05,-2.654334639373701e-05,-2.443556149955839e-05,-2.2327774786390364e-05,-2.021998807322234e-05,-1.8112201360054314e-05,-1.600441464688629e-05,-1.3896629752707668e-05,-1.1788843039539643e-05,-9.681056326371618e-06,-7.573270522698294e-06,-5.46548426427762e-06,-3.357698005856946e-06,-1.249911747436272e-06,8.578745109844021e-07,2.9656607694050763e-06,5.07344702782575e-06,7.1812332862464245e-06,9.289019544667099e-06,1.1396805348340422e-05,1.3504584785550833e-05,1.5612371498718858e-05,1.7720158211886883e-05,1.9827943106065504e-05,2.193572981923353e-05,2.4043516532401554e-05,2.6151301426580176e-05,2.82590881397482e-05,3.0366874852916226e-05,3.247466156608425e-05,3.4582448279252276e-05,3.66902349924203e-05,3.879801806760952e-05,4.0905804780777544e-05,4.301359149394557e-05,4.5121378207113594e-05,4.722916492028162e-05,4.9336951633449644e-05,5.144473834661767e-05,5.3552525059785694e-05,5.566031177295372e-05,5.776809484814294e-05,5.987588156131096e-05,6.19836719124578e-05,6.40914513496682e-05,6.619923806283623e-05,6.830702477600425e-05,7.041481148917228e-05,7.25225982023403e-05,7.463038491550833e-05,7.673817162867635e-05,7.884595834184438e-05,8.09537450550124e-05],"_type":"histogram","values":[1,1,0,0,0,3,0,1,1,2,0,0,1,2,0,3,1,2,2,1,2,4,5,2,1,2,1,3,1,2,4,3,2,1,1,1,0,0,2,0,0,0,0,1,0,2,0,0,0,0,0,1,0,0,0,0,0,0,0,0,1,0,0,1]},"gradients/encoder_2.bias":{"values":[1,0,0,0,0,0,0,0,0,0,1,0,0,0,0,0,0,1,0,1,0,1,0,1,0,1,0,4,2,3,3,2,2,3,1,0,3,3,0,2,3,5,1,2,2,1,0,0,1,0,2,2,1,1,3,1,1,0,1,0,0,0,0,2],"bins":[-0.000434981775470078,-0.00042286139796487987,-0.0004107410495635122,-0.0003986206720583141,-0.00038650029455311596,-0.0003743799461517483,-0.0003622595686465502,-0.00035013919114135206,-0.00033801881363615394,-0.00032589846523478627,-0.00031377808772958815,-0.00030165771022439003,-0.00028953736182302237,-0.00027741698431782424,-0.0002652966068126261,-0.00025317625841125846,-0.00024105588090606034,-0.00022893551795277745,-0.00021681514044757932,-0.00020469477749429643,-0.0001925743999890983,-0.00018045403703581542,-0.00016833367408253253,-0.0001562132965773344,-0.0001440929336240515,-0.00013197257067076862,-0.0001198521931655705,-0.0001077318302122876,-9.56114599830471e-05,-8.349108975380659e-05,-7.13707268005237e-05,-5.925035657128319e-05,-4.7129986342042685e-05,-3.500961611280218e-05,-2.2889249521540478e-05,-1.0768881111289375e-05,1.3514872989617288e-06,1.3471855709212832e-05,2.5592224119463935e-05,3.7712590710725635e-05,4.983296093996614e-05,6.195333116920665e-05,7.407370139844716e-05,8.619406435173005e-05,9.831443458097056e-05,0.00011043480481021106,0.00012255516776349396,0.00013467554526869208,0.00014679590822197497,0.00015891627117525786,0.00017103664868045598,0.00018315701163373888,0.000195277389138937,0.0002073977520922199,0.00021951811504550278,0.0002316384925507009,0.0002437588555039838,0.0002558792184572667,0.0002679995959624648,0.00028011997346766293,0.0002922403218690306,0.0003043606993742287,0.00031648107687942684,0.0003286014252807945,0.0003407218027859926],"_type":"histogram"},"train/total":0.0006388032343238592,"gradients/encoder_2.weight":{"bins":[-0.00028072090935893357,-0.00027129764202982187,-0.00026187440380454063,-0.00025245113647542894,-0.00024302786914631724,-0.00023360461636912078,-0.0002241813635919243,-0.00021475809626281261,-0.00020533484348561615,-0.00019591159070841968,-0.00018648832337930799,-0.00017706507060211152,-0.00016764181782491505,-0.00015821855049580336,-0.0001487952977186069,-0.0001393720303894952,-0.00012994877761229873,-0.00012052551755914465,-0.00011110225750599056,-0.0001016790047287941,-9.225574467564002e-05,-8.283248462248594e-05,-7.340923184528947e-05,-6.398597179213539e-05,-5.4562711738981307e-05,-4.5139451685827225e-05,-3.571619527065195e-05,-2.6292937036487274e-05,-1.6869678802322596e-05,-7.446420568157919e-06,1.976837666006759e-06,1.1400095900171436e-05,2.0823354134336114e-05,3.024661236850079e-05,3.966987060266547e-05,4.909312701784074e-05,5.8516387070994824e-05,6.79396471241489e-05,7.736289990134537e-05,8.678615995449945e-05,9.620942000765353e-05,0.00010563268006080762,0.0001150559401139617,0.00012447919289115816,0.00013390244566835463,0.00014332571299746633,0.0001527489657746628,0.0001621722331037745,0.00017159548588097095,0.00018101873865816742,0.00019044200598727912,0.00019986525876447558,0.00020928852609358728,0.00021871177887078375,0.0002281350316479802,0.0002375582989770919,0.0002469815663062036,0.00025640480453148484,0.00026582807186059654,0.00027525133918970823,0.00028467457741498947,0.00029409784474410117,0.00030352111207321286,0.0003129443502984941,0.0003223676176276058],"_type":"histogram","values":[2,0,2,2,0,4,1,1,2,2,1,3,0,1,4,2,2,4,2,3,2,2,4,5,2,6,3,2,4,1,2,4,3,2,5,2,6,4,4,1,1,5,3,2,2,0,1,0,2,2,0,0,0,1,0,2,0,0,1,2,0,1,0,1]},"_timestamp":1.772685160856827e+09,"gradients/layers.0.weight":{"_type":"histogram","values":[1,0,0,0,0,0,1,0,0,0,0,0,0,0,0,1,0,0,0,1,0,0,1,1,1,0,1,1,1,3,0,4,4,6,2,7,10,10,8,9,5,10,5,2,6,2,1,3,3,4,2,1,3,1,2,0,1,1,1,0,0,1,0,1],"bins":[-7.468062540283427e-05,-7.268712943186983e-05,-7.069362618494779e-05,-6.870013021398336e-05,-6.670663424301893e-05,-6.47131382720545e-05,-6.271964230109006e-05,-6.0726139054168016e-05,-5.8732643083203584e-05,-5.673914711223915e-05,-5.474564750329591e-05,-5.2752147894352674e-05,-5.075865192338824e-05,-4.876515595242381e-05,-4.677165634348057e-05,-4.477815673453733e-05,-4.27846607635729e-05,-4.079116479260847e-05,-3.879766518366523e-05,-3.680416557472199e-05,-3.481066960375756e-05,-3.281717363279313e-05,-3.082367402384989e-05,-2.8830176233896054e-05,-2.683667844394222e-05,-2.4843180653988384e-05,-2.284968286403455e-05,-2.0856185074080713e-05,-1.8862687284126878e-05,-1.6869189494173042e-05,-1.4875691704219207e-05,-1.2882193914265372e-05,-1.0888688848353922e-05,-8.895191058400087e-06,-6.901693268446252e-06,-4.9081954784924164e-06,-2.914697688538581e-06,-9.211998985847458e-07,1.0722978913690895e-06,3.065795681322925e-06,5.05929347127676e-06,7.052791261230595e-06,9.04628905118443e-06,1.1039786841138266e-05,1.3033284631092101e-05,1.5026782421045937e-05,1.7020280210999772e-05,1.9013778000953607e-05,2.1007275790907443e-05,2.3000773580861278e-05,2.4994271370815113e-05,2.698776916076895e-05,2.8981266950722784e-05,3.0974762921687216e-05,3.2968262530630454e-05,3.496176213957369e-05,3.6955258110538125e-05,3.894875408150256e-05,4.0942253690445796e-05,4.2935753299389035e-05,4.4929249270353466e-05,4.69227452413179e-05,4.891624485026114e-05,5.0909744459204376e-05,5.290324043016881e-05]},"_step":7000,"val/total":2217.59228515625,"gradients/layers.2.weight":{"values":[1,0,0,0,0,0,0,0,0,0,0,0,0,0,0,0,0,1,1,0,2,3,2,5,10,9,4,11,18,35,48,71,92,171,258,511,1146,766,349,224,126,79,43,30,23,15,12,13,3,2,1,3,0,0,1,1,1,0,1,2,1,0,0,1],"bins":[-0.00016352061356883496,-0.00015907199122011662,-0.00015462336887139827,-0.00015017474652267992,-0.00014572612417396158,-0.00014127750182524323,-0.0001368288794765249,-0.00013238025712780654,-0.00012793162022717297,-0.00012348299787845463,-0.0001190343828056939,-0.00011458576045697555,-0.00011013713083229959,-0.00010568850848358124,-0.0001012398861348629,-9.679126378614455e-05,-9.234264143742621e-05,-8.789401908870786e-05,-8.344539673998952e-05,-7.899677439127117e-05,-7.454815204255283e-05,-7.009952241787687e-05,-6.565090006915852e-05,-6.120227772044018e-05,-5.6753655371721834e-05,-5.230503302300349e-05,-4.7856410674285144e-05,-4.340778468758799e-05,-3.8959162338869646e-05,-3.45105399901513e-05,-3.0061915822443552e-05,-2.5613291654735804e-05,-2.116466930601746e-05,-1.6716046957299113e-05,-1.2267422789591365e-05,-7.818799531378318e-06,-3.3701762731652707e-06,1.0784469850477763e-06,5.527070243260823e-06,9.97569350147387e-06,1.4424316759686917e-05,1.8872939108405262e-05,2.332156327611301e-05,2.777018744382076e-05,3.2218809792539105e-05,3.666743214125745e-05,4.11160581279546e-05,4.556468047667295e-05,5.001330282539129e-05,5.446192517410964e-05,5.891054752282798e-05,6.335916987154633e-05,6.780779222026467e-05,7.225642184494063e-05,7.670504419365898e-05,8.115366654237732e-05,8.560228889109567e-05,9.005091123981401e-05,9.449953358853236e-05,9.89481559372507e-05,0.00010339678556192666,0.00010784540791064501,0.00011229403025936335,0.0001167426526080817,0.00012119127495680004],"_type":"histogram"},"train/physics":0.00021403474966064095,"_runtime":155,"train/physics_comp_2":3.92528001214032e-08,"gradients/encoder_1.bias":{"_type":"histogram","values":[1,0,0,0,1,0,0,0,2,1,1,0,0,1,0,0,1,0,0,0,0,0,2,1,2,0,0,1,5,1,0,1,2,1,0,1,2,4,2,3,1,4,3,0,3,1,0,1,4,1,2,3,1,0,1,1,0,0,1,0,0,0,0,1],"bins":[-0.00014570297207683325,-0.00014169274072628468,-0.00013768250937573612,-0.00013367227802518755,-0.000129662046674639,-0.00012565181532409042,-0.00012164157669758424,-0.00011763134534703568,-0.00011362111399648711,-0.00010961088264593855,-0.00010560065129538998,-0.00010159041994484141,-9.758018131833524e-05,-9.356994996778667e-05,-8.95597186172381e-05,-8.554948726668954e-05,-8.153925591614097e-05,-7.752902456559241e-05,-7.351879321504384e-05,-6.950856186449528e-05,-6.549833051394671e-05,-6.148809188744053e-05,-5.747786053689197e-05,-5.34676291863434e-05,-4.9457397835794836e-05,-4.544716648524627e-05,-4.1436935134697706e-05,-3.742670014617033e-05,-3.341646879562177e-05,-2.9406237445073202e-05,-2.5396004275535233e-05,-2.1385771105997264e-05,-1.73755397554487e-05,-1.3365307495405432e-05,-9.355075235362165e-06,-5.3448429753188975e-06,-1.3346107152756304e-06,2.675621544767637e-06,6.685853804810904e-06,1.0696086064854171e-05,1.4706318324897438e-05,1.8716549675446004e-05,2.2726782844983973e-05,2.673701601452194e-05,3.074724736507051e-05,3.475747871561907e-05,3.8767713704146445e-05,4.277794505469501e-05,4.6788176405243576e-05,5.079840775579214e-05,5.4808639106340706e-05,5.881887409486808e-05,6.282910180743784e-05,6.683934043394402e-05,7.084957178449258e-05,7.485980313504115e-05,7.887003448558971e-05,8.288026583613828e-05,8.689049718668684e-05,9.090072853723541e-05,9.491096716374159e-05,9.892119851429015e-05,0.00010293142986483872,0.00010694166121538728,0.00011095189256593585]},"gradients/layers.2.bias":{"bins":[-0.0001244361192220822,-0.0001204039654112421,-0.000116371811600402,-0.0001123396577895619,-0.0001083075039787218,-0.00010427535744383931,-0.00010024320363299921,-9.621104982215911e-05,-9.217889601131901e-05,-8.814674220047891e-05,-8.411458838963881e-05,-8.008243457879871e-05,-7.605028804391623e-05,-7.201813423307613e-05,-6.798598042223603e-05,-6.395382661139593e-05,-5.9921672800555825e-05,-5.5889518989715725e-05,-5.1857365178875625e-05,-4.782521500601433e-05,-4.379306119517423e-05,-3.976090738433413e-05,-3.572875721147284e-05,-3.169660340063274e-05,-2.766444958979264e-05,-2.363229577895254e-05,-1.9600143787101842e-05,-1.5567991795251146e-05,-1.1535837984411046e-05,-7.503685083065648e-06,-3.4715321817202494e-06,5.606207196251489e-07,4.5927881728857756e-06,8.624941074231174e-06,1.2657093975576572e-05,1.668924596742727e-05,2.072139977826737e-05,2.475355358910747e-05,2.8785705580958165e-05,3.281785757280886e-05,3.685001138364896e-05,4.088216519448906e-05,4.491431900532916e-05,4.8946469178190455e-05,5.2978622989030555e-05,5.7010776799870655e-05,6.104292697273195e-05,6.507508078357205e-05,6.910723459441215e-05,7.313938840525225e-05,7.717154221609235e-05,8.120369602693245e-05,8.523584983777255e-05,8.926799637265503e-05,9.330015018349513e-05,9.733230399433523e-05,0.00010136445780517533,0.00010539661161601543,0.00010942876542685553,0.00011346091923769563,0.00011749306577257812,0.00012152521958341822,0.00012555737339425832,0.00012958953448105603,0.00013362168101593852],"_type":"histogram","values":[1,0,0,0,0,1,1,0,0,0,1,1,1,0,1,0,1,0,1,2,1,0,1,3,1,2,1,0,3,5,7,2,1,3,4,3,1,4,1,3,0,0,1,0,0,0,2,1,0,1,0,0,0,0,0,0,0,1,0,0,0,0,0,1]},"gradients/encoder_1.weight":{"bins":[-0.0001321322488365695,-0.0001269460335606709,-0.00012175981828477234,-0.00011657361028483137,-0.0001113873950089328,-0.00010620117973303422,-0.00010101497173309326,-9.582875645719469e-05,-9.064254118129611e-05,-8.545632590539753e-05,-8.027011062949896e-05,-7.5083902629558e-05,-6.989768735365942e-05,-6.471147207776085e-05,-5.952526043984108e-05,-5.433904880192131e-05,-4.915283352602273e-05,-4.3966618250124156e-05,-3.878040661220439e-05,-3.359419497428462e-05,-2.8407979698386043e-05,-2.322176624147687e-05,-1.80355527845677e-05,-1.2849339327658527e-05,-7.663125870749354e-06,-2.476912413840182e-06,2.70930104306899e-06,7.895514499978162e-06,1.3081727956887335e-05,1.8267941413796507e-05,2.345415487070568e-05,2.864036832761485e-05,3.3826567232608795e-05,3.901278250850737e-05,4.419899414642714e-05,4.938520578434691e-05,5.4571421060245484e-05,5.975763633614406e-05,6.494384433608502e-05,7.01300596119836e-05,7.531627488788217e-05,8.050249016378075e-05,8.568870543967932e-05,9.087491343962029e-05,9.606112871551886e-05,0.00010124734399141744,0.0001064335519913584,0.00011161976726725698,0.00011680598254315555,0.00012199219781905413,0.0001271784130949527,0.00013236462837085128,0.00013755084364674985,0.0001427370443707332,0.00014792325964663178,0.00015310947492253035,0.00015829569019842893,0.0001634819054743275,0.00016866812075022608,0.00017385433602612466,0.000179040536750108,0.00018422675202600658,0.00018941296730190516,0.00019459918257780373,0.0001997853978537023],"_type":"histogram","values":[1,0,1,0,2,2,2,1,0,0,0,1,2,2,5,4,3,6,3,2,3,2,7,8,2,5,3,10,8,6,3,6,1,4,3,0,1,2,6,3,0,0,0,0,0,1,0,0,0,2,0,2,1,1,0,0,0,0,0,0,0,0,0,1]},"gradients/layers.1.weight":{"_type":"histogram","values":[1,0,0,1,0,0,2,0,0,0,0,0,2,2,5,4,8,3,3,6,12,18,27,28,44,60,90,144,216,402,753,866,552,290,157,128,80,56,40,20,21,17,11,9,1,4,2,3,2,0,1,0,2,1,1,0,0,0,0,0,0,0,0,1],"bins":[-7.330648804781958e-05,-7.096169429132715e-05,-6.861690053483471e-05,-6.627210677834228e-05,-6.392731302184984e-05,-6.15825192653574e-05,-5.923772187088616e-05,-5.6892928114393726e-05,-5.454813435790129e-05,-5.2203340601408854e-05,-4.985854684491642e-05,-4.751375308842398e-05,-4.516895569395274e-05,-4.28241619374603e-05,-4.047936818096787e-05,-3.813457442447543e-05,-3.5789780667982996e-05,-3.344498691149056e-05,-3.1100193154998124e-05,-2.8755397579516284e-05,-2.6410603823023848e-05,-2.4065810066531412e-05,-2.1721014491049573e-05,-1.9376220734557137e-05,-1.70314269780647e-05,-1.4686633221572265e-05,-1.2341838555585127e-05,-9.99704388959799e-06,-7.652250133105554e-06,-5.307455921865767e-06,-2.96266171062598e-06,-6.178674993861932e-07,1.7269339878112078e-06,4.071728199050995e-06,6.416522410290781e-06,8.761317076277919e-06,1.1106110832770355e-05,1.3450904589262791e-05,1.579570016474463e-05,1.8140493921237066e-05,2.0485287677729502e-05,2.2830081434221938e-05,2.5174875190714374e-05,2.7519670766196214e-05,2.986446452268865e-05,3.220926009817049e-05,3.4554053854662925e-05,3.689884761115536e-05,3.92436413676478e-05,4.158843512414023e-05,4.393322888063267e-05,4.6278022637125105e-05,4.862281639361754e-05,5.0967613788088784e-05,5.331240754458122e-05,5.5657201301073655e-05,5.800199505756609e-05,6.034678881405853e-05,6.269158620852977e-05,6.50363799650222e-05,6.738117372151464e-05,6.972596747800708e-05,7.207076123449951e-05,7.441555499099195e-05,7.676034874748439e-05]},"train/physics_comp_0":3.6613641896110494e-08,"gradients/out.bias":{"bins":[-0.00036786787677556276,-0.0003532787668518722,-0.00033868965692818165,-0.00032410057610832155,-0.000309511466184631,-0.00029492235626094043,-0.0002803332463372499,-0.0002657441364135593,-0.0002511550555936992,-0.00023656593111809343,-0.0002219768357463181,-0.00020738772582262754,-0.000192798615898937,-0.00017820952052716166,-0.0001636204106034711,-0.00014903131523169577,-0.00013444220530800521,-0.00011985310266027227,-0.00010526400001253933,-9.067489008884877e-05,-7.608578744111583e-05,-6.149668479338288e-05,-4.690757850767113e-05,-3.231847222195938e-05,-1.772936957422644e-05,-3.140265107504092e-06,1.1448839359218255e-05,2.60379438259406e-05,4.062704829266295e-05,5.521615094039589e-05,6.980526086408645e-05,8.439436351181939e-05,9.898346615955234e-05,0.00011357256880728528,0.00012816167145501822,0.00014275078137870878,0.0001573398767504841,0.00017192898667417467,0.00018651809659786522,0.00020110719196964055,0.0002156963018933311,0.00023028541181702167,0.000244874507188797,0.00025946361711248755,0.0002740527270361781,0.00028864183695986867,0.00030323091777972877,0.00031782002770341933,0.0003324091376271099,0.00034699824755080044,0.000361587357474491,0.0003761764382943511,0.00039076554821804166,0.0004053546581417322,0.0004199437680654228,0.00043453287798911333,0.0004491219879128039,0.000463711068732664,0.00047830017865635455,0.0004928892594762146,0.0005074783693999052,0.0005220674793235958,0.0005366565892472863,0.0005512456991709769,0.0005658348090946674],"_type":"histogram","values":[1,0,0,0,0,0,0,0,0,0,0,0,0,0,0,0,0,0,0,0,0,0,0,0,0,0,0,0,0,0,0,0,0,0,0,0,0,0,0,1,0,0,0,0,0,0,0,0,0,0,0,0,0,0,0,0,0,0,0,0,0,0,0,1]},"gradients/out.weight":{"_type":"histogram","values":[1,1,0,1,2,2,0,2,1,3,2,6,1,7,7,5,11,8,16,13,7,11,13,15,11,4,11,7,1,7,2,3,4,0,0,2,0,0,0,1,1,0,0,1,0,0,0,0,0,0,1,0,0,0,0,0,0,0,0,0,0,0,0,1],"bins":[-0.00030473212245851755,-0.0002902427513618022,-0.00027575335116125643,-0.0002612639800645411,-0.0002467745798639953,-0.00023228520876727998,-0.00021779582311864942,-0.00020330643747001886,-0.0001888170518213883,-0.00017432766617275774,-0.00015983828052412719,-0.00014534889487549663,-0.0001308595237787813,-0.00011637013085419312,-0.00010188075248152018,-8.739136683288962e-05,-7.290198118425906e-05,-5.84125955356285e-05,-4.3923213524976745e-05,-2.943382969533559e-05,-1.4944445865694433e-05,-4.5506203605327755e-07,1.4034321793587878e-05,2.8523705623229034e-05,4.301308945287019e-05,5.750247510150075e-05,7.199186075013131e-05,8.648123912280425e-05,0.00010097062477143481,0.00011546001042006537,0.00012994938879273832,0.00014443877444136888,0.00015892816008999944,0.00017341754573863,0.00018790693138726056,0.00020239631703589112,0.00021688570268452168,0.000231375073781237,0.0002458644739817828,0.0002603538450784981,0.0002748432452790439,0.00028933261637575924,0.0003038219874724746,0.00031831138767302036,0.0003328007587697357,0.0003472901589702815,0.0003617795300669968,0.0003762689302675426,0.00039075830136425793,0.00040524767246097326,0.00041973707266151905,0.0004342264437582344,0.00044871584395878017,0.0004632052150554955,0.0004776946152560413,0.0004921840154565871,0.000506673357449472,0.0005211627576500177,0.0005356521578505635,0.0005501414998434484,0.0005646309000439942,0.00057912030024454,0.0005936097004450858,0.0006080990424379706,0.0006225884426385164]},"_wandb":{"runtime":155},"train/data":4.247685137670487e-05}