{"gradients/main_layers.3.bias":{"_type":"histogram","values":[1,0,0,0,0,0,0,0,0,0,0,1,0,0,0,0,1,0,0,0,0,0,0,0,0,0,0,0,0,1,0,3,0,0,0,1,1,1,1,1,4,4,0,5,6,3,1,4,2,4,2,1,2,2,1,2,2,2,0,1,2,1,0,1],"bins":[-0.0014216401614248753,-0.0013899196637794375,-0.0013581991661339998,-0.001326478668488562,-0.0012947581708431244,-0.0012630376731976867,-0.0012313170591369271,-0.0011995965614914894,-0.0011678760638460517,-0.001136155566200614,-0.0011044350685551763,-0.0010727145709097385,-0.0010409940732643008,-0.001009273575618863,-0.0009775530779734254,-0.0009458325221203268,-0.000914112024474889,-0.0008823915268294513,-0.0008506710291840136,-0.000818950473330915,-0.0007872299756854773,-0.0007555094780400395,-0.0007237889803946018,-0.0006920684827491641,-0.0006603479851037264,-0.0006286274292506278,-0.00059690693160519,-0.0005651864339597523,-0.0005334659363143146,-0.0005017454386688769,-0.0004700249119196087,-0.00043830438517034054,-0.0004065838875249028,-0.0003748633898794651,-0.00034314286313019693,-0.0003114223654847592,-0.00027970183873549104,-0.0002479813410900533,-0.0002162608434446156,-0.00018454033124726266,-0.0001528198190499097,-0.00012109930685255677,-8.937880193116143e-05,-5.7658293371787295e-05,-2.5937784812413156e-05,5.782723746960983e-06,3.750323230633512e-05,6.922373722773045e-05,0.0001009442494250834,0.00013266476162243634,0.0001643852738197893,0.000196105771465227,0.00022782628366257995,0.0002595467958599329,0.0002912672935053706,0.0003229878202546388,0.0003547083179000765,0.0003864288155455142,0.0004181493422947824,0.0004498698399402201,0.00048159033758565784,0.0005133108352310956,0.0005450313910841942,0.0005767518887296319,0.0006084723863750696]},"val/comp_P_bh":0.0008371134754270315,"train/total":0.0033713867887854576,"gradients/main_layers.1.weight":{"bins":[-0.000747868325561285,-0.0007246570312418044,-0.0007014457369223237,-0.0006782343843951821,-0.0006550230900757015,-0.0006318117957562208,-0.0006086004432290792,-0.0005853891489095986,-0.0005621778545901179,-0.0005389665602706373,-0.0005157552659511566,-0.000492543913424015,-0.0004693326191045344,-0.00044612132478505373,-0.0004229100013617426,-0.0003996986779384315,-0.00037648738361895084,-0.0003532760892994702,-0.00033006476587615907,-0.00030685344245284796,-0.0002836421481333673,-0.00026043085381388664,-0.00023721953039057553,-0.00021400822151917964,-0.00019079691264778376,-0.00016758560377638787,-0.00014437429490499198,-0.0001211629860335961,-9.795167716220021e-05,-7.474036829080433e-05,-5.152905941940844e-05,-2.8317750548012555e-05,-5.106441676616669e-06,1.8104867194779217e-05,4.13161760661751e-05,6.452748493757099e-05,8.773879380896688e-05,0.00011095010268036276,0.00013416141155175865,0.00015737272042315453,0.00018058402929455042,0.0002037953381659463,0.0002270066470373422,0.0002502179704606533,0.00027342926478013396,0.0002966405590996146,0.00031985188252292573,0.00034306320594623685,0.0003662745002657175,0.00038948579458519816,0.0004126971180085093,0.0004359084414318204,0.00045911973575130105,0.0004823310300707817,0.0005055423825979233,0.0005287536769174039,0.0005519649712368846,0.0005751762655563653,0.0005983875598758459,0.0006215989124029875,0.0006448102067224681,0.0006680215010419488,0.0006912328535690904,0.000714444147888571,0.0007376554422080517],"_type":"histogram","values":[1,0,5,0,2,2,1,3,6,1,5,9,7,7,7,16,7,24,23,24,46,34,55,59,89,72,117,182,201,271,342,361,400,350,301,215,151,144,105,82,69,61,52,33,30,31,19,9,13,6,11,12,1,3,5,2,2,4,1,1,2,0,0,2]},"val/total":0.0029220113065093756,"gradients/output_layer.weight":{"values":[1,0,1,0,0,1,1,0,0,0,0,1,1,5,2,5,1,2,1,2,5,0,1,3,6,2,4,4,5,8,12,11,9,13,9,11,8,10,2,5,3,6,2,0,1,6,1,3,1,1,1,2,1,4,3,1,1,1,0,0,0,0,1,1],"bins":[-0.005182834342122078,-0.005029330030083656,-0.004875825718045235,-0.004722320940345526,-0.004568816628307104,-0.0044153123162686825,-0.0042618075385689735,-0.004108303226530552,-0.00395479891449213,-0.0038012946024537086,-0.0036477900575846434,-0.003494285512715578,-0.0033407812006771564,-0.003187276888638735,-0.0030337723437696695,-0.0028802677989006042,-0.0027267634868621826,-0.002573259174823761,-0.0024197546299546957,-0.0022662500850856304,-0.002112745773047209,-0.001959241461008787,-0.0018057369161397219,-0.0016522324876859784,-0.001498728059232235,-0.0013452236307784915,-0.001191719202324748,-0.0010382147738710046,-0.0008847103454172611,-0.0007312059169635177,-0.0005777014885097742,-0.00042419706005603075,-0.000270692165941,-0.00011718773748725653,3.631669096648693e-05,0.0001898211194202304,0.00034332554787397385,0.0004968299763277173,0.0006503344047814608,0.0008038388332352042,0.0009573432616889477,0.0011108476901426911,0.0012643521185964346,0.001417856547050178,0.0015713609755039215,0.001724865403957665,0.0018783698324114084,0.0020318743772804737,0.0021853786893188953,0.002338883001357317,0.0024923875462263823,0.0026458920910954475,0.002799396403133869,0.002952900715172291,0.003106405260041356,0.0032599098049104214,0.003413414116948843,0.0035669184289872646,0.00372042297385633,0.003873927518725395,0.004027431830763817,0.0041809361428022385,0.00433444045484066,0.004487945232540369,0.004641449544578791],"_type":"histogram"},"gradients/main_layers.1.bias":{"bins":[-0.001096568419598043,-0.0010672638891264796,-0.0010379593586549163,-0.001008654828183353,-0.0009793502977117896,-0.0009500457672402263,-0.000920741178561002,-0.0008914366480894387,-0.0008621321176178753,-0.000832827587146312,-0.0008035230566747487,-0.0007742185262031853,-0.000744913995731622,-0.0007156094652600586,-0.0006863049347884953,-0.000657000404316932,-0.0006276958156377077,-0.0005983912851661444,-0.000569086754694581,-0.0005397822242230177,-0.0005104776937514544,-0.000481173163279891,-0.0004518686328083277,-0.00042256410233676434,-0.000393259571865201,-0.0003639550122898072,-0.00033465048181824386,-0.0003053459513466805,-0.0002760414208751172,-0.00024673689040355384,-0.00021743234538007528,-0.0001881278003565967,-0.00015882326988503337,-0.00012951873941347003,-0.00010021419438999146,-7.090966391842812e-05,-4.160512617090717e-05,-1.230059024237562e-05,1.700394568615593e-05,4.6308479795698076e-05,7.561301754321903e-05,0.00010491755529073998,0.00013422209303826094,0.00016352662350982428,0.00019283115398138762,0.00022213569900486618,0.00025144024402834475,0.0002807447744999081,0.00031004930497147143,0.00033935383544303477,0.0003686583659145981,0.0003979629254899919,0.00042726745596155524,0.0004565719864331186,0.0004858765169046819,0.0005151810473762453,0.0005444855778478086,0.0005737901083193719,0.0006030946387909353,0.0006323992274701595,0.0006617037579417229,0.0006910082884132862,0.0007203128188848495,0.0007496173493564129,0.0007789218798279762],"_type":"histogram","values":[1,0,0,0,0,0,0,1,0,0,0,0,0,0,0,1,0,2,0,0,0,2,0,0,2,2,0,1,2,2,0,2,4,3,1,1,2,4,0,5,3,0,1,3,3,1,2,2,1,0,2,3,1,0,0,1,0,0,1,0,1,0,0,1]},"gradients/main_layers.2.weight":{"_type":"histogram","values":[1,0,0,0,0,0,0,0,2,0,5,0,3,0,3,1,4,3,3,7,12,10,17,30,41,52,55,84,124,170,244,511,832,750,377,224,143,88,87,50,22,28,25,19,15,6,4,13,3,5,7,2,4,1,4,1,3,0,0,0,0,0,0,1],"bins":[-0.0017564680892974138,-0.0017029116861522198,-0.001649355166591704,-0.0015957987634465098,-0.001542242243885994,-0.0014886858407408,-0.001435129321180284,-0.00138157291803509,-0.001328016398474574,-0.00127445999532938,-0.001220903592184186,-0.00116734707262367,-0.001113790669478476,-0.0010602341499179602,-0.0010066777467727661,-0.0009531212854199111,-0.0008995648240670562,-0.0008460083627142012,-0.0007924519013613462,-0.0007388954400084913,-0.0006853389786556363,-0.0006317825755104423,-0.0005782261141575873,-0.0005246696528047323,-0.00047111319145187736,-0.0004175567300990224,-0.0003640002687461674,-0.0003104438364971429,-0.00025688737514428794,-0.00020333091379143298,-0.00014977446699049324,-9.621801291359589e-05,-4.2661442421376705e-05,1.0895011655520648e-05,6.4451465732418e-05,0.00011800791980931535,0.0001715643738862127,0.00022512083523906767,0.0002786772674880922,0.00033223372884094715,0.0003857901901938021,0.0004393466515466571,0.000492903112899512,0.000546459574252367,0.0006000159773975611,0.000653572438750416,0.000707128900103271,0.000760685361456126,0.0008142418228089809,0.0008677982841618359,0.0009213547455146909,0.0009749112068675458,0.0010284676682204008,0.0010820240713655949,0.0011355805909261107,0.0011891369940713048,0.0012426935136318207,0.0012962499167770147,0.0013498063199222088,0.0014033628394827247,0.0014569192426279187,0.0015104757621884346,0.0015640321653336287,0.0016175886848941445,0.0016711450880393386]},"gradients/output_layer.bias":{"values":[1,0,0,0,0,0,0,0,0,0,0,0,0,0,0,0,0,0,0,0,0,0,0,0,0,0,0,0,0,1,0,0,0,0,0,0,0,0,0,0,0,0,0,0,0,0,0,0,0,0,0,0,0,0,0,0,0,0,0,0,0,0,0,1],"bins":[-0.0005676380824297667,-0.0005103664007037878,-0.00045309477718546987,-0.00039582312456332147,-0.0003385514719411731,-0.0002812797902151942,-0.00022400813759304583,-0.00016673648497089744,-0.00010946483234874904,-5.219317608862184e-05,5.078480171505362e-06,6.235014006961137e-05,0.00011962179269175977,0.00017689344531390816,0.00023416511248797178,0.0002914367651101202,0.00034870841773226857,0.00040598007035441697,0.00046325172297656536,0.0005205234047025442,0.0005777950282208622,0.000635066709946841,0.0006923383334651589,0.0007496100151911378,0.0008068816969171166,0.0008641533204354346,0.0009214250021614134,0.0009786966256797314,0.0010359683074057102,0.001093239989131689,0.001150511554442346,0.001207783236168325,0.0012650549178943038,0.0013223265996202826,0.0013795982813462615,0.0014368698466569185,0.0014941415283828974,0.0015514132101088762,0.001608684891834855,0.001665956457145512,0.001723228138871491,0.0017804998205974698,0.0018377715023234487,0.0018950431840494275,0.0019523147493600845,0.0020095864310860634,0.0020668581128120422,0.002124129794538021,0.002181401476264,0.002238673157989979,0.0022959448397159576,0.002353216288611293,0.0024104879703372717,0.0024677596520632505,0.0025250313337892294,0.0025823030155152082,0.002639574697241187,0.002696846378967166,0.002754118060693145,0.0028113897424191236,0.002868661191314459,0.0029259328730404377,0.0029832045547664165,0.0030404762364923954,0.0030977479182183743],"_type":"histogram"},"gradients/main_layers.3.weight":{"values":[1,0,0,0,0,1,0,1,2,1,5,1,1,1,6,5,6,11,7,12,10,14,14,34,32,72,102,124,180,309,479,990,582,379,209,160,83,86,43,29,19,18,8,15,7,5,4,6,5,0,1,4,5,1,0,1,2,0,0,0,0,1,0,2],"bins":[-0.002217470435425639,-0.0021474482491612434,-0.002077425830066204,-0.0020074036438018084,-0.001937381224706769,-0.0018673589220270514,-0.001797336619347334,-0.0017273143166676164,-0.0016572920139878988,-0.0015872698277235031,-0.0015172475250437856,-0.001447225222364068,-0.0013772029196843505,-0.001307180617004633,-0.0012371583143249154,-0.0011671360116451979,-0.0010971137089654803,-0.0010270914062857628,-0.0009570691036060452,-0.0008870468009263277,-0.0008170244982466102,-0.0007470022537745535,-0.000676979951094836,-0.0006069576484151185,-0.0005369353457354009,-0.0004669130430556834,-0.00039689074037596583,-0.00032686846680007875,-0.0002568461641203612,-0.00018682386144064367,-0.00011680157331284136,-4.677927790908143e-05,2.3243017494678497e-05,9.326531289843842e-05,0.00016328760830219835,0.00023330989643000066,0.0003033321991097182,0.00037335450178943574,0.00044337677536532283,0.0005133990780450404,0.0005834213807247579,0.0006534436834044755,0.000723465986084193,0.0007934882887639105,0.0008635105332359672,0.0009335328359156847,0.0010035551385954022,0.0010735774412751198,0.0011435997439548373,0.0012136220466345549,0.0012836443493142724,0.00135366665199399,0.0014236889546737075,0.001493711257353425,0.0015637335600331426,0.00163375586271286,0.0017037780489772558,0.0017738003516569734,0.001843822654336691,0.0019138449570164084,0.001983867259696126,0.0020538896787911654,0.002123911865055561,0.0021939342841506004,0.002263956470414996],"_type":"histogram"},"_step":10000,"_timestamp":1.772717804134412e+09,"_wandb":{"runtime":587},"_runtime":587,"val/comp_m_oil":0.007086637895554304,"gradients/main_layers.0.weight":{"_type":"histogram","values":[2,1,0,3,2,2,0,4,6,5,9,7,9,6,7,13,15,14,8,15,16,18,12,13,15,14,13,10,10,11,9,6,6,12,7,6,4,2,0,2,2,0,0,0,1,0,0,0,1,0,0,0,1,0,0,0,0,0,0,0,0,0,0,1],"bins":[-0.0010695818345993757,-0.001020292635075748,-0.0009710033191367984,-0.0009217141196131706,-0.000872424861881882,-0.0008231356041505933,-0.0007738463464193046,-0.0007245570886880159,-0.0006752678891643882,-0.0006259786314330995,-0.0005766893737018108,-0.0005274001159705222,-0.0004781108582392335,-0.0004288216296117753,-0.0003795323718804866,-0.0003302431432530284,-0.0002809538855217397,-0.00023166464234236628,-0.00018237539916299284,-0.00013308614143170416,-8.379689825233072e-05,-3.450765143497847e-05,1.478159538237378e-05,6.407084583770484e-05,0.00011336008901707828,0.00016264933219645172,0.00021193857537582517,0.00026122783310711384,0.0003105170908384025,0.0003598063194658607,0.0004090955771971494,0.0004583848058246076,0.0005076740635558963,0.000556963321287185,0.0006062525790184736,0.0006555417785421014,0.0007048310362733901,0.0007541202940046787,0.0008034095517359674,0.0008526988094672561,0.0009019880089908838,0.0009512772667221725,0.0010005665244534612,0.001049855723977089,0.0010991450399160385,0.0011484342394396663,0.0011977235553786159,0.0012470127549022436,0.0012963020708411932,0.001345591270364821,0.0013948804698884487,0.0014441697858273983,0.001493458985351026,0.0015427483012899756,0.0015920375008136034,0.0016413267003372312,0.0016906160162761807,0.0017399052157998085,0.001789194531738758,0.0018384837312623858,0.0018877729307860136,0.0019370622467249632,0.0019863515626639128,0.0020356406457722187,0.0020849299617111683]},"val/comp_P_tb_b":0.0008422830724157393,"gradients/main_layers.0.bias":{"values":[2,0,0,0,0,0,0,0,1,0,0,0,0,0,1,1,2,1,1,0,2,2,2,1,0,0,0,0,1,1,2,3,0,5,1,1,2,2,2,1,1,0,0,2,0,4,1,2,2,2,1,1,0,1,3,0,1,0,1,3,1,0,0,1],"bins":[-0.0014617072883993387,-0.001425033900886774,-0.0013883603969588876,-0.001351687009446323,-0.0013150135055184364,-0.0012783401180058718,-0.0012416667304933071,-0.0012049932265654206,-0.001168319839052856,-0.0011316464515402913,-0.0010949729476124048,-0.0010582995600998402,-0.0010216261725872755,-0.000984952668659389,-0.0009482792811468244,-0.0009116058354265988,-0.0008749323897063732,-0.0008382589439861476,-0.0008015854982659221,-0.0007649121107533574,-0.0007282386650331318,-0.0006915652193129063,-0.0006548918318003416,-0.000618218386080116,-0.0005815449403598905,-0.0005448714946396649,-0.0005081980489194393,-0.00047152466140687466,-0.0004348512156866491,-0.0003981777699664235,-0.0003615043533500284,-0.0003248309367336333,-0.0002881573745980859,-0.0002514839288778603,-0.0002148105122614652,-0.00017813708109315485,-0.0001414636499248445,-0.00010479021875653416,-6.811678758822381e-05,-3.144335641991347e-05,5.2300747483968735e-06,4.190350591670722e-05,7.857693708501756e-05,0.0001152503682533279,0.00015192379942163825,0.0001885972305899486,0.00022527066175825894,0.00026194407837465405,0.00029861752409487963,0.0003352909698151052,0.0003719643864315003,0.00040863780304789543,0.000445311248768121,0.0004819846944883466,0.0005186580820009112,0.0005553315277211368,0.0005920049734413624,0.000628678419161588,0.0006653518648818135,0.0007020252523943782,0.0007386986981146038,0.0007753721438348293,0.000812045531347394,0.0008487189770676196,0.0008853924227878451],"_type":"histogram"},"gradients/main_layers.2.bias":{"_type":"histogram","values":[2,0,0,0,0,0,0,0,0,0,1,0,0,0,0,0,1,0,0,0,0,1,1,2,2,1,0,0,0,4,1,4,5,6,2,3,3,5,3,2,1,3,0,0,2,0,0,0,3,2,1,0,0,1,0,1,0,0,0,0,0,0,0,1],"bins":[-0.00099957047495991,-0.0009702001116238534,-0.000940829748287797,-0.0009114594431594014,-0.000882089079823345,-0.0008527187164872885,-0.000823348353151232,-0.0007939780480228364,-0.00076460768468678,-0.0007352373213507235,-0.000705866958014667,-0.0006764965946786106,-0.000647126289550215,-0.0006177559262141585,-0.0005883855628781021,-0.0005590151995420456,-0.00052964489441365,-0.0005002745310775936,-0.0004709041677415371,-0.0004415338044054806,-0.0004121634701732546,-0.00038279310683719814,-0.0003534227726049721,-0.00032405240926891565,-0.0002946820459328592,-0.00026531171170063317,-0.00023594136291649193,-0.00020657101413235068,-0.0001772006507962942,-0.00014783030201215297,-0.00011845995322801173,-8.908960444387048e-05,-5.971925565972924e-05,-3.0348905056598596e-05,-9.785544534679502e-07,2.8391796149662696e-05,5.776214675279334e-05,8.713249553693458e-05,0.00011650285159703344,0.00014587320038117468,0.00017524354916531593,0.00020461389794945717,0.0002339842467335984,0.00026335459551773965,0.0002927249588537961,0.00032209529308602214,0.0003514656564220786,0.0003808359906543046,0.0004102063539903611,0.00043957671732641757,0.0004689470515586436,0.0004983174148947,0.0005276877782307565,0.0005570580833591521,0.0005864284466952085,0.000615798810031265,0.0006451691733673215,0.000674539536703378,0.0007039098418317735,0.00073328020516783,0.0007626505685038865,0.0007920209318399429,0.0008213912369683385,0.000850761600304395,0.0008801319636404514]}}