{"_step":20000,"val/total":0.0001962704845936969,"gradients/graph_1main_layers.1.bias":{"values":[1,0,0,1,1,0,0,0,2,0,0,0,2,1,1,1,4,1,0,0,0,2,4,2,1,3,1,2,2,3,2,1,1,3,2,0,0,1,1,3,0,3,1,1,0,2,1,1,1,1,0,0,2,0,1,0,0,0,0,0,0,0,0,1],"bins":[-0.0002471235056873411,-0.00023906286514829844,-0.00023100223916117102,-0.00022294159862212837,-0.00021488097263500094,-0.0002068203320959583,-0.00019875969155691564,-0.00019069906556978822,-0.00018263842503074557,-0.00017457778449170291,-0.0001665171585045755,-0.00015845651796553284,-0.0001503958774264902,-0.00014233525143936276,-0.0001342746109003201,-0.0001262139849131927,-0.00011815334437415004,-0.000110092711111065,-0.00010203207784797996,-9.397143730893731e-05,-8.591080404585227e-05,-7.785017078276724e-05,-6.978953024372458e-05,-6.172889698063955e-05,-5.366826371755451e-05,-4.560763045446947e-05,-3.754699355340563e-05,-2.9486358471331187e-05,-2.1425723389256746e-05,-1.3365088307182305e-05,-5.3044532251078635e-06,2.7561818569665775e-06,1.0816846042871475e-05,1.8877481124945916e-05,2.6938116207020357e-05,3.49987531080842e-05,4.305938637116924e-05,5.112001963425428e-05,5.918065653531812e-05,6.724129343638197e-05,7.5301926699467e-05,8.336255996255204e-05,9.142319322563708e-05,9.948383376467973e-05,0.00010754446702776477,0.0001156051002908498,0.00012366574082989246,0.00013172636681701988,0.00013978700735606253,0.00014784764789510518,0.0001559082738822326,0.00016396891442127526,0.00017202954040840268,0.00018009018094744533,0.00018815082148648798,0.0001962114474736154,0.00020427208801265806,0.0002123327285517007,0.00022039335453882813,0.00022845399507787079,0.00023651463561691344,0.00024457526160404086,0.0002526358875911683,0.00026069654268212616,0.0002687571686692536],"_type":"histogram"},"gradients/graph_1main_layers.2.bias":{"values":[2,0,0,0,0,1,1,1,0,0,0,0,2,1,1,0,0,2,2,0,0,2,1,1,3,0,1,4,1,2,0,1,2,0,2,2,2,3,2,2,0,1,4,1,1,1,0,0,3,0,0,1,1,2,0,1,0,1,0,1,0,0,1,1],"bins":[-0.0001999691012315452,-0.00019333258387632668,-0.00018669608107302338,-0.00018005957826972008,-0.00017342306091450155,-0.00016678654355928302,-0.00016015004075597972,-0.00015351353795267642,-0.00014687702059745789,-0.00014024050324223936,-0.00013360400043893605,-0.00012696749763563275,-0.00012033098028041422,-0.00011369447020115331,-0.00010705796012189239,-0.00010042145004263148,-9.378493996337056e-05,-8.714842988410965e-05,-8.051191980484873e-05,-7.387540972558782e-05,-6.72388996463269e-05,-6.0602389567065984e-05,-5.396587948780507e-05,-4.732936940854415e-05,-4.069285932928324e-05,-3.405634925002232e-05,-2.7419839170761406e-05,-2.078332909150049e-05,-1.4146819012239575e-05,-7.51030893297866e-06,-8.737988537177444e-07,5.762711225543171e-06,1.2399221304804087e-05,1.9035731384065002e-05,2.5672241463325918e-05,3.230875154258683e-05,3.894526162184775e-05,4.5581771701108664e-05,5.221828178036958e-05,5.8854791859630495e-05,6.549130193889141e-05,7.212781201815233e-05,7.876432209741324e-05,8.540083217667416e-05,9.203734225593507e-05,9.867385233519599e-05,0.0001053103624144569,0.00011194687249371782,0.00011858338257297873,0.00012521989992819726,0.00013185640273150057,0.00013849290553480387,0.0001451294228900224,0.00015176594024524093,0.00015840244304854423,0.00016503894585184753,0.00017167546320706606,0.0001783119805622846,0.0001849484833655879,0.0001915849861688912,0.00019822150352410972,0.00020485802087932825,0.00021149452368263155,0.00021813102648593485,0.00022476754384115338],"_type":"histogram"},"gradients/graph_1main_layers.0.weight":{"values":[1,0,0,0,1,0,0,0,1,1,0,0,2,1,0,0,0,0,0,2,7,4,6,6,2,3,9,4,7,16,10,15,12,16,19,26,17,18,15,21,8,7,7,6,5,8,5,8,7,5,3,2,0,0,3,1,0,2,0,0,0,0,0,1],"bins":[-0.0006378726102411747,-0.0006199714262038469,-0.0006020702421665192,-0.0005841691163368523,-0.0005662679322995245,-0.0005483667482621968,-0.0005304656224325299,-0.0005125644383952022,-0.0004946632543578744,-0.0004767620703205466,-0.0004588609153870493,-0.000440959760453552,-0.00042305857641622424,-0.0004051573923788965,-0.00038725623744539917,-0.00036935508251190186,-0.0003514538984745741,-0.0003335527144372463,-0.000315651559503749,-0.0002977504045702517,-0.00027984922053292394,-0.00026194803649559617,-0.00024404688156209886,-0.00022614571207668632,-0.00020824454259127378,-0.00019034337310586125,-0.0001724422036204487,-0.00015454103413503617,-0.00013663986464962363,-0.0001187386951642111,-0.00010083752567879856,-8.293635619338602e-05,-6.503518670797348e-05,-4.713401722256094e-05,-2.9232847737148404e-05,-1.1331678251735866e-05,6.569491233676672e-06,2.447066071908921e-05,4.237183020450175e-05,6.0272999689914286e-05,7.817416917532682e-05,9.607533866073936e-05,0.0001139765081461519,0.00013187767763156444,0.00014977884711697698,0.00016768001660238951,0.00018558118608780205,0.0002034823555732146,0.00022138352505862713,0.00023928469454403967,0.0002571858640294522,0.0002750870189629495,0.0002929882030002773,0.00031088938703760505,0.00032879054197110236,0.00034669169690459967,0.00036459288094192743,0.0003824940649792552,0.0004003952199127525,0.0004182963748462498,0.0004361975588835776,0.00045409874292090535,0.00047199989785440266,0.0004899010527879,0.0005078022368252277],"_type":"histogram"},"train/total":3.376108725205995e-05,"gradients/graph_1main_layers.1.weight":{"_type":"histogram","values":[1,0,1,0,0,0,0,0,0,0,1,2,2,3,4,2,6,6,9,15,16,30,37,49,54,81,121,184,205,329,475,572,533,366,277,186,153,98,70,53,40,33,22,14,13,6,4,7,3,2,4,2,2,0,1,0,0,0,0,0,1,0,0,1],"bins":[-0.00027934234822168946,-0.00027055348618887365,-0.00026176462415605783,-0.00025297573301941156,-0.00024418687098659575,-0.00023539800895377994,-0.0002266091323690489,-0.00021782025578431785,-0.00020903139375150204,-0.00020024253171868622,-0.00019145365513395518,-0.00018266477854922414,-0.00017387591651640832,-0.0001650870544835925,-0.00015629817789886147,-0.00014750930131413043,-0.0001387204392813146,-0.0001299315772484988,-0.00012114270066376776,-0.00011235383135499433,-0.0001035649620462209,-9.477609273744747e-05,-8.598722342867404e-05,-7.719835411990061e-05,-6.840948481112719e-05,-5.962061550235376e-05,-5.083174619358033e-05,-4.20428768848069e-05,-3.325400757603347e-05,-2.4465138267260045e-05,-1.5676268958486617e-05,-6.887399649713188e-06,1.9014987628906965e-06,1.0690368071664125e-05,1.9479237380437553e-05,2.826810668921098e-05,3.705697599798441e-05,4.584584530675784e-05,5.4634714615531266e-05,6.34235839243047e-05,7.221245323307812e-05,8.100132254185155e-05,8.979019185062498e-05,9.85790611593984e-05,0.00010736793046817183,0.00011615679977694526,0.0001249456690857187,0.00013373454567044973,0.00014252340770326555,0.00015131226973608136,0.0001601011463208124,0.00016889002290554345,0.00017767888493835926,0.00018646774697117507,0.00019525662355590612,0.00020404550014063716,0.00021283436217345297,0.0002216232242062688,0.00023041210079099983,0.00023920097737573087,0.0002479898394085467,0.0002567787014413625,0.0002655675634741783,0.0002743564546108246,0.0002831453166436404]},"_wandb":{"runtime":620},"gradients/graph_1output_layer.weight":{"values":[1,0,0,0,0,0,0,0,0,0,0,1,1,1,0,2,2,1,2,0,1,4,1,5,1,4,4,2,3,9,3,6,7,12,14,12,14,14,23,13,10,14,9,8,5,3,5,5,5,3,3,3,4,2,1,1,3,3,0,1,1,1,1,2],"bins":[-0.0003873291425406933,-0.0003771475167013705,-0.00036696591996587813,-0.0003567842941265553,-0.0003466026682872325,-0.00033642107155174017,-0.00032623944571241736,-0.00031605781987309456,-0.00030587619403377175,-0.0002956945972982794,-0.0002855129714589566,-0.0002753313456196338,-0.00026514974888414145,-0.00025496812304481864,-0.00024478649720549583,-0.00023460488591808826,-0.00022442327463068068,-0.0002142416633432731,-0.0002040600375039503,-0.00019387842621654272,-0.00018369680037721992,-0.00017351518908981234,-0.00016333357780240476,-0.00015315195196308196,-0.00014297034067567438,-0.0001327887293882668,-0.000122607103548944,-0.00011242549226153642,-0.00010224387369817123,-9.206225513480604e-05,-8.188064384739846e-05,-7.169902528403327e-05,-6.151740672066808e-05,-5.1335788157302886e-05,-4.11541732319165e-05,-3.097255830653012e-05,-2.0790939743164927e-05,-1.0609322998789139e-05,-4.277062544133514e-07,9.753910489962436e-06,1.9935527234338224e-05,3.011714397871401e-05,4.02987607230898e-05,5.0480375648476183e-05,6.0661994211841375e-05,7.084361277520657e-05,8.102522406261414e-05,9.120684262597933e-05,0.00010138846118934453,0.00011157007975270972,0.00012175169831607491,0.00013193330960348248,0.0001421149354428053,0.00015229654673021287,0.00016247815801762044,0.00017265978385694325,0.00018284139514435083,0.0001930230064317584,0.0002032046322710812,0.00021338624355848879,0.00022356785484589636,0.00023374948068521917,0.00024393109197262675,0.0002541127032600343,0.00026429432909935713],"_type":"histogram"},"val/mse_P_tb_b":8.194162364816293e-05,"gradients/graph_1output_layer.bias":{"bins":[-0.00031729904003441334,-0.00030846247682347894,-0.0002996258845087141,-0.0002907893212977797,-0.0002819527289830148,-0.0002731161657720804,-0.000264279602561146,-0.00025544301024638116,-0.00024660644703544676,-0.00023776986927259713,-0.0002289332915097475,-0.0002200967282988131,-0.00021126015053596348,-0.00020242357277311385,-0.00019358700956217945,-0.00018475043179932982,-0.0001759138540364802,-0.00016707727627363056,-0.00015824069851078093,-0.00014940413529984653,-0.0001405675575369969,-0.00013173097977414727,-0.00012289441656321287,-0.00011405783880036324,-0.00010522126103751361,-9.638468327466398e-05,-8.754811278777197e-05,-7.871154230087996e-05,-6.987496453803033e-05,-6.10383867751807e-05,-5.220181628828868e-05,-4.336524216341786e-05,-3.452866803854704e-05,-2.5692093913676217e-05,-1.6855519788805395e-05,-8.018945663934574e-06,8.176284609362483e-07,9.65420258580707e-06,1.8490776710677892e-05,2.7327350835548714e-05,3.6163924960419536e-05,4.500049908529036e-05,5.383707321016118e-05,6.26736436970532e-05,7.151022145990282e-05,8.034679922275245e-05,8.918336970964447e-05,9.801994019653648e-05,0.00010685651795938611,0.00011569309572223574,0.00012452967348508537,0.00013336623669601977,0.0001422028144588694,0.00015103939222171903,0.00015987595543265343,0.00016871253319550306,0.00017754911095835268,0.00018638568872120231,0.00019522226648405194,0.00020405882969498634,0.00021289540745783597,0.0002217319852206856,0.00023056854843162,0.00023940512619446963,0.00024824170395731926],"_type":"histogram","values":[1,1,0,0,0,0,0,0,0,0,1,0,0,0,0,0,0,0,0,0,0,0,0,0,0,0,0,0,0,0,0,0,0,0,0,0,0,0,0,0,0,0,0,0,0,0,0,0,0,0,0,0,0,0,0,0,0,0,0,0,0,0,0,1]},"gradients/graph_1main_layers.3.bias":{"bins":[-0.00025651458417996764,-0.00024794216733425856,-0.00023936973593663424,-0.00023079731909092516,-0.00022222488769330084,-0.00021365247084759176,-0.00020508003944996744,-0.00019650762260425836,-0.00018793519120663404,-0.00017936277436092496,-0.00017079035751521587,-0.00016221792611759156,-0.00015364550927188247,-0.00014507307787425816,-0.00013650066102854908,-0.00012792822963092476,-0.00011935581278521568,-0.00011078338866354898,-0.00010221096454188228,-9.363854042021558e-05,-8.506611629854888e-05,-7.649369945283979e-05,-6.792127533117309e-05,-5.934885120950639e-05,-5.077642708783969e-05,-4.220400296617299e-05,-3.3631578844506294e-05,-2.50591583608184e-05,-1.64867342391517e-05,-7.914311026979703e-06,6.581121851922944e-07,9.230535397364292e-06,1.780295860953629e-05,2.637538273120299e-05,3.494780685286969e-05,4.352022733655758e-05,5.209265145822428e-05,6.066507557989098e-05,6.923749606357887e-05,7.780992018524557e-05,8.638234430691227e-05,9.495476842857897e-05,0.00010352719255024567,0.00011209961667191237,0.00012067203351762146,0.00012924446491524577,0.00013781688176095486,0.00014638931315857917,0.00015496173000428826,0.00016353414684999734,0.00017210657824762166,0.00018067899509333074,0.00018925142649095505,0.00019782384333666414,0.00020639627473428845,0.00021496869157999754,0.00022354110842570662,0.00023211353982333094,0.00024068595666904002,0.00024925838806666434,0.0002578308049123734,0.0002664032217580825,0.00027497566770762205,0.00028354808455333114,0.0002921205013990402],"_type":"histogram","values":[1,0,0,0,1,1,0,1,0,0,0,0,1,1,1,1,3,1,0,4,2,0,1,2,1,4,1,2,3,4,1,3,2,2,1,3,1,3,1,1,3,1,0,0,0,0,2,0,1,1,1,0,0,0,0,0,0,0,0,0,0,0,0,1]},"gradients/graph_1main_layers.3.weight":{"_type":"histogram","values":[1,0,0,0,1,0,3,2,1,4,2,2,2,3,6,8,11,20,14,29,25,34,47,60,74,104,86,120,145,151,182,232,240,212,262,294,260,232,191,197,136,128,106,81,78,59,46,50,21,36,19,16,8,13,8,8,5,8,3,4,2,3,0,1],"bins":[-0.00014518562238663435,-0.0001409989781677723,-0.00013681234850082546,-0.00013262571883387864,-0.00012843907461501658,-0.00012425243039615452,-0.0001200658007292077,-0.00011587916378630325,-0.00011169252684339881,-0.00010750588990049437,-0.00010331925295758992,-9.913261601468548e-05,-9.494597907178104e-05,-9.07593421288766e-05,-8.657270518597215e-05,-8.238606824306771e-05,-7.819943130016327e-05,-7.401279435725883e-05,-6.982615741435438e-05,-6.563952047144994e-05,-6.14528835285455e-05,-5.7266246585641056e-05,-5.3079609642736614e-05,-4.889297269983217e-05,-4.470633575692773e-05,-4.0519698814023286e-05,-3.6333061871118844e-05,-3.21464249282144e-05,-2.795978798530996e-05,-2.3773151042405516e-05,-1.9586514099501073e-05,-1.539987715659663e-05,-1.1213240213692188e-05,-7.026603270787746e-06,-2.839966327883303e-06,1.3466706150211394e-06,5.533307557925582e-06,9.719944500830024e-06,1.3906581443734467e-05,1.809321838663891e-05,2.2279855329543352e-05,2.6466492272447795e-05,3.065312921535224e-05,3.483976615825668e-05,3.902640310116112e-05,4.3213040044065565e-05,4.739967698697001e-05,5.158631392987445e-05,5.577295087277889e-05,5.9959587815683335e-05,6.414622475858778e-05,6.833286170149222e-05,7.251949864439666e-05,7.67061355873011e-05,8.089277253020555e-05,8.507940947310999e-05,8.926604641601443e-05,9.345268335891888e-05,9.763932030182332e-05,0.00010182595724472776,0.0001060125941876322,0.00011019923113053665,0.00011438586807344109,0.00011857250501634553,0.00012275914195924997]},"val/mse_P_bh":0.00010596581705613062,"val/mae_P_bh":0.007246907334774733,"gradients/graph_1main_layers.0.bias":{"bins":[-0.0003128757234662771,-0.0003014761605300009,-0.00029007659759372473,-0.00027867703465744853,-0.00026727747172117233,-0.00025587790878489614,-0.00024447834584861994,-0.00023307879746425897,-0.00022167923452798277,-0.00021027967159170657,-0.00019888010865543038,-0.00018748054571915418,-0.0001760809973347932,-0.000164681434398517,-0.00015328187146224082,-0.00014188230852596462,-0.00013048274558968842,-0.00011908318265341222,-0.00010768361971713603,-9.628406405681744e-05,-8.488450112054124e-05,-7.348493818426505e-05,-6.208538252394646e-05,-5.068581958767027e-05,-3.928625665139407e-05,-2.7886695534107275e-05,-1.648713441682048e-05,-5.0875732995336875e-06,6.311987817753106e-06,1.77115489350399e-05,2.9111110052326694e-05,4.0510669350624084e-05,5.1910203183069825e-05,6.330976611934602e-05,7.470932905562222e-05,8.61088847159408e-05,9.7508447652217e-05,0.0001089080105884932,0.00012030756624881178,0.00013170712918508798,0.00014310669212136418,0.00015450625505764037,0.00016590581799391657,0.00017730538093019277,0.00018870492931455374,0.00020010449225082994,0.00021150405518710613,0.00022290361812338233,0.00023430318105965853,0.0002457027439959347,0.0002571023069322109,0.0002685018698684871,0.0002799014328047633,0.0002913009957410395,0.0003027005586773157,0.0003141001216135919,0.0003254996845498681,0.00033689921838231385,0.00034829878131859004,0.00035969834425486624,0.00037109790719114244,0.00038249747012741864,0.00039389703306369483,0.00040529659599997103,0.00041669615893624723],"_type":"histogram","values":[1,1,0,0,0,0,1,0,0,0,3,2,0,1,2,2,1,1,3,0,1,1,0,3,4,3,3,1,2,2,5,2,2,2,2,0,2,3,2,0,0,1,0,0,0,0,0,1,0,0,0,1,0,0,1,1,0,0,0,0,0,0,0,1]},"gradients/graph_1main_layers.2.weight":{"_type":"histogram","values":[2,3,3,3,5,3,8,3,5,10,10,13,15,11,20,19,27,33,38,47,49,70,91,86,101,146,155,188,210,224,262,298,259,252,240,181,166,130,114,100,77,63,62,53,51,33,21,19,18,17,16,17,10,10,3,4,3,8,5,1,0,2,1,2],"bins":[-0.00012174432049505413,-0.00011787397670559585,-0.00011400364019209519,-0.00011013329640263692,-0.00010626295261317864,-0.00010239261609967798,-9.85222723102197e-05,-9.465192852076143e-05,-9.078158473130316e-05,-8.69112482178025e-05,-8.304090442834422e-05,-7.917056063888595e-05,-7.530022412538528e-05,-7.142988033592701e-05,-6.755953654646873e-05,-6.368920003296807e-05,-5.98188562435098e-05,-5.594851609203033e-05,-5.207817230257206e-05,-4.820783215109259e-05,-4.4337488361634314e-05,-4.0467148210154846e-05,-3.659680805867538e-05,-3.2726464269217104e-05,-2.8856124117737636e-05,-2.4985782147268765e-05,-2.1115440176799893e-05,-1.7245100025320426e-05,-1.3374758054851554e-05,-9.504416084382683e-06,-5.6340750234085135e-06,-1.7637335076869931e-06,2.1066080080345273e-06,5.976949523756048e-06,9.847291039477568e-06,1.3717632100451738e-05,1.758797407092061e-05,2.145831604138948e-05,2.5328656192868948e-05,2.919899816333782e-05,3.306934013380669e-05,3.693968028528616e-05,4.081002407474443e-05,4.46803642262239e-05,4.855070437770337e-05,5.2421048167161644e-05,5.629138831864111e-05,6.0161732108099386e-05,6.403207225957885e-05,6.790241604903713e-05,7.177275256253779e-05,7.564309635199606e-05,7.951344014145434e-05,8.3383776654955e-05,8.725412044441327e-05,9.112446423387155e-05,9.499480074737221e-05,9.886514453683048e-05,0.00010273548832628876,0.00010660583211574703,0.0001104761686292477,0.00011434651241870597,0.00011821685620816424,0.0001220871927216649,0.00012595753651112318]},"val/rmse_P_bh":0.010294455103576183,"val/mae_P_tb_b":0.006758626084774733,"_timestamp":1.7765626136473901e+09,"val/rmse_P_tb_b":0.00905271340161562,"_runtime":620}