{"gradients/layers.1.bias":{"values":[1,1,0,2,0,1,2,0,1,0,1,2,1,2,1,2,2,2,3,2,1,2,2,3,0,3,2,1,1,2,0,2,3,2,1,3,2,0,2,1,0,0,0,0,0,0,1,0,1,0,0,0,0,1,0,0,0,1,0,0,0,0,0,1],"bins":[-10.865546226501465,-10.405187606811523,-9.944828987121582,-9.48447036743164,-9.024110794067383,-8.563752174377441,-8.1033935546875,-7.643034934997559,-7.182676315307617,-6.722317695617676,-6.261959075927734,-5.801599979400635,-5.341241359710693,-4.880882740020752,-4.420523643493652,-3.960165023803711,-3.4998064041137695,-3.039447784423828,-2.5790889263153076,-2.118730068206787,-1.6583714485168457,-1.1980127096176147,-0.7376539707183838,-0.27729523181915283,0.18306350708007812,0.6434222459793091,1.10378098487854,1.564139723777771,2.024498462677002,2.4848570823669434,2.945215940475464,3.4055747985839844,3.8659324645996094,4.326291084289551,4.786649703979492,5.247008800506592,5.707367420196533,6.167726039886475,6.628085136413574,7.088443756103516,7.548802375793457,8.009160995483398,8.46951961517334,8.929878234863281,9.390237808227539,9.85059642791748,10.310955047607422,10.771313667297363,11.231672286987305,11.692030906677246,12.152389526367188,12.612748146057129,13.07310676574707,13.533466339111328,13.99382495880127,14.454183578491211,14.914542198181152,15.374900817871094,15.835259437561035,16.295618057250977,16.755977630615234,17.21633529663086,17.676694869995117,18.137052536010742,18.597412109375],"_type":"histogram"},"train/physics_comp_0":3.8830734411021695e-05,"val/total":1.866918125e+06,"gradients/layers.2.weight":{"_type":"histogram","values":[2,0,0,0,3,0,2,3,7,3,5,3,5,7,15,15,22,18,19,27,46,33,52,59,72,100,97,148,146,183,266,427,605,386,228,193,168,102,102,113,101,44,55,37,30,22,24,18,15,14,11,10,5,5,5,3,5,3,2,1,0,2,1,1],"bins":[-9.211650848388672,-8.92749309539795,-8.643336296081543,-8.35917854309082,-8.075021743774414,-7.79086446762085,-7.506707191467285,-7.222549915313721,-6.938392639160156,-6.654234886169434,-6.370077610015869,-6.085920333862305,-5.80176305770874,-5.517605781555176,-5.233448505401611,-4.949291229248047,-4.665133953094482,-4.380976676940918,-4.0968194007873535,-3.812662124633789,-3.5285048484802246,-3.244347333908081,-2.9601900577545166,-2.676032781600952,-2.3918755054473877,-2.1077182292938232,-1.8235609531402588,-1.5394035577774048,-1.2552462816238403,-0.9710890054702759,-0.6869316697120667,-0.4027743637561798,-0.11861705780029297,0.16554024815559387,0.4496975541114807,0.7338548898696899,1.0180121660232544,1.3021694421768188,1.5863268375396729,1.8704841136932373,2.1546413898468018,2.438798666000366,2.7229559421539307,3.007113218307495,3.2912707328796387,3.575428009033203,3.8595852851867676,4.143742561340332,4.4278998374938965,4.712057113647461,4.996214389801025,5.28037166595459,5.564528942108154,5.848686218261719,6.132843494415283,6.417000770568848,6.70115852355957,6.985315799713135,7.269473075866699,7.553630352020264,7.837787628173828,8.121944427490234,8.406102180480957,8.690258979797363,8.974416732788086]},"train/data":0.098786860704422,"_wandb":{"runtime":82},"train/physics_comp_2":9.98316227196483e-06,"gradients/layers.2.bias":{"_type":"histogram","values":[1,0,0,0,0,0,1,1,0,0,0,1,2,1,0,0,1,1,0,3,4,0,2,2,2,0,2,0,4,2,2,3,3,0,1,0,1,2,3,2,1,1,1,2,0,1,3,2,1,1,0,0,1,0,0,2,0,0,0,0,0,0,0,1],"bins":[-11.661005020141602,-11.27585506439209,-10.890705108642578,-10.505555152893066,-10.120405197143555,-9.735255241394043,-9.350105285644531,-8.96495532989502,-8.579805374145508,-8.19465446472168,-7.809504985809326,-7.4243550300598145,-7.0392045974731445,-6.654054641723633,-6.268904685974121,-5.883754730224609,-5.498604774475098,-5.113454818725586,-4.728304862976074,-4.3431549072265625,-3.9580047130584717,-3.57285475730896,-3.187704563140869,-2.8025546073913574,-2.4174046516418457,-2.032254695892334,-1.6471046209335327,-1.2619545459747314,-0.8768045902252197,-0.49165457487106323,-0.10650455951690674,0.27864545583724976,0.6637954711914062,1.048945426940918,1.4340955018997192,1.8192455768585205,2.2043955326080322,2.589545488357544,2.9746956825256348,3.3598456382751465,3.744995594024658,4.13014554977417,4.515295505523682,4.900445461273193,5.285595893859863,5.670745849609375,6.055895805358887,6.441045761108398,6.82619571685791,7.211345672607422,7.596495628356934,7.981645584106445,8.366795539855957,8.751945495605469,9.13709545135498,9.522245407104492,9.90739631652832,10.292546272277832,10.677696228027344,11.062846183776855,11.447996139526367,11.833146095275879,12.21829605102539,12.603446006774902,12.988595962524414]},"_step":7000,"gradients/layers.1.weight":{"_type":"histogram","values":[1,0,0,0,0,1,3,3,2,3,2,5,8,15,6,22,24,29,29,46,57,83,146,203,288,422,475,521,473,360,237,179,119,87,56,52,33,23,20,9,4,9,8,6,2,3,5,4,2,1,2,2,1,1,1,2,0,0,0,0,0,0,0,1],"bins":[-5.291826248168945,-5.09847354888916,-4.905120849609375,-4.711767673492432,-4.5184149742126465,-4.325062274932861,-4.131709098815918,-3.938356399536133,-3.7450037002563477,-3.5516510009765625,-3.3582980632781982,-3.164945125579834,-2.971592426300049,-2.7782397270202637,-2.5848867893218994,-2.391533851623535,-2.19818115234375,-2.004828453063965,-1.8114755153656006,-1.6181226968765259,-1.4247698783874512,-1.2314170598983765,-1.0380642414093018,-0.844711422920227,-0.6513586044311523,-0.45800578594207764,-0.26465296745300293,-0.07130014896392822,0.12205266952514648,0.3154054880142212,0.5087583065032959,0.7021111249923706,0.8954644203186035,1.0888172388076782,1.282170057296753,1.4755228757858276,1.6688756942749023,1.862228512763977,2.0555813312530518,2.248934268951416,2.442286968231201,2.6356396675109863,2.8289926052093506,3.022345542907715,3.2156982421875,3.409050941467285,3.6024038791656494,3.7957568168640137,3.989109516143799,4.182462215423584,4.375815391540527,4.5691680908203125,4.762520790100098,4.955873489379883,5.149226188659668,5.342579364776611,5.5359320640563965,5.729284763336182,5.922637939453125,6.11599063873291,6.309343338012695,6.5026960372924805,6.696048736572266,6.889401912689209,7.082754611968994]},"gradients/layers.0.bias":{"bins":[-24.82365608215332,-23.513769149780273,-22.20388412475586,-20.893997192382812,-19.584110260009766,-18.27422332763672,-16.964336395263672,-15.654451370239258,-14.344564437866211,-13.034677505493164,-11.724791526794434,-10.414905548095703,-9.105018615722656,-7.795132160186768,-6.485245704650879,-5.17535924911499,-3.8654727935791016,-2.555586338043213,-1.2456998825073242,0.06418657302856445,1.3740730285644531,2.683959484100342,3.9938459396362305,5.303732395172119,6.613618850708008,7.9235053062438965,9.233391761779785,10.543277740478516,11.853164672851562,13.16305160522461,14.47293758392334,15.78282356262207,17.09271240234375,18.402599334716797,19.712486267089844,21.022371292114258,22.332258224487305,23.64214515686035,24.952030181884766,26.261917114257812,27.57180404663086,28.881690979003906,30.191577911376953,31.501462936401367,32.81134796142578,34.12123489379883,35.431121826171875,36.74100875854492,38.05089569091797,39.360782623291016,40.67066955566406,41.98055648803711,43.290443420410156,44.60032653808594,45.910213470458984,47.22010040283203,48.52998733520508,49.839874267578125,51.14976119995117,52.45964813232422,53.76953125,55.07941818237305,56.389305114746094,57.69919204711914,59.00907897949219],"_type":"histogram","values":[1,1,0,3,0,0,1,1,4,1,0,0,2,2,3,2,1,4,1,2,3,1,3,3,2,3,1,1,4,4,2,1,1,2,2,1,0,0,0,0,0,0,0,0,0,0,0,0,0,0,0,0,0,0,0,0,0,0,0,0,0,0,0,1]},"gradients/out.weight":{"bins":[-45.069950103759766,-43.637611389160156,-42.20527648925781,-40.7729377746582,-39.34060287475586,-37.90826416015625,-36.475929260253906,-35.0435905456543,-33.61125183105469,-32.178916931152344,-30.746580123901367,-29.31424331665039,-27.88190460205078,-26.449567794799805,-25.017230987548828,-23.58489418029785,-22.152557373046875,-20.7202205657959,-19.287883758544922,-17.855546951293945,-16.42321014404297,-14.990872383117676,-13.558534622192383,-12.126197814941406,-10.69386100769043,-9.261524200439453,-7.829186916351318,-6.396849632263184,-4.964512825012207,-3.5321757793426514,-2.0998387336730957,-0.66750168800354,0.7648353576660156,2.1971724033355713,3.629509449005127,5.061846733093262,6.494183540344238,7.926520347595215,9.358858108520508,10.791194915771484,12.223531723022461,13.655868530273438,15.088205337524414,16.52054214477539,17.952880859375,19.385217666625977,20.817554473876953,22.24989128112793,23.682228088378906,25.114564895629883,26.54690170288086,27.979238510131836,29.411575317382812,30.843914031982422,32.276248931884766,33.708587646484375,35.14092254638672,36.57326126098633,38.00559997558594,39.43793487548828,40.87027359008789,42.302608489990234,43.734947204589844,45.16728210449219,46.5996208190918],"_type":"histogram","values":[1,1,3,0,0,0,2,0,0,0,2,1,0,3,2,0,1,0,3,0,0,3,0,0,0,1,1,1,8,14,34,35,29,12,2,1,0,1,1,0,1,0,1,0,0,0,2,1,1,2,3,4,1,2,1,1,4,0,1,0,1,1,0,3]},"train/physics":3.7292014894774184e-05,"train/physics_comp_1":6.306215800577775e-05,"_runtime":82,"gradients/out.bias":{"_type":"histogram","values":[1,1,0,0,0,0,0,0,0,0,0,0,0,0,0,0,0,0,0,0,0,0,0,0,0,0,0,0,0,0,0,0,0,0,0,0,0,0,0,0,0,0,0,0,0,0,0,0,0,0,0,0,0,0,0,0,0,0,0,0,0,0,0,1],"bins":[-3.8302204608917236,-3.042339324951172,-2.254457950592041,-1.4665766954421997,-0.6786954402923584,0.10918581485748291,0.8970670700073242,1.6849483251571655,2.472829580307007,3.2607107162475586,4.0485920906066895,4.83647346496582,5.624354362487793,6.412235736846924,7.200117111206055,7.9879984855651855,8.775879859924316,9.563760757446289,10.351642608642578,11.13952350616455,11.927404403686523,12.715286254882812,13.503167152404785,14.291048049926758,15.078929901123047,15.86681079864502,16.654691696166992,17.44257354736328,18.23045539855957,19.018335342407227,19.806217193603516,20.594099044799805,21.381980895996094,22.169862747192383,22.95774269104004,23.745624542236328,24.533506393432617,25.321386337280273,26.109268188476562,26.89715003967285,27.68503189086914,28.472911834716797,29.260793685913086,30.048675537109375,30.83655548095703,31.62443733215332,32.41231918334961,33.200199127197266,33.98808288574219,34.775962829589844,35.5638427734375,36.35172653198242,37.13960647583008,37.927486419677734,38.715370178222656,39.50325012207031,40.29113006591797,41.07901382446289,41.86689376831055,42.6547737121582,43.442657470703125,44.23053741455078,45.01841735839844,45.80630111694336,46.594181060791016]},"_timestamp":1.77652547535803e+09,"gradients/layers.0.weight":{"values":[1,0,0,0,0,0,0,0,0,0,0,0,0,0,0,0,0,0,0,0,0,0,0,0,0,0,0,0,1,2,1,2,4,0,4,1,2,3,2,3,4,10,14,10,6,8,9,12,5,4,4,3,1,1,0,1,1,3,0,0,1,2,1,2],"bins":[-41.197174072265625,-40.28996658325195,-39.38275909423828,-38.47555160522461,-37.56834411621094,-36.66114044189453,-35.75393295288086,-34.84672546386719,-33.939517974853516,-33.032310485839844,-32.12510299682617,-31.2178955078125,-30.31068992614746,-29.40348243713379,-28.496274948120117,-27.589067459106445,-26.681861877441406,-25.774654388427734,-24.867446899414062,-23.96023941040039,-23.05303192138672,-22.14582633972168,-21.238618850708008,-20.331411361694336,-19.424203872680664,-18.516996383666992,-17.609790802001953,-16.70258331298828,-15.79537582397461,-14.888169288635254,-13.980961799621582,-13.073755264282227,-12.166547775268555,-11.259340286254883,-10.352133750915527,-9.444926261901855,-8.5377197265625,-7.630512237548828,-6.7233052253723145,-5.816098213195801,-4.908891201019287,-4.001684188842773,-3.0944771766662598,-2.187269926071167,-1.2800629138946533,-0.3728558421134949,0.5343512296676636,1.4415583610534668,2.3487653732299805,3.255972385406494,4.163179397583008,5.0703864097595215,5.977593421936035,6.884800910949707,7.792007923126221,8.699214935302734,9.606422424316406,10.513628959655762,11.420836448669434,12.328042984008789,13.235250473022461,14.142457008361816,15.049664497375488,15.956871032714844,16.864078521728516],"_type":"histogram"},"train/total":98.78689575195312}