{"gradients/encoder_2.bias":{"_type":"histogram","values":[1,1,0,0,0,0,0,0,0,0,1,2,1,1,0,3,0,3,2,6,8,3,1,1,0,1,2,4,0,2,0,3,0,1,1,1,0,0,1,0,2,1,0,1,1,0,1,0,2,0,0,0,0,0,1,0,0,0,1,2,0,0,1,1],"bins":[-0.00012653993326239288,-0.00012182494538137689,-0.0001171099575003609,-0.00011239497689530253,-0.00010767998901428655,-0.00010296500113327056,-9.825002052821219e-05,-9.35350326471962e-05,-8.882004476618022e-05,-8.410505688516423e-05,-7.939006900414824e-05,-7.467508839908987e-05,-6.996010051807389e-05,-6.52451126370579e-05,-6.053012839402072e-05,-5.581514415098354e-05,-5.1100156269967556e-05,-4.638516838895157e-05,-4.167018414591439e-05,-3.695519990287721e-05,-3.2240212021861225e-05,-2.7525225959834643e-05,-2.281023989780806e-05,-1.8095253835781477e-05,-1.3380267773754895e-05,-8.665281711728312e-06,-3.950295649701729e-06,7.646904123248532e-07,5.479676474351436e-06,1.0194662536378019e-05,1.4909648598404601e-05,1.9624634660431184e-05,2.4339635274372995e-05,2.9054621336399578e-05,3.376960739842616e-05,3.848459164146334e-05,4.3199579522479326e-05,4.791456740349531e-05,5.262955164653249e-05,5.734453588956967e-05,6.205952377058566e-05,6.677451165160164e-05,7.148949953261763e-05,7.6204480137676e-05,8.091946801869199e-05,8.563445589970797e-05,9.034943650476635e-05,9.506442438578233e-05,9.977941226679832e-05,0.0001044944001478143,0.00010920938802883029,0.00011392436863388866,0.00011863935651490465,0.00012335434439592063,0.000128069325000979,0.0001327843201579526,0.00013749930076301098,0.00014221428136806935,0.00014692927652504295,0.00015164425713010132,0.00015635925228707492,0.0001610742328921333,0.00016578921349719167,0.00017050420865416527,0.00017521918925922364]},"val/total":6.17711067199707,"gradients/layers.2.weight":{"values":[1,0,0,0,0,2,0,1,0,0,0,3,1,5,2,8,3,9,10,15,20,24,39,47,61,73,104,138,195,280,411,535,598,455,285,216,163,96,72,48,46,25,20,21,16,16,1,3,9,1,5,1,2,2,2,0,0,1,1,1,1,1,0,1],"bins":[-7.59420872782357e-05,-7.357111462624744e-05,-7.120014925021678e-05,-6.882917659822851e-05,-6.645820394624025e-05,-6.408723857020959e-05,-6.171626591822132e-05,-5.934529326623306e-05,-5.6974324252223596e-05,-5.4603355238214135e-05,-5.223238258622587e-05,-4.9861413572216406e-05,-4.7490444558206946e-05,-4.511947190621868e-05,-4.274850289220922e-05,-4.037753024022095e-05,-3.800656122621149e-05,-3.563559221220203e-05,-3.326461956021376e-05,-3.08936505462043e-05,-2.8522679713205434e-05,-2.615170888020657e-05,-2.378073986619711e-05,-2.1409769033198245e-05,-1.903879820019938e-05,-1.6667827367200516e-05,-1.4296857443696354e-05,-1.1925887520192191e-05,-9.554916687193327e-06,-7.183946308941813e-06,-4.8129759306903e-06,-2.4420055524387863e-06,-7.10278982296586e-08,2.299942480021855e-06,4.670912858273368e-06,7.041883236524882e-06,9.412853614776395e-06,1.178382444777526e-05,1.4154794371279422e-05,1.6525764294783585e-05,1.889673512778245e-05,2.1267705960781313e-05,2.3638676793780178e-05,2.600964580778964e-05,2.8380616640788503e-05,3.075158747378737e-05,3.312255648779683e-05,3.5493529139785096e-05,3.786449815379456e-05,4.023546716780402e-05,4.2606439819792286e-05,4.4977408833801746e-05,4.7348381485790014e-05,4.9719350499799475e-05,5.2090319513808936e-05,5.4461292165797204e-05,5.6832261179806665e-05,5.9203230193816125e-05,6.15742028458044e-05,6.394517549779266e-05,6.631614087382331e-05,6.868711352581158e-05,7.105808617779985e-05,7.34290515538305e-05,7.580002420581877e-05],"_type":"histogram"},"train/total":0.00015028247435111552,"train/physics_comp_1":5.817435067001497e-07,"gradients/layers.0.bias":{"values":[1,0,0,0,0,0,0,0,0,0,0,0,0,0,0,0,0,0,0,0,0,0,0,0,1,0,0,0,0,0,0,0,0,0,0,0,0,0,0,0,1,0,2,1,0,2,2,2,3,5,8,4,7,6,5,4,0,4,1,2,0,1,0,2],"bins":[-0.00015256030019372702,-0.00014957723033148795,-0.00014659417502116412,-0.00014361110515892506,-0.000140628035296686,-0.00013764496543444693,-0.0001346619101241231,-0.00013167884026188403,-0.00012869577039964497,-0.00012571271508932114,-0.00012272964522708207,-0.00011974658264080063,-0.00011676351277856156,-0.00011378045019228011,-0.00011079738033004105,-0.0001078143177437596,-0.00010483125515747815,-0.00010184818529523909,-9.886512270895764e-05,-9.588205284671858e-05,-9.289899026043713e-05,-8.991592039819807e-05,-8.693285781191662e-05,-8.394979522563517e-05,-8.096672536339611e-05,-7.798366277711466e-05,-7.50005929148756e-05,-7.201753032859415e-05,-6.90344677423127e-05,-6.605139788007364e-05,-6.306833529379219e-05,-6.008526906953193e-05,-5.7102206483250484e-05,-5.411914025899023e-05,-5.113607403472997e-05,-4.8153011448448524e-05,-4.516994522418827e-05,-4.218687899992801e-05,-3.920381277566776e-05,-3.62207465514075e-05,-3.3237680327147245e-05,-3.0254615921876393e-05,-2.727155151660554e-05,-2.4288485292345285e-05,-2.130541906808503e-05,-1.8322354662814178e-05,-1.5339288438553922e-05,-1.2356223123788368e-05,-9.373157809022814e-06,-6.39009249425726e-06,-3.4070267247443553e-06,-4.2396118260512594e-07,2.5591043595341034e-06,5.542169674299657e-06,8.525235898559913e-06,1.1508301213325467e-05,1.4491366528091021e-05,1.7474432752351277e-05,2.045749715762213e-05,2.3440563381882384e-05,2.642362960614264e-05,2.9406694011413492e-05,3.2389758416684344e-05,3.53728246409446e-05,3.8355890865204856e-05],"_type":"histogram"},"_runtime":129,"gradients/out.weight":{"bins":[-0.0001949464058270678,-0.00018913601525127888,-0.00018332562467548996,-0.00017751521954778582,-0.0001717048289719969,-0.000165894438396208,-0.00016008404782041907,-0.00015427365724463016,-0.00014846326666884124,-0.0001426528615411371,-0.00013684247096534818,-0.00013103208038955927,-0.00012522168981377035,-0.00011941129196202382,-0.00011360090138623491,-0.00010779050353448838,-0.00010198011295869946,-9.616972238291055e-05,-9.035932453116402e-05,-8.45489339553751e-05,-7.873853610362858e-05,-7.292814552783966e-05,-6.711775495205075e-05,-6.130735710030422e-05,-5.54969665245153e-05,-4.968657231074758e-05,-4.3876178096979856e-05,-3.806578752119094e-05,-3.225539330742322e-05,-2.6444999093655497e-05,-2.0634606698877178e-05,-1.4824213394604158e-05,-9.013820090331137e-06,-3.2034267860581167e-06,2.6069665182149038e-06,8.417359822487924e-06,1.4227753126760945e-05,2.0038147340528667e-05,2.5848539735306986e-05,3.1658932130085304e-05,3.746932634385303e-05,4.327972055762075e-05,4.909011477138847e-05,5.4900505347177386e-05,6.071089956094511e-05,6.652129377471283e-05,7.233168435050175e-05,7.814208220224828e-05,8.395247277803719e-05,8.97628633538261e-05,9.557326120557263e-05,0.00010138365178136155,0.00010719404963310808,0.000113004440208897,0.00011881483078468591,0.00012462522136047482,0.00013043562648817897,0.00013624601706396788,0.0001420564076397568,0.00014786679821554571,0.00015367718879133463,0.00015948757936712354,0.0001652979844948277,0.0001711083750706166,0.00017691876564640552],"_type":"histogram","values":[1,0,0,0,0,0,1,0,0,0,0,0,1,0,2,0,3,2,0,1,0,2,0,2,3,4,6,7,4,10,12,18,9,7,4,10,10,10,5,9,7,13,6,7,3,1,3,1,1,0,0,0,2,2,0,0,0,0,2,0,0,0,0,1]},"gradients/encoder_2.weight":{"_type":"histogram","values":[1,0,0,1,0,0,0,1,2,3,0,2,2,0,1,2,2,2,1,3,0,2,4,4,6,3,5,3,7,4,5,3,4,3,9,7,5,4,3,4,2,2,2,2,3,2,1,0,1,0,0,1,1,0,0,1,0,1,0,0,0,0,0,1],"bins":[-0.00019833863188978285,-0.00019203964620828629,-0.0001857406459748745,-0.00017944166029337794,-0.00017314267461188138,-0.00016684367437846959,-0.00016054468869697303,-0.00015424570301547647,-0.00014794670278206468,-0.00014164771710056812,-0.00013534873141907156,-0.000129049745737575,-0.0001227507455041632,-0.00011645175982266665,-0.00011015276686521247,-0.00010385378118371591,-9.755478822626173e-05,-9.125579526880756e-05,-8.4956809587311e-05,-7.865781662985682e-05,-7.235883094836026e-05,-6.605983799090609e-05,-5.9760845033451915e-05,-5.346185571397655e-05,-4.716286639450118e-05,-4.086387707502581e-05,-3.4564887755550444e-05,-2.826589479809627e-05,-2.1966905478620902e-05,-1.5667916159145534e-05,-9.368925020680763e-06,-3.0699347917106934e-06,3.2290408853441477e-06,9.528031114314217e-06,1.5827021343284287e-05,2.2126012481749058e-05,2.8425001801224425e-05,3.472399112069979e-05,4.102298407815397e-05,4.7321973397629336e-05,5.36209627171047e-05,5.991995203658007e-05,6.621894135605544e-05,7.251793431350961e-05,7.881692727096379e-05,8.511591295246035e-05,9.141490590991452e-05,9.771389159141108e-05,0.00010401288454886526,0.00011031187750631943,0.000116610863187816,0.00012290985614527017,0.00012920884182676673,0.00013550784206017852,0.00014180682774167508,0.00014810581342317164,0.00015440481365658343,0.00016070379933808,0.00016700278501957655,0.0001733017707010731,0.0001796007709344849,0.00018589975661598146,0.00019219874229747802,0.0001984977425308898,0.00020479672821238637]},"_timestamp":1.7726865094827235e+09,"_step":7000,"gradients/layers.2.bias":{"bins":[-4.14535534218885e-05,-4.023570363642648e-05,-3.901785385096446e-05,-3.780000770348124e-05,-3.658215791801922e-05,-3.53643081325572e-05,-3.4146458347095177e-05,-3.2928608561633155e-05,-3.171076241414994e-05,-3.0492910809698515e-05,-2.9275062843225896e-05,-2.8057213057763875e-05,-2.6839363272301853e-05,-2.5621515305829234e-05,-2.4403665520367213e-05,-2.3185817553894594e-05,-2.1967967768432572e-05,-2.075011798297055e-05,-1.9532270016497932e-05,-1.831442023103591e-05,-1.7096572264563292e-05,-1.587872247910127e-05,-1.4660872693639249e-05,-1.3443023817671929e-05,-1.2225174941704609e-05,-1.1007326065737288e-05,-9.789477189769968e-06,-8.571627404307947e-06,-7.3537785283406265e-06,-6.1359296523733065e-06,-4.9180803216586355e-06,-3.70023121831764e-06,-2.4823821149766445e-06,-1.264533011635649e-06,-4.668390829465352e-08,1.171165195046342e-06,2.3890142983873375e-06,3.606863401728333e-06,4.8247125050693285e-06,6.042561835783999e-06,7.2604107117513195e-06,8.47825958771864e-06,9.69610846368596e-06,1.0913958249147981e-05,1.2131807125115301e-05,1.3349656001082622e-05,1.4567505786544643e-05,1.578535375301726e-05,1.7003203538479283e-05,1.8221053323941305e-05,1.9438901290413924e-05,2.0656751075875945e-05,2.1874599042348564e-05,2.3092448827810585e-05,2.4310298613272607e-05,2.5528146579745226e-05,2.6745996365207247e-05,2.796384615066927e-05,2.9181694117141888e-05,3.039954390260391e-05,3.161739368806593e-05,3.283524347352795e-05,3.405308962101117e-05,3.527093940647319e-05,3.648878919193521e-05],"_type":"histogram","values":[2,0,0,0,1,0,0,0,1,1,0,0,0,1,0,1,1,0,0,0,1,0,2,0,0,3,2,1,2,2,3,1,3,3,0,4,0,3,1,1,2,2,2,2,2,2,1,2,0,0,2,1,0,0,0,0,1,0,1,0,0,1,0,3]},"train/physics":2.158458443091149e-07,"train/physics_comp_2":2.888587857796665e-08,"gradients/layers.1.weight":{"bins":[-5.297807001625188e-05,-5.066888843430206e-05,-4.835970685235225e-05,-4.605052890838124e-05,-4.3741347326431423e-05,-4.143216574448161e-05,-3.912298416253179e-05,-3.681380258058198e-05,-3.450462099863216e-05,-3.2195443054661155e-05,-2.988626147271134e-05,-2.7577079890761524e-05,-2.526789830881171e-05,-2.2958718545851298e-05,-2.0649536963901483e-05,-1.834035720094107e-05,-1.6031175618991256e-05,-1.3721994946536142e-05,-1.1412814274081029e-05,-9.103632692131214e-06,-6.7944520196761005e-06,-4.485271347220987e-06,-2.176090220018523e-06,1.33090679810266e-07,2.442271579639055e-06,4.751452252094168e-06,7.0606333792966325e-06,9.369814506499097e-06,1.167899517895421e-05,1.3988175851409324e-05,1.629735743335914e-05,1.860653719631955e-05,2.0915722416248173e-05,2.3224903998197988e-05,2.55340837611584e-05,2.7843265343108214e-05,3.0152445106068626e-05,3.246162668801844e-05,3.4770808269968256e-05,3.707998985191807e-05,3.938916779588908e-05,4.1698349377838895e-05,4.400753095978871e-05,4.6316712541738525e-05,4.862589412368834e-05,5.0935075705638155e-05,5.3244253649609163e-05,5.555343523155898e-05,5.7862616813508794e-05,6.017179839545861e-05,6.248097633942962e-05,6.479016155935824e-05,6.709933950332925e-05,6.940852472325787e-05,7.171770266722888e-05,7.402688061119989e-05,7.633606583112851e-05,7.864524377509952e-05,8.095442899502814e-05,8.326360693899915e-05,8.557278488297015e-05,8.788197010289878e-05,9.019114804686978e-05,9.250033326679841e-05,9.480951121076941e-05],"_type":"histogram","values":[1,0,0,0,0,1,2,1,3,2,7,3,11,6,17,21,38,65,88,146,293,465,977,884,416,246,138,113,51,34,18,11,17,6,4,3,1,1,0,2,0,1,0,1,0,0,0,0,0,0,1,0,0,0,0,0,0,0,0,0,0,0,0,1]},"gradients/layers.0.weight":{"bins":[-3.3641146728768945e-05,-3.083140109083615e-05,-2.802165545290336e-05,-2.5211909814970568e-05,-2.2402164177037776e-05,-1.9592418539104983e-05,-1.678267290117219e-05,-1.3972927263239399e-05,-1.1163181625306606e-05,-8.353435987373814e-06,-5.543690349441022e-06,-2.7339447115082294e-06,7.580092642456293e-08,2.8855465643573552e-06,5.6952922022901475e-06,8.50503784022294e-06,1.1314783478155732e-05,1.4124529116088524e-05,1.6934274754021317e-05,1.974402039195411e-05,2.25537660298869e-05,2.5363511667819694e-05,2.8173257305752486e-05,3.098300294368528e-05,3.379274858161807e-05,3.660249421955086e-05,3.9412239857483655e-05,4.222198549541645e-05,4.503173113334924e-05,4.784147677128203e-05,5.0651222409214824e-05,5.346096804714762e-05,5.627071368508041e-05,5.90804593230132e-05,6.1890204960946e-05,6.469995423685759e-05,6.750969623681158e-05,7.031943823676556e-05,7.312918751267716e-05,7.593893678858876e-05,7.874867878854275e-05,8.155842078849673e-05,8.436817006440833e-05,8.717791934031993e-05,8.998766134027392e-05,9.27974033402279e-05,9.56071526161395e-05,9.84169018920511e-05,0.00010122664389200509,0.00010403638589195907,0.00010684613516787067,0.00010965588444378227,0.00011246562644373626,0.00011527536844369024,0.00011808511771960184,0.00012089486699551344,0.00012370460899546742,0.0001265143509954214,0.0001293240929953754,0.0001321338495472446,0.0001349435915471986,0.00013775333354715258,0.0001405630900990218,0.00014337283209897578,0.00014618257409892976],"_type":"histogram","values":[3,3,1,1,2,2,5,2,7,9,11,15,12,12,11,6,5,3,3,5,1,1,1,0,1,1,0,1,0,0,0,0,0,0,0,0,0,0,0,0,0,0,0,0,0,0,0,1,0,0,0,0,0,0,0,0,0,0,0,1,1,0,0,1]},"train/physics_comp_0":3.690814054380098e-08,"gradients/encoder_1.weight":{"values":[1,0,0,0,1,0,0,0,1,0,2,2,1,0,1,2,3,5,3,4,2,5,6,5,6,2,2,11,4,6,6,5,4,5,3,4,3,2,1,2,4,2,3,0,0,2,1,0,2,0,0,0,0,0,1,0,0,1,1,0,0,0,0,1],"bins":[-0.00010430733527755365,-0.00010056592873297632,-9.68245294643566e-05,-9.308312291977927e-05,-8.934172365115955e-05,-8.560031710658222e-05,-8.185891783796251e-05,-7.811751129338518e-05,-7.437610474880785e-05,-7.063470548018813e-05,-6.68932989356108e-05,-6.315189966699108e-05,-5.9410493122413754e-05,-5.566909021581523e-05,-5.192768730921671e-05,-4.8186284402618185e-05,-4.444488149601966e-05,-4.070347858942114e-05,-3.6962075682822615e-05,-3.322067277622409e-05,-2.9479268050636165e-05,-2.573786514403764e-05,-2.1996460418449715e-05,-1.825505751185119e-05,-1.4513654605252668e-05,-1.0772251698654145e-05,-7.03084788256092e-06,-3.289444521215046e-06,4.519588401308283e-07,4.1933622014767025e-06,7.934765562822577e-06,1.1676169378915802e-05,1.541756500955671e-05,1.9158967916155234e-05,2.2900370822753757e-05,2.6641775548341684e-05,3.0383178454940207e-05,3.4124583180528134e-05,3.786598608712666e-05,4.160738899372518e-05,4.5348791900323704e-05,4.909019480692223e-05,5.283159771352075e-05,5.6573000620119274e-05,6.0314407164696604e-05,6.405580643331632e-05,6.779721297789365e-05,7.153861224651337e-05,7.52800187910907e-05,7.902142533566803e-05,8.276282460428774e-05,8.650423114886507e-05,9.024563041748479e-05,9.398703696206212e-05,9.772843623068184e-05,0.00010146984277525917,0.0001052112493198365,0.00010895264858845621,0.00011269405513303354,0.00011643545440165326,0.00012017686094623059,0.0001239182602148503,0.00012765965948347002,0.00013140107330400497,0.00013514247257262468],"_type":"histogram"},"gradients/out.bias":{"values":[1,0,0,0,0,0,0,0,0,0,0,0,0,0,0,0,0,0,0,0,0,0,0,0,0,0,0,0,0,0,0,0,0,0,0,0,0,0,0,0,0,0,1,0,0,0,0,0,0,0,0,0,0,0,0,0,0,0,0,0,0,0,0,1],"bins":[-0.0001034763190546073,-0.00010205329454038292,-0.00010063027002615854,-9.920724551193416e-05,-9.778421372175217e-05,-9.636118920752779e-05,-9.49381646933034e-05,-9.351514017907903e-05,-9.209211566485465e-05,-9.066909115063027e-05,-8.924606663640589e-05,-8.78230421221815e-05,-8.640001760795712e-05,-8.497698581777513e-05,-8.355396130355075e-05,-8.213093678932637e-05,-8.070791227510199e-05,-7.928488776087761e-05,-7.786186324665323e-05,-7.643883873242885e-05,-7.501580694224685e-05,-7.359278242802247e-05,-7.21697579137981e-05,-7.074673339957371e-05,-6.932370888534933e-05,-6.790068437112495e-05,-6.647765985690057e-05,-6.505463534267619e-05,-6.363161082845181e-05,-6.220857903826982e-05,-6.078555452404544e-05,-5.936253000982106e-05,-5.793950185761787e-05,-5.651647734339349e-05,-5.50934491911903e-05,-5.367042467696592e-05,-5.224740016274154e-05,-5.082437564851716e-05,-4.940135113429278e-05,-4.7978322982089594e-05,-4.6555298467865214e-05,-4.5132273953640833e-05,-4.3709245801437646e-05,-4.2286221287213266e-05,-4.0863196772988886e-05,-3.9440172258764505e-05,-3.8017147744540125e-05,-3.659411959233694e-05,-3.517109507811256e-05,-3.374807056388818e-05,-3.232504241168499e-05,-3.090201789746061e-05,-2.947899338323623e-05,-2.805596886901185e-05,-2.6632942535798065e-05,-2.520991620258428e-05,-2.37868916883599e-05,-2.236386717413552e-05,-2.0940840840921737e-05,-1.9517814507707953e-05,-1.8094789993483573e-05,-1.6671765479259193e-05,-1.5248739146045409e-05,-1.3825713722326327e-05,-1.2402688298607245e-05],"_type":"histogram"},"train/data":1.5006662579253316e-07,"gradients/layers.1.bias":{"values":[1,0,0,0,0,0,0,0,0,0,0,2,0,0,1,0,0,0,0,1,0,0,1,0,2,2,1,3,4,3,4,4,2,4,5,2,3,1,3,1,1,1,2,2,3,0,2,1,0,0,0,1,0,0,0,0,0,0,0,0,0,0,0,1],"bins":[-4.890405398327857e-05,-4.747927232529037e-05,-4.605449066730216e-05,-4.462971264729276e-05,-4.320493098930456e-05,-4.178014933131635e-05,-4.0355367673328146e-05,-3.893058601533994e-05,-3.750580799533054e-05,-3.608102633734234e-05,-3.465624467935413e-05,-3.3231463021365926e-05,-3.180668136337772e-05,-3.0381901524378918e-05,-2.8957119866390713e-05,-2.753234002739191e-05,-2.6107558369403705e-05,-2.46827767114155e-05,-2.3257996872416697e-05,-2.1833215214428492e-05,-2.040843537542969e-05,-1.8983653717441484e-05,-1.755887205945328e-05,-1.6134092220454477e-05,-1.4709310562466271e-05,-1.3284529813972767e-05,-1.1859749065479264e-05,-1.0434967407491058e-05,-9.010186658997554e-06,-7.5854059105040506e-06,-6.160624707263196e-06,-4.735843504022341e-06,-3.3110591175500304e-06,-1.8862781416828511e-06,-4.614971658156719e-07,9.632838100515073e-07,2.3880647859186865e-06,3.8128457617858658e-06,5.237626737653045e-06,6.6624079408939e-06,8.087188689387403e-06,9.511969437880907e-06,1.0936750186374411e-05,1.2361531844362617e-05,1.378631259285612e-05,1.5211093341349624e-05,1.663587499933783e-05,1.806065483833663e-05,1.9485436496324837e-05,2.0910218154313043e-05,2.2334997993311845e-05,2.375977965130005e-05,2.5184559490298852e-05,2.6609341148287058e-05,2.8034122806275263e-05,2.9458902645274065e-05,3.088368248427287e-05,3.230846414226107e-05,3.373324580024928e-05,3.5158027458237484e-05,3.658280911622569e-05,3.8007590774213895e-05,3.9432368794223294e-05,4.08571504522115e-05,4.2281932110199705e-05],"_type":"histogram"},"_wandb":{"runtime":129},"gradients/encoder_1.bias":{"values":[1,0,0,0,0,0,0,0,0,0,0,0,0,1,1,0,1,3,1,0,1,1,0,0,4,0,3,1,3,1,0,0,1,2,0,1,3,1,0,2,1,3,1,5,4,3,2,3,2,0,1,1,1,1,0,0,1,1,0,0,0,0,0,2],"bins":[-0.00010709875641623512,-0.00010427687811898068,-0.00010145499982172623,-9.863312152447179e-05,-9.581124322721735e-05,-9.29893649299629e-05,-9.016748663270846e-05,-8.734560833545402e-05,-8.452373003819957e-05,-8.170185174094513e-05,-7.887997344369069e-05,-7.605809514643624e-05,-7.32362168491818e-05,-7.041433855192736e-05,-6.759246025467291e-05,-6.477058195741847e-05,-6.194870366016403e-05,-5.9126825362909585e-05,-5.630494706565514e-05,-5.34830687684007e-05,-5.0661190471146256e-05,-4.783931217389181e-05,-4.501743387663737e-05,-4.2195555579382926e-05,-3.937367728212848e-05,-3.655179898487404e-05,-3.37299206876196e-05,-3.0908042390365154e-05,-2.808616409311071e-05,-2.5264285795856267e-05,-2.2442407498601824e-05,-1.962052920134738e-05,-1.6798643628135324e-05,-1.397676533088088e-05,-1.1154887033626437e-05,-8.333008736371994e-06,-5.511130439117551e-06,-2.6892521418631077e-06,1.326261553913355e-07,2.9545044526457787e-06,5.776382749900222e-06,8.598261047154665e-06,1.1420139344409108e-05,1.4242017641663551e-05,1.7063895938917994e-05,1.9885774236172438e-05,2.270765253342688e-05,2.5529530830681324e-05,2.8351409127935767e-05,3.117328742519021e-05,3.3995165722444654e-05,3.68170440196991e-05,3.963892231695354e-05,4.246080061420798e-05,4.5282678911462426e-05,4.810455720871687e-05,5.092643550597131e-05,5.3748313803225756e-05,5.65701921004802e-05,5.939207039773464e-05,6.221394869498909e-05,6.503582699224353e-05,6.785770528949797e-05,7.067958358675241e-05,7.350146188400686e-05],"_type":"histogram"}}