{"_timestamp":1.7727138598240254e+09,"gradients/main_layers.2.bias":{"values":[1,0,0,0,0,0,0,0,0,1,0,1,0,0,0,0,0,0,1,0,2,1,1,1,0,2,0,1,1,0,0,1,0,2,3,2,1,1,1,1,1,0,0,0,0,0,0,1,1,0,0,0,0,0,0,0,1,0,0,0,0,0,0,1],"bins":[-0.0017898736987262964,-0.00173466419801116,-0.0016794546972960234,-0.0016242453129962087,-0.0015690358122810721,-0.0015138263115659356,-0.001458616810850799,-0.0014034073101356626,-0.0013481979258358479,-0.0012929884251207113,-0.0012377789244055748,-0.0011825694236904383,-0.0011273599229753017,-0.0010721504222601652,-0.0010169410379603505,-0.000961731537245214,-0.0009065220365300775,-0.0008513125358149409,-0.0007961030933074653,-0.0007408935925923288,-0.0006856841500848532,-0.0006304746493697166,-0.0005752651486545801,-0.0005200557061471045,-0.000464846205431968,-0.0004096367338206619,-0.00035442726220935583,-0.0002992177614942193,-0.00024400828988291323,-0.00018879881827160716,-0.00013358933210838586,-7.837985322112218e-05,-2.3170257918536663e-05,3.203922096872702e-05,8.724869985599071e-05,0.000142458186019212,0.00019766765763051808,0.00025287712924182415,0.0003080866299569607,0.00036329610156826675,0.0004185055731795728,0.0004737150447908789,0.000528924516402185,0.0005841340171173215,0.000639343517832458,0.0006945529603399336,0.0007497624610550702,0.0008049719035625458,0.0008601814042776823,0.0009153909049928188,0.0009706003475002944,0.00102580979000777,0.0010810192907229066,0.0011362287914380431,0.0011914382921531796,0.0012466477928683162,0.0013018571771681309,0.0013570666778832674,0.001412276178598404,0.0014674856793135405,0.001522695180028677,0.0015779046807438135,0.0016331140650436282,0.0016883235657587647,0.0017435330664739013],"_type":"histogram"},"train/total":0.005876386538147926,"gradients/main_layers.2.weight":{"bins":[-0.0028586597181856632,-0.0027640354819595814,-0.0026694112457334995,-0.0025747870095074177,-0.002480162773281336,-0.002385538537055254,-0.002290914300829172,-0.0021962900646030903,-0.0021016658283770084,-0.0020070415921509266,-0.0019124174723401666,-0.0018177932361140847,-0.0017231689998880029,-0.001628544763661921,-0.0015339205274358392,-0.0014392962912097573,-0.0013446720549836755,-0.0012500478187575936,-0.0011554235825315118,-0.00106079934630543,-0.0009661751100793481,-0.0008715509320609272,-0.0007769266958348453,-0.0006823024596087635,-0.0005876782233826816,-0.0004930539871565998,-0.0003984297509305179,-0.0003038055438082665,-0.00020918130758218467,-0.00011455707863206044,-1.9932849681936204e-05,7.469137926818803e-05,0.00016931560821831226,0.0002639398444443941,0.00035856408067047596,0.00045318828779272735,0.0005478125531226397,0.0006424367311410606,0.0007370609673671424,0.0008316852035932243,0.0009263094398193061,0.001020933617837727,0.001115557854063809,0.0012101820902898908,0.0013048063265159726,0.0013994305627420545,0.0014940547989681363,0.0015886790351942182,0.0016833032714203,0.0017779275076463819,0.0018725517438724637,0.0019671758636832237,0.0020618000999093056,0.0021564243361353874,0.0022510485723614693,0.002345672808587551,0.002440297044813633,0.002534921281039715,0.0026295455172657967,0.0027241697534918785,0.0028187939897179604,0.002913418225944042,0.003008042462170124,0.003102666698396206,0.0031972909346222878],"_type":"histogram","values":[1,0,0,1,0,1,1,1,1,0,2,3,3,2,1,1,6,7,18,11,9,17,13,21,21,38,37,56,64,83,121,92,62,33,27,23,30,13,14,15,6,5,5,9,2,5,1,6,2,1,2,2,1,0,1,1,1,0,0,0,0,0,0,1]},"gradients/main_layers.1.weight":{"_type":"histogram","values":[1,0,1,0,0,0,1,2,0,1,1,1,1,6,3,2,3,1,6,2,4,10,9,8,9,13,20,23,20,40,53,72,104,111,84,73,40,37,22,19,21,5,12,6,3,7,4,5,7,4,5,1,5,2,1,2,1,1,2,0,1,1,0,1],"bins":[-0.0027603625785559416,-0.002677485579624772,-0.002594608813524246,-0.0025117318145930767,-0.002428854815661907,-0.0023459778167307377,-0.002263100817799568,-0.0021802240516990423,-0.002097347052767873,-0.0020144700538367033,-0.0019315931713208556,-0.001848716288805008,-0.0017658392898738384,-0.001682962290942669,-0.0016000854084268212,-0.0015172085259109735,-0.001434331526979804,-0.0013514545280486345,-0.0012685776455327868,-0.0011857007630169392,-0.0011028237640857697,-0.0010199467651546001,-0.0009370698826387525,-0.0008541929419152439,-0.0007713160011917353,-0.0006884390604682267,-0.0006055621197447181,-0.0005226851790212095,-0.0004398082382977009,-0.0003569312975741923,-0.0002740543568506837,-0.0001911774161271751,-0.0001083004754036665,-2.54235346801579e-05,5.7453406043350697e-05,0.0001403303467668593,0.0002232072874903679,0.0003060842282138765,0.0003889611689373851,0.0004718381096608937,0.0005547150503844023,0.0006375919911079109,0.0007204689318314195,0.0008033458725549281,0.0008862228132784367,0.0009690997540019453,0.0010519766947254539,0.0011348535772413015,0.001217730576172471,0.0013006075751036406,0.0013834844576194882,0.001466361340135336,0.0015492383390665054,0.001632115337997675,0.0017149922205135226,0.0017978691030293703,0.0018807461019605398,0.0019636231008917093,0.002046499866992235,0.0021293768659234047,0.002212253864854574,0.0022951308637857437,0.0023780078627169132,0.002460884628817439,0.0025437616277486086]},"_runtime":271,"gradients/main_layers.0.bias":{"_type":"histogram","values":[1,0,0,0,0,0,0,0,1,0,2,1,0,0,0,0,0,0,2,0,1,1,1,0,0,0,0,5,2,1,0,1,1,0,2,0,2,2,0,0,2,0,0,0,0,0,1,0,0,0,0,0,0,0,0,0,0,0,0,0,0,0,0,1],"bins":[-0.004281048197299242,-0.004114449489861727,-0.0039478507824242115,-0.0037812518421560526,-0.0036146529018878937,-0.0034480541944503784,-0.003281455487012863,-0.0031148565467447042,-0.002948257839307189,-0.0027816591318696737,-0.002615060191601515,-0.0024484614841639996,-0.0022818627767264843,-0.0021152638364583254,-0.0019486651290208101,-0.001782066305167973,-0.001615467481315136,-0.0014488686574622989,-0.0012822698336094618,-0.0011156711261719465,-0.0009490723023191094,-0.0007824734784662724,-0.0006158747128210962,-0.00044927591807208955,-0.0002826771233230829,-0.0001160783285740763,5.0520466174930334e-05,0.00021711926092393696,0.0003837180556729436,0.0005503168795257807,0.0007169156451709569,0.000883514410816133,0.0010501137003302574,0.0012167125241830945,0.0013833113480359316,0.0015499100554734468,0.001716508879326284,0.001883107703179121,0.0020497064106166363,0.002216305350884795,0.0023829040583223104,0.0025495027657598257,0.0027161017060279846,0.0028827004134655,0.003049299120903015,0.003215898061171174,0.0033824967686086893,0.0035490957088768482,0.0037156944163143635,0.0038822931237518787,0.004048891831189394,0.0042154910042881966,0.004382089711725712,0.004548688419163227,0.004715287126600742,0.004881885834038258,0.005048484541475773,0.005215083714574575,0.005381682422012091,0.005548281129449606,0.005714879836887121,0.0058814785443246365,0.006048077717423439,0.006214676424860954,0.0063812751322984695]},"gradients/output_layer.bias":{"values":[1,0,0,0,0,0,0,0,0,0,0,0,0,0,0,0,0,0,0,0,0,0,0,0,0,0,0,0,0,0,0,0,0,0,1,0,0,0,0,0,0,0,0,0,0,0,0,0,0,0,0,0,0,0,0,0,0,0,0,0,0,0,0,1],"bins":[-0.005018350202590227,-0.004857019986957312,-0.0046956902369856834,-0.004534360021352768,-0.0043730298057198524,-0.004211699590086937,-0.0040503693744540215,-0.0038890396244823933,-0.0037277094088494778,-0.0035663791932165623,-0.0034050492104142904,-0.0032437192276120186,-0.003082389011979103,-0.0029210587963461876,-0.0027597288135439157,-0.002598398830741644,-0.0024370686151087284,-0.002275738399475813,-0.002114408416673541,-0.0019530783174559474,-0.0017917482182383537,-0.00163041811902076,-0.0014690880198031664,-0.0013077579205855727,-0.001146427821367979,-0.0009850977221503854,-0.0008237676229327917,-0.000662437523715198,-0.0005011074244976044,-0.0003397773252800107,-0.00017844722606241703,-1.711712684482336e-05,0.000144212506711483,0.00030554260592907667,0.00046687270514667034,0.000628202804364264,0.0007895329035818577,0.0009508630027994514,0.001112193102017045,0.0012735232012346387,0.0014348533004522324,0.001596183399669826,0.0017575134988874197,0.0019188435981050134,0.002080173697322607,0.0022415039129555225,0.0024028338957577944,0.0025641638785600662,0.0027254940941929817,0.002886824309825897,0.003048154292628169,0.003209484275430441,0.0033708144910633564,0.003532144706696272,0.0036934746894985437,0.0038548046723008156,0.004016134887933731,0.004177465103566647,0.004338795319199562,0.00450012506917119,0.004661455284804106,0.004822785500437021,0.0049841152504086494,0.005145445466041565,0.0053067756816744804],"_type":"histogram"},"_step":10000,"gradients/main_layers.3.bias":{"bins":[-0.001583220437169075,-0.0015401802957057953,-0.0014971401542425156,-0.0014541000127792358,-0.0014110598713159561,-0.0013680197298526764,-0.0013249795883893967,-0.001281939446926117,-0.0012388993054628372,-0.0011958591639995575,-0.0011528190225362778,-0.001109778881072998,-0.0010667387396097183,-0.0010236985981464386,-0.0009806584566831589,-0.0009376182570122182,-0.0008945781155489385,-0.0008515379740856588,-0.0008084978326223791,-0.0007654576911590993,-0.0007224175496958196,-0.0006793774082325399,-0.0006363372667692602,-0.0005932971253059804,-0.0005502569256350398,-0.0005072167841717601,-0.0004641766718123108,-0.0004211365303490311,-0.0003780963597819209,-0.0003350562183186412,-0.00029201607685536146,-0.00024897593539208174,-0.000205935793928802,-0.0001628956524655223,-0.00011985550372628495,-7.681535498704761e-05,-3.377521352376789e-05,9.264931577490643e-06,5.2305076678749174e-05,9.534522541798651e-05,0.00013838536688126624,0.00018142550834454596,0.00022446564980782568,0.0002675057912711054,0.0003105459618382156,0.0003535861033014953,0.00039662624476477504,0.00043966638622805476,0.0004827065276913345,0.0005257466691546142,0.0005687868106178939,0.0006118269520811737,0.0006548670935444534,0.0006979072350077331,0.0007409473764710128,0.0007839875179342926,0.0008270277176052332,0.0008700678590685129,0.0009131080005317926,0.0009561481419950724,0.000999188283458352,0.0010422284249216318,0.0010852685663849115,0.0011283087078481913,0.001171348849311471],"_type":"histogram","values":[1,0,0,0,1,0,0,0,0,0,0,0,0,0,0,0,0,0,1,0,0,0,0,0,0,0,0,1,2,1,0,2,3,0,3,1,1,4,1,1,0,1,0,3,0,0,0,2,0,0,0,0,0,0,0,0,0,0,0,0,0,0,0,1]},"val/comp_m_oil":0.012240108102560043,"val/total":0.005433778744190931,"_wandb":{"runtime":271},"val/comp_P_tb_b":0.0020281763281673193,"val/comp_P_bh":0.002033050637692213,"gradients/main_layers.0.weight":{"bins":[-0.006630712654441595,-0.0064231157302856445,-0.006215518340468407,-0.006007921416312456,-0.005800324492156506,-0.005592727102339268,-0.005385130178183317,-0.005177532788366079,-0.004969935864210129,-0.004762338940054178,-0.00455474155023694,-0.00434714462608099,-0.004139547236263752,-0.0039319503121078014,-0.003724353387951851,-0.0035167562309652567,-0.0033091590739786625,-0.0031015619169920683,-0.002893964760005474,-0.0026863678358495235,-0.0024787706788629293,-0.002271173521876335,-0.0020635765977203846,-0.0018559794407337904,-0.0016483822837471962,-0.001440785126760602,-0.0012331880861893296,-0.0010255910456180573,-0.000817993888631463,-0.0006103967898525298,-0.0004027996910735965,-0.0001952025922946632,1.2394972145557404e-05,0.0002199920709244907,0.000427589169703424,0.0006351862684823573,0.0008427833672612906,0.0010503805242478848,0.0012579775648191571,0.0014655746053904295,0.0016731717623770237,0.001880768919363618,0.002088366076350212,0.0022959630005061626,0.002503560157492757,0.002711157314479351,0.0029187542386353016,0.003126351395621896,0.00333394855260849,0.003541545709595084,0.0037491428665816784,0.003956739790737629,0.004164337180554867,0.004371934104710817,0.004579531028866768,0.004787128418684006,0.004994725342839956,0.005202322266995907,0.005409919656813145,0.005617516580969095,0.005825113505125046,0.006032710894942284,0.006240307819098234,0.006447905208915472,0.006655502133071423],"_type":"histogram","values":[1,0,0,0,0,0,0,0,0,0,0,1,0,0,2,1,1,0,2,1,3,3,4,4,2,6,7,8,8,10,5,15,13,11,6,6,1,6,3,1,5,1,3,3,0,1,0,2,0,1,0,1,0,1,0,0,0,0,0,0,0,0,0,1]},"gradients/main_layers.1.bias":{"bins":[-0.002231191610917449,-0.0021508641075342894,-0.0020705368369817734,-0.0019902093335986137,-0.0019098820630460978,-0.0018295545596629381,-0.0017492271726951003,-0.0016688997857272625,-0.0015885723987594247,-0.0015082450117915869,-0.001427917624823749,-0.0013475902378559113,-0.0012672627344727516,-0.0011869353475049138,-0.001106607960537076,-0.0010262805735692382,-0.0009459531866014004,-0.0008656257996335626,-0.0007852984126657248,-0.000704970967490226,-0.0006246435805223882,-0.0005443161935545504,-0.00046398877748288214,-0.0003836613614112139,-0.00030333397444337606,-0.00022300657292362303,-0.00014267917140387,-6.235176988411695e-05,1.797563163563609e-05,9.830303315538913e-05,0.00017863043467514217,0.00025895785074681044,0.00033928523771464825,0.00041961262468248606,0.0004999400116503239,0.0005802674568258226,0.0006605948437936604,0.0007409222307614982,0.0008212496759369969,0.0009015770629048347,0.0009819044498726726,0.0010622318368405104,0.0011425592238083482,0.001222886610776186,0.0013032141141593456,0.0013835415011271834,0.0014638688880950212,0.001544196275062859,0.0016245236620306969,0.0017048510489985347,0.0017851784359663725,0.0018655058229342103,0.0019458332099020481,0.0020261607132852077,0.0021064879838377237,0.0021868154872208834,0.0022671427577733994,0.002347470261156559,0.0024277977645397186,0.0025081250350922346,0.0025884525384753942,0.0026687798090279102,0.00274910731241107,0.002829434582963586,0.0029097620863467455],"_type":"histogram","values":[1,0,0,0,1,0,1,0,0,1,0,0,0,0,0,0,1,1,1,0,0,1,0,2,0,4,1,3,0,1,2,1,0,3,1,0,1,0,1,0,0,0,0,0,0,0,0,0,0,1,0,0,0,0,0,0,0,0,0,0,0,0,0,1]},"gradients/main_layers.3.weight":{"bins":[-0.005570938345044851,-0.005424767266958952,-0.005278596188873053,-0.005132425110787153,-0.004986254032701254,-0.0048400829546153545,-0.004693911876529455,-0.004547740798443556,-0.004401569254696369,-0.00425539817661047,-0.0041092270985245705,-0.003963056020438671,-0.0038168849423527718,-0.0036707138642668724,-0.003524542786180973,-0.0033783717080950737,-0.0032322006300091743,-0.003086029551923275,-0.0029398584738373756,-0.0027936873957514763,-0.002647516317665577,-0.002501345006749034,-0.0023551739286631346,-0.0022090028505772352,-0.002062831772491336,-0.0019166606944054365,-0.0017704896163195372,-0.001624318421818316,-0.0014781473437324166,-0.0013319762656465173,-0.001185805071145296,-0.0010396339930593967,-0.0008934626821428537,-0.0007472916040569544,-0.0006011204677633941,-0.0004549493605736643,-0.0003087782533839345,-0.0001626071461942047,-1.643603900447488e-05,0.00012973506818525493,0.00027590617537498474,0.00042207728256471455,0.0005682483897544444,0.0007144195260480046,0.000860590604133904,0.0010067616822198033,0.0011529328767210245,0.0012991039548069239,0.0014452750328928232,0.0015914461109787226,0.001737617189064622,0.001883788383565843,0.0020299595780670643,0.0021761306561529636,0.002322301734238863,0.0024684728123247623,0.0026146438904106617,0.002760814968496561,0.0029069860465824604,0.0030531571246683598,0.003199328202754259,0.003345499513670802,0.0034916705917567015,0.003637841669842601,0.0037840127479285],"_type":"histogram","values":[1,0,0,0,0,0,0,0,0,0,0,0,0,0,1,1,0,0,2,1,3,2,0,3,4,0,1,10,5,8,10,13,21,26,37,57,93,139,159,96,63,39,23,20,13,13,6,7,6,0,2,3,4,1,0,1,1,1,1,0,1,0,1,1]},"gradients/output_layer.weight":{"bins":[-0.01111631840467453,-0.010807848535478115,-0.010499377734959126,-0.01019090786576271,-0.009882437996566296,-0.009573967196047306,-0.009265497326850891,-0.008957027457654476,-0.008648557588458061,-0.008340086787939072,-0.008031616918742657,-0.0077231465838849545,-0.007414676249027252,-0.007106206379830837,-0.006797736044973135,-0.00648926617577672,-0.006180795840919018,-0.0058723255060613155,-0.005563855636864901,-0.005255385302007198,-0.004946915432810783,-0.004638445097953081,-0.004329974763095379,-0.004021504893898964,-0.0037130345590412617,-0.003404564457014203,-0.0030960943549871445,-0.002787624020129442,-0.0024791539181023836,-0.002170683816075325,-0.0018622135976329446,-0.0015537433791905642,-0.0012452742084860802,-0.0009368040482513607,-0.0006283338880166411,-0.0003198637277819216,-1.139356754720211e-05,0.0002970765926875174,0.0006055467529222369,0.0009140169131569564,0.001222487073391676,0.0015309571754187346,0.001839427393861115,0.0021478976123034954,0.002456367714330554,0.0027648378163576126,0.003073308151215315,0.0033817782532423735,0.003690248355269432,0.003998718690127134,0.004307188559323549,0.0046156588941812515,0.0049241287633776665,0.005232599098235369,0.005541069433093071,0.005849539302289486,0.006158009637147188,0.0064664799720048904,0.006774949841201305,0.007083420176059008,0.00739189051091671,0.007700360380113125,0.00800883024930954,0.00831730104982853,0.008625770919024944],"_type":"histogram","values":[1,0,0,0,0,0,0,0,1,0,1,0,0,0,0,0,0,0,1,4,3,1,1,0,3,1,0,2,2,2,2,4,3,3,5,3,4,7,4,0,4,3,1,2,6,1,0,2,0,1,2,1,2,3,1,1,1,0,0,0,0,0,0,1]}}