{"_runtime":90,"train/physics_comp_2":2.9264940692996788e-08,"_step":7000,"gradients/layers.0.bias":{"bins":[-0.001263006473891437,-0.0012131583644077182,-0.0011633102549239993,-0.0011134621454402804,-0.0010636140359565616,-0.0010137659264728427,-0.0009639178751967847,-0.0009140697657130659,-0.000864221656229347,-0.0008143735467456281,-0.0007645254372619092,-0.0007146773277781904,-0.0006648292765021324,-0.0006149811670184135,-0.0005651330575346947,-0.0005152849480509758,-0.00046543683856725693,-0.00041558872908353806,-0.0003657406195998192,-0.00031589253921993077,-0.0002660444297362119,-0.00021619632025249302,-0.00016634822532068938,-0.00011650012311292812,-6.665202090516686e-05,-1.6803918697405607e-05,3.304418351035565e-05,8.289228571811691e-05,0.00013274038792587817,0.00018258849740959704,0.00023243659234140068,0.0002822846872732043,0.0003321327967569232,0.00038198090624064207,0.00043182901572436094,0.00048167709610424936,0.0005315252346917987,0.0005813732859678566,0.0006312213954515755,0.0006810695049352944,0.0007309176144190133,0.0007807657239027321,0.000830613833386451,0.0008804619428701699,0.0009303099941462278,0.0009801581036299467,0.0010300062131136656,0.0010798543225973845,0.0011297024320811033,0.0011795505415648222,0.001229398651048541,0.00127924676053226,0.0013290948700159788,0.0013789429794996977,0.0014287910889834166,0.0014786391984671354,0.0015284873079508543,0.0015783353010192513,0.0016281834105029702,0.001678031519986689,0.001727879629470408,0.0017777277389541268,0.0018275758484378457,0.0018774239579215646,0.0019272720674052835],"_type":"histogram","values":[1,1,0,1,0,0,1,2,2,0,2,1,0,0,1,3,2,3,0,3,0,2,3,4,3,0,1,2,0,0,1,4,1,4,1,2,3,2,1,1,1,1,2,0,0,0,0,1,0,0,0,0,0,0,0,0,0,0,0,0,0,0,0,1]},"gradients/layers.2.weight":{"values":[1,0,0,0,0,1,0,1,0,2,0,2,3,2,3,6,6,9,16,27,35,43,42,65,89,109,172,279,420,577,635,444,317,216,132,114,90,67,52,25,21,14,17,12,6,6,3,4,5,1,0,1,1,2,0,0,0,0,0,0,0,0,0,1],"bins":[-0.0012642061337828636,-0.0012223493540659547,-0.001180492457933724,-0.001138635678216815,-0.0010967787820845842,-0.0010549220023676753,-0.0010130652226507664,-0.0009712083265185356,-0.0009293515468016267,-0.0008874947088770568,-0.000845637870952487,-0.0008037810330279171,-0.0007619241951033473,-0.0007200673571787775,-0.0006782105774618685,-0.0006363537395372987,-0.0005944969016127288,-0.000552640063688159,-0.0005107832257635891,-0.00046892641694284976,-0.00042706960812211037,-0.0003852127701975405,-0.0003433559322729707,-0.0003014991234522313,-0.00025964228552766144,-0.00021778546215500683,-0.0001759286387823522,-0.00013407180085778236,-9.221497748512775e-05,-5.035815047449432e-05,-8.5013234638609e-06,3.3355503546772525e-05,7.521233055740595e-05,0.00011706915393006057,0.00015892597730271518,0.00020078281522728503,0.00024263963859993964,0.00028449646197259426,0.0003263532998971641,0.0003682101087179035,0.00041006694664247334,0.0004519237845670432,0.0004937805933877826,0.0005356374313123524,0.0005774942692369223,0.0006193511071614921,0.000661207886878401,0.0007030647248029709,0.0007449215627275407,0.0007867784006521106,0.0008286352385766804,0.0008704920182935894,0.0009123488562181592,0.000954205694142729,0.0009960625320672989,0.0010379193117842078,0.0010797762079164386,0.0011216329876333475,0.0011634898837655783,0.0012053466634824872,0.0012472034431993961,0.001289060339331627,0.0013309171190485358,0.0013727740151807666,0.0014146307948976755],"_type":"histogram"},"_wandb":{"runtime":90},"val/total":91.5816421508789,"train/total":0.0015715353656560183,"gradients/out.weight":{"_type":"histogram","values":[1,0,0,0,0,0,0,0,1,1,1,1,3,2,4,4,2,2,4,5,8,4,9,5,3,4,6,6,6,4,12,15,10,5,5,5,8,4,2,5,4,1,3,2,2,3,1,2,7,4,2,3,0,0,0,0,0,0,0,0,0,0,0,1],"bins":[-0.0024713114835321903,-0.0023920529056340456,-0.002312794327735901,-0.002233535749837756,-0.0021542771719396114,-0.0020750185940414667,-0.001995760016143322,-0.0019165013218298554,-0.0018372427439317107,-0.001757984166033566,-0.0016787255881354213,-0.0015994670102372766,-0.00152020831592381,-0.0014409497380256653,-0.0013616911601275206,-0.0012824325822293758,-0.0012031740043312311,-0.0011239154264330864,-0.0010446568485349417,-0.000965398212429136,-0.0008861396345309913,-0.0008068810566328466,-0.000727622420527041,-0.0006483638426288962,-0.0005691052647307515,-0.0004898466868326068,-0.0004105880798306316,-0.00033132947282865644,-0.0002520708949305117,-0.00017281230248045176,-9.355371003039181e-05,-1.4295117580331862e-05,6.496347486972809e-05,0.00014422206731978804,0.000223480659769848,0.00030273926677182317,0.0003819978446699679,0.0004612564225681126,0.0005405150586739182,0.000619773636572063,0.0006990322144702077,0.0007782907923683524,0.0008575493702664971,0.0009368080063723028,0.0010160666424781084,0.0010953252203762531,0.0011745837982743979,0.0012538423761725426,0.0013331009540706873,0.001412359531968832,0.0014916181098669767,0.0015708766877651215,0.0016501352656632662,0.0017293939599767327,0.0018086525378748775,0.0018879111157730222,0.0019671698100864887,0.0020464283879846334,0.002125686965882778,0.002204945543780923,0.0022842041216790676,0.0023634626995772123,0.002442721277475357,0.0025219798553735018,0.0026012384332716465]},"gradients/out.bias":{"_type":"histogram","values":[1,0,0,0,0,0,0,0,0,0,0,0,0,0,0,0,0,0,0,0,0,0,0,0,1,0,0,0,0,0,0,0,0,0,0,0,0,0,0,0,0,0,0,0,0,0,0,0,0,0,0,0,0,0,0,0,0,0,0,0,0,0,0,1],"bins":[-0.0007921573123894632,-0.0007574879564344883,-0.0007228186586871743,-0.0006881493027321994,-0.0006534800049848855,-0.0006188106490299106,-0.0005841413512825966,-0.0005494719953276217,-0.0005148026393726468,-0.00048013334162533283,-0.0004454640147741884,-0.00041079468792304397,-0.0003761253319680691,-0.00034145600511692464,-0.0003067866782657802,-0.0002721173514146358,-0.00023744802456349134,-0.0002027786977123469,-0.00016810937086120248,-0.00013344002945814282,-9.877070260699838e-05,-6.410137575585395e-05,-2.9432041628751904e-05,5.237288860371336e-06,3.9906619349494576e-05,7.457594620063901e-05,0.00010924528032774106,0.0001439146144548431,0.00017858394130598754,0.00021325326815713197,0.00024792260956019163,0.00028259193641133606,0.0003172612050548196,0.000351930531905964,0.00038659985875710845,0.0004212691856082529,0.0004559385124593973,0.0004906078684143722,0.0005252771661616862,0.0005599465221166611,0.000594615819863975,0.0006292851758189499,0.0006639545317739248,0.0006986238295212388,0.0007332931854762137,0.0007679624832235277,0.0008026318391785026,0.0008373011369258165,0.0008719704928807914,0.0009066398488357663,0.0009413091465830803,0.0009759785025380552,0.00101064785849303,0.001045317156240344,0.001079986453987658,0.001114655751734972,0.0011493251658976078,0.0011839944636449218,0.0012186637613922358,0.0012533331755548716,0.0012880024733021855,0.0013226717710494995,0.0013573410687968135,0.0013920104829594493,0.0014266797807067633]},"gradients/layers.0.weight":{"_type":"histogram","values":[1,0,0,0,0,0,0,0,1,0,0,0,0,0,0,0,0,0,0,0,0,1,1,1,1,3,0,2,3,3,1,3,3,4,9,1,3,7,4,5,8,7,9,4,3,4,5,6,2,1,6,3,1,1,1,1,2,0,3,0,2,0,1,1],"bins":[-0.002165823942050338,-0.002112946007400751,-0.002060068305581808,-0.0020071903709322214,-0.0019543124362826347,-0.001901434501633048,-0.0018485566833987832,-0.0017956788651645184,-0.0017428009305149317,-0.001689922995865345,-0.0016370451776310802,-0.0015841673593968153,-0.0015312894247472286,-0.001478411490097642,-0.001425533671863377,-0.0013726558536291122,-0.0013197779189795256,-0.0012668999843299389,-0.001214022166095674,-0.0011611443478614092,-0.0011082664132118225,-0.0010553884785622358,-0.001002510660327971,-0.0009496327838860452,-0.0008967549074441195,-0.0008438770310021937,-0.0007909991545602679,-0.0007381212781183422,-0.0006852434016764164,-0.0006323655252344906,-0.0005794876487925649,-0.0005266097723506391,-0.00047373201232403517,-0.0004208541358821094,-0.00036797625944018364,-0.0003150983829982579,-0.0002622205065563321,-0.00020934263011440635,-0.00015646475367248058,-0.00010358687723055482,-5.0709000788629055e-05,2.168875653296709e-06,5.504675209522247e-05,0.00010792462853714824,0.000160802504979074,0.00021368038142099977,0.00026655825786292553,0.0003194361343048513,0.00037231401074677706,0.0004251918871887028,0.0004780697636306286,0.0005309476400725543,0.0005838255165144801,0.0006367033929564059,0.0006895812693983316,0.0007424591458402574,0.0007953370222821832,0.0008482148987241089,0.0009010927751660347,0.0009539706516079605,0.0010068485280498862,0.001059726346284151,0.0011126042809337378,0.0011654822155833244,0.0012183600338175893]},"_timestamp":1.7727122678794336e+09,"gradients/layers.1.weight":{"values":[1,0,1,0,1,1,1,3,1,1,4,6,0,2,5,4,8,15,16,26,45,42,69,99,142,141,248,269,310,365,333,358,297,279,253,203,145,102,74,58,40,36,22,13,7,7,9,4,5,3,7,3,5,2,2,0,1,0,0,1,0,0,0,1],"bins":[-0.0005018313531763852,-0.0004854424041695893,-0.0004690534551627934,-0.00045266447705216706,-0.0004362755280453712,-0.0004198865790385753,-0.00040349760092794895,-0.00038710865192115307,-0.0003707197029143572,-0.0003543307539075613,-0.0003379418049007654,-0.0003215528267901391,-0.0003051638777833432,-0.0002887749287765473,-0.00027238595066592097,-0.0002559970016591251,-0.0002396080526523292,-0.00022321910364553332,-0.0002068301400868222,-0.0001904411765281111,-0.00017405222752131522,-0.00015766327851451933,-0.00014127431495580822,-0.0001248853513970971,-0.00010849640239030123,-9.210744610754773e-05,-7.571848982479423e-05,-5.9329533542040735e-05,-4.294057725928724e-05,-2.655162097653374e-05,-1.0162664693780243e-05,6.226291588973254e-06,2.2615189664065838e-05,3.9004145946819335e-05,5.539310222957283e-05,7.178205851232633e-05,8.817101479507983e-05,0.00010455997107783332,0.00012094892736058682,0.00013733789091929793,0.00015372683992609382,0.0001701157889328897,0.0001865047524916008,0.00020289371605031192,0.0002192826650571078,0.0002356716140639037,0.00025206059217453003,0.0002684495411813259,0.0002848384901881218,0.0003012274391949177,0.00031761638820171356,0.0003340053663123399,0.0003503943153191358,0.00036678326432593167,0.000383172242436558,0.0003995611914433539,0.0004159501404501498,0.00043233908945694566,0.00044872803846374154,0.0004651170165743679,0.00048150596558116376,0.0004978949436917901,0.000514283892698586,0.0005306728417053819,0.0005470617907121778],"_type":"histogram"},"gradients/layers.1.bias":{"values":[1,0,0,0,0,0,0,0,0,0,0,0,0,0,0,0,0,0,0,0,0,0,1,1,0,1,0,0,1,2,2,1,2,0,2,1,3,6,1,0,0,1,1,4,0,3,3,3,1,4,2,1,1,3,3,0,2,2,0,1,1,1,0,2],"bins":[-0.0010969116119667888,-0.00107198569457978,-0.0010470597771927714,-0.0010221338598057628,-0.000997208058834076,-0.0009722821414470673,-0.0009473562240600586,-0.0009224303066730499,-0.0008975043892860413,-0.0008725785301066935,-0.0008476526127196848,-0.0008227266953326762,-0.0007978008361533284,-0.0007728749187663198,-0.0007479490013793111,-0.0007230231421999633,-0.0006980972248129547,-0.000673171307425946,-0.0006482454482465982,-0.0006233195308595896,-0.0005983936134725809,-0.0005734677542932332,-0.0005485418369062245,-0.0005236159195192158,-0.0004986900603398681,-0.0004737641429528594,-0.00044883822556585073,-0.0004239123372826725,-0.0003989864489994943,-0.00037406053161248565,-0.00034913464332930744,-0.00032420872594229877,-0.00029928283765912056,-0.00027435694937594235,-0.0002494310319889337,-0.00022450514370575547,-0.00019957924087066203,-0.0001746533380355686,-0.00014972744975239038,-0.00012480154691729695,-9.987564408220351e-05,-7.494974124711007e-05,-5.0023845687974244e-05,-2.5097946490859613e-05,-1.720472937449813e-07,2.475385190336965e-05,4.967975110048428e-05,7.46056466596201e-05,9.953154949471354e-05,0.00012445745232980698,0.00014938335516490042,0.00017430924344807863,0.00019923514628317207,0.0002241610491182655,0.0002490869374014437,0.0002740128547884524,0.0002989387430716306,0.0003238646313548088,0.0003487905487418175,0.0003737164370249957,0.0003986423253081739,0.00042356824269518256,0.00044849413097836077,0.00047342004836536944,0.0004983459366485476],"_type":"histogram"},"train/data":1.5713192169641843e-06,"train/physics":2.1617979939492216e-07,"train/physics_comp_0":3.6927325197666505e-08,"gradients/layers.2.bias":{"_type":"histogram","values":[1,0,0,0,1,0,0,0,0,1,0,1,1,0,0,0,0,0,0,0,0,1,0,1,0,2,1,1,1,1,1,3,1,1,2,1,3,5,2,3,3,2,0,2,4,2,0,0,2,0,2,2,1,1,1,2,1,0,0,1,1,0,0,2],"bins":[-0.0007388239027932286,-0.000720044772606343,-0.0007012657006271183,-0.0006824865704402328,-0.0006637074984610081,-0.0006449283682741225,-0.0006261492380872369,-0.0006073701661080122,-0.0005885910359211266,-0.000569811905734241,-0.0005510328337550163,-0.0005322537035681307,-0.0005134745733812451,-0.0004946955014020205,-0.00047591637121513486,-0.0004571372701320797,-0.0004383581690490246,-0.00041957906796596944,-0.0004007999668829143,-0.0003820208366960287,-0.00036324173561297357,-0.00034446263452991843,-0.00032568350434303284,-0.0003069044032599777,-0.00028812530217692256,-0.0002693462010938674,-0.0002505671000108123,-0.0002317879698239267,-0.00021300886874087155,-0.0001942297676578164,-0.00017545065202284604,-0.00015667153638787568,-0.000137892464408651,-0.00011911335604963824,-0.00010033424769062549,-8.155513933161274e-05,-6.277603097259998e-05,-4.399692261358723e-05,-2.5217814254574478e-05,-6.438705895561725e-06,1.2340402463451028e-05,3.111951082246378e-05,4.9898619181476533e-05,6.867772754048929e-05,8.745683589950204e-05,0.00010623594425851479,0.00012501505261752754,0.0001437941682524979,0.00016257326933555305,0.0001813523704186082,0.00020013148605357856,0.00021891060168854892,0.00023768970277160406,0.0002564688038546592,0.00027524790493771434,0.00029402703512459993,0.00031280613620765507,0.0003315852372907102,0.0003503643674775958,0.00036914346856065094,0.0003879225696437061,0.0004067016707267612,0.00042548077180981636,0.00044425990199670196,0.0004630390030797571]},"train/physics_comp_1":5.823471838084515e-07}