{"val/val_comp_1":0.7976536750793457,"_runtime":15,"_wandb":{"runtime":15},"gradients/out.weight":{"_type":"histogram","values":[1,0,0,0,0,0,0,1,1,0,2,4,0,1,1,1,0,0,1,2,2,4,0,3,2,3,2,8,9,24,23,23,27,9,8,6,5,3,0,0,0,4,3,1,1,0,1,1,0,0,0,0,0,0,0,1,0,0,1,1,0,1,0,1],"bins":[-7.779007434844971,-7.530581951141357,-7.282155990600586,-7.033730506896973,-6.785305023193359,-6.536879539489746,-6.288454055786133,-6.040028095245361,-5.791602611541748,-5.543177127838135,-5.294751167297363,-5.04632568359375,-4.797900199890137,-4.549474716186523,-4.30104923248291,-4.052623271942139,-3.8041977882385254,-3.555772304534912,-3.3073465824127197,-3.0589208602905273,-2.810495376586914,-2.562069892883301,-2.3136441707611084,-2.065218448638916,-1.8167929649353027,-1.5683673620224,-1.319941759109497,-1.0715161561965942,-0.8230905532836914,-0.5746649503707886,-0.32623934745788574,-0.07781374454498291,0.17061233520507812,0.41903793811798096,0.6674635410308838,0.9158891439437866,1.1643147468566895,1.4127403497695923,1.6611659526824951,1.909591555595398,2.158017158508301,2.406442642211914,2.6548683643341064,2.903294086456299,3.151719570159912,3.4001450538635254,3.6485707759857178,3.89699649810791,4.145421981811523,4.393847465515137,4.64227294921875,4.8906989097595215,5.139124393463135,5.387549877166748,5.6359758377075195,5.884401321411133,6.132826805114746,6.381252288818359,6.629677772521973,6.878103733062744,7.126529216766357,7.374954700469971,7.623380661010742,7.8718061447143555,8.120231628417969]},"gradients/layers.0.weight":{"_type":"histogram","values":[1,1,0,0,0,0,2,1,0,0,1,1,0,0,0,0,3,3,1,0,2,3,3,1,2,2,6,2,4,5,5,4,7,4,3,6,2,9,6,3,1,2,6,0,4,2,2,3,1,0,0,3,2,1,0,2,0,1,1,0,1,0,1,2],"bins":[-1.31205415725708,-1.2739557027816772,-1.235857367515564,-1.1977589130401611,-1.1596604585647583,-1.121562123298645,-1.0834636688232422,-1.0453652143478394,-1.0072667598724365,-0.9691684246063232,-0.9310699701309204,-0.8929715752601624,-0.8548731803894043,-0.8167747259140015,-0.7786763310432434,-0.7405778765678406,-0.7024794816970825,-0.6643810868263245,-0.6262826323509216,-0.5881842374801636,-0.5500857830047607,-0.5119873881340027,-0.47388899326324463,-0.4357905685901642,-0.39769214391708374,-0.3595937192440033,-0.32149529457092285,-0.2833968997001648,-0.24529847502708435,-0.2072000503540039,-0.16910164058208466,-0.1310032308101654,-0.09290480613708496,-0.054806388914585114,-0.016707971692085266,0.02139044553041458,0.05948886275291443,0.09758727997541428,0.13568569719791412,0.17378410696983337,0.21188253164291382,0.24998095631599426,0.2880793809890747,0.32617777585983276,0.3642762005329132,0.40237462520599365,0.4404730200767517,0.47857144474983215,0.5166698694229126,0.5547682642936707,0.5928667187690735,0.6309651136398315,0.6690635681152344,0.7071619629859924,0.7452603578567505,0.7833588123321533,0.8214572072029114,0.8595556020736694,0.8976540565490723,0.9357524514198303,0.9738508462905884,1.0119493007659912,1.050047755241394,1.0881460905075073,1.1262445449829102]},"val/val_comp_0":1.4244706630706787,"gradients/out.bias":{"_type":"histogram","values":[1,0,0,0,0,0,0,0,0,0,0,0,0,0,0,0,0,0,0,0,0,0,0,0,0,1,0,0,0,0,0,0,0,0,0,0,0,0,0,0,0,0,0,0,0,0,0,0,0,0,0,0,0,0,0,0,0,0,0,0,0,0,0,1],"bins":[-3.5130865573883057,-3.2421538829803467,-2.9712212085723877,-2.7002885341644287,-2.4293556213378906,-2.1584229469299316,-1.8874902725219727,-1.6165575981140137,-1.3456249237060547,-1.0746922492980957,-0.8037595152854919,-0.5328267812728882,-0.2618941068649292,0.009038597345352173,0.27997130155563354,0.5509040355682373,0.8218367099761963,1.0927693843841553,1.3637020587921143,1.6346348524093628,1.9055675268173218,2.1765003204345703,2.4474329948425293,2.7183656692504883,2.9892983436584473,3.2602310180664062,3.5311636924743652,3.802096366882324,4.073029041290283,4.343961715698242,4.614894390106201,4.88582706451416,5.156760215759277,5.427692890167236,5.698625564575195,5.969558238983154,6.240490913391113,6.511423587799072,6.782356262207031,7.05328893661499,7.324221611022949,7.595154762268066,7.866087436676025,8.137020111083984,8.407952308654785,8.678885459899902,8.949817657470703,9.22075080871582,9.491683959960938,9.762616157531738,10.033549308776855,10.304481506347656,10.575414657592773,10.846346855163574,11.117280006408691,11.388212203979492,11.65914535522461,11.93007755279541,12.201010704040527,12.471942901611328,12.742876052856445,13.013808250427246,13.284741401672363,13.555673599243164,13.826606750488281]},"_timestamp":1.7726802063557875e+09,"gradients/layers.1.bias":{"_type":"histogram","values":[1,0,0,0,1,0,0,0,0,1,0,1,0,1,0,1,1,0,0,3,2,3,2,1,0,3,1,3,1,4,4,1,2,2,1,0,1,3,5,0,1,3,1,0,3,0,1,1,1,0,0,1,0,0,1,0,0,0,0,0,1,0,0,1],"bins":[-5.32239294052124,-5.160082817077637,-4.997772693634033,-4.83546257019043,-4.673152446746826,-4.510842323303223,-4.348532199859619,-4.186222076416016,-4.023911952972412,-3.8616018295288086,-3.699291706085205,-3.5369815826416016,-3.374671459197998,-3.2123613357543945,-3.050051212310791,-2.8877410888671875,-2.725430965423584,-2.5631208419799805,-2.400810718536377,-2.2385005950927734,-2.07619047164917,-1.9138803482055664,-1.751570224761963,-1.5892601013183594,-1.4269499778747559,-1.2646398544311523,-1.1023297309875488,-0.9400196075439453,-0.7777094841003418,-0.6153993606567383,-0.45308923721313477,-0.29077911376953125,-0.12846851348876953,0.033841609954833984,0.1961517333984375,0.358461856842041,0.5207719802856445,0.683082103729248,0.8453922271728516,1.007702350616455,1.1700124740600586,1.332322597503662,1.4946327209472656,1.6569428443908691,1.8192529678344727,1.9815630912780762,2.1438732147216797,2.306183338165283,2.4684934616088867,2.6308035850524902,2.7931137084960938,2.9554238319396973,3.117733955383301,3.2800440788269043,3.442354202270508,3.6046643257141113,3.766974449157715,3.9292845726013184,4.091594696044922,4.253904819488525,4.416214942932129,4.578525066375732,4.740835189819336,4.9031453132629395,5.065455436706543]},"gradients/layers.0.bias":{"_type":"histogram","values":[1,1,1,0,0,1,1,0,0,0,0,0,0,3,3,0,1,2,0,0,1,1,0,1,0,1,2,3,1,1,3,0,2,0,2,3,2,1,1,4,2,2,1,1,2,0,1,0,1,2,0,1,1,0,1,0,1,0,2,0,0,2,0,1],"bins":[-3.7383346557617188,-3.6246352195739746,-3.5109355449676514,-3.3972361087799072,-3.283536672592163,-3.16983699798584,-3.0561375617980957,-2.9424381256103516,-2.8287384510040283,-2.715039014816284,-2.60133957862854,-2.487639904022217,-2.3739404678344727,-2.2602410316467285,-2.1465413570404053,-2.032841920852661,-1.9191423654556274,-1.8054428100585938,-1.6917433738708496,-1.578043818473816,-1.4643442630767822,-1.350644826889038,-1.2369452714920044,-1.1232457160949707,-1.0095462799072266,-0.8958467245101929,-0.7821471691131592,-0.6684476733207703,-0.5547481775283813,-0.44104862213134766,-0.32734912633895874,-0.21364960074424744,-0.09995007514953613,0.013749442994594574,0.12744896113872528,0.2411484718322754,0.3548479974269867,0.468547523021698,0.5822470188140869,0.6959465742111206,0.8096460700035095,0.9233455657958984,1.0370451211929321,1.1507446765899658,1.26444411277771,1.3781436681747437,1.4918432235717773,1.6055426597595215,1.7192422151565552,1.8329417705535889,1.946641206741333,2.0603408813476562,2.1740403175354004,2.2877397537231445,2.4014394283294678,2.515138864517212,2.628838300704956,2.7425379753112793,2.8562374114990234,2.9699368476867676,3.083636522293091,3.197335958480835,3.311035394668579,3.4247350692749023,3.5384345054626465]},"train/physics":1.0392869710922241,"train/total":2.306884765625,"gradients/layers.2.weight":{"_type":"histogram","values":[1,1,0,0,2,2,0,4,6,9,9,10,10,10,17,15,17,39,39,48,42,52,63,91,112,139,182,247,285,397,452,356,293,225,167,145,110,90,84,44,48,40,32,26,24,16,7,14,18,8,9,6,8,5,5,2,2,5,3,0,0,2,0,1],"bins":[-1.4396990537643433,-1.3923238515853882,-1.3449487686157227,-1.2975735664367676,-1.2501983642578125,-1.202823281288147,-1.155448079109192,-1.1080729961395264,-1.0606977939605713,-1.0133225917816162,-0.9659475088119507,-0.9185723066329956,-0.8711971640586853,-0.823822021484375,-0.7764468193054199,-0.7290716767311096,-0.6816965341567993,-0.634321391582489,-0.5869462490081787,-0.5395710468292236,-0.49219590425491333,-0.444820761680603,-0.39744558930397034,-0.35007041692733765,-0.30269527435302734,-0.25532013177871704,-0.20794495940208435,-0.16056980192661285,-0.11319464445114136,-0.06581948697566986,-0.018444329500198364,0.028930827975273132,0.07630586624145508,0.12368102371692657,0.17105618119239807,0.21843133866786957,0.26580649614334106,0.31318163871765137,0.36055681109428406,0.40793198347091675,0.45530712604522705,0.5026822686195374,0.5500574111938477,0.5974326133728027,0.644807755947113,0.6921828985214233,0.7395581007003784,0.7869332432746887,0.834308385848999,0.8816835284233093,0.9290586709976196,0.9764338731765747,1.0238089561462402,1.0711841583251953,1.1185593605041504,1.165934443473816,1.213309645652771,1.260684847831726,1.3080599308013916,1.3554351329803467,1.4028103351593018,1.4501854181289673,1.4975606203079224,1.544935703277588,1.592310905456543]},"train/physics_comp_2":0.9504343867301941,"val/physics_loss":1.0557280778884888,"val/data_loss":1.61205125e+06,"val/val_comp_2":0.9450599551200867,"gradients/layers.2.bias":{"bins":[-5.035342216491699,-4.895655632019043,-4.755969047546387,-4.6162824630737305,-4.476595878601074,-4.336909294128418,-4.197222709655762,-4.0575361251831055,-3.9178497791290283,-3.778163194656372,-3.638476610183716,-3.4987900257110596,-3.3591036796569824,-3.219417095184326,-3.07973051071167,-2.9400439262390137,-2.8003573417663574,-2.660670757293701,-2.520984172821045,-2.3812975883483887,-2.2416110038757324,-2.1019246578216553,-1.962238073348999,-1.8225514888763428,-1.6828649044036865,-1.5431783199310303,-1.403491735458374,-1.2638052701950073,-1.124118685722351,-0.9844321012496948,-0.8447455763816833,-0.7050590515136719,-0.5653719902038574,-0.42568543553352356,-0.2859988808631897,-0.14631232619285583,-0.006625771522521973,0.1330607831478119,0.27274733781814575,0.4124338924884796,0.5521204471588135,0.6918070316314697,0.8314935564994812,0.9711800813674927,1.110866665840149,1.2505532503128052,1.3902397155761719,1.5299263000488281,1.6696128845214844,1.8092994689941406,1.9489860534667969,2.088672637939453,2.2283592224121094,2.3680455684661865,2.5077321529388428,2.647418737411499,2.7871053218841553,2.9267919063568115,3.0664784908294678,3.206165075302124,3.345851421356201,3.4855380058288574,3.6252245903015137,3.76491117477417,3.904597759246826],"_type":"histogram","values":[2,0,0,0,0,0,0,0,0,1,1,1,1,3,0,1,0,2,0,1,1,1,1,3,1,2,2,3,2,1,1,1,2,1,1,2,2,0,0,1,1,1,2,0,1,2,0,2,3,0,2,0,0,0,3,1,0,0,1,0,1,1,1,1]},"gradients/layers.1.weight":{"values":[1,0,0,0,0,0,0,1,3,2,5,2,1,7,8,7,9,14,12,22,20,28,49,49,50,82,78,91,120,129,177,227,255,416,482,338,234,202,173,144,129,100,89,67,59,46,31,23,24,17,16,10,11,8,11,4,2,1,3,1,2,2,0,2],"bins":[-0.8052682876586914,-0.7818167209625244,-0.7583650946617126,-0.7349135279655457,-0.7114619016647339,-0.6880103349685669,-0.6645587682723999,-0.6411071419715881,-0.6176555752754211,-0.5942040085792542,-0.5707523822784424,-0.5473008155822754,-0.5238492488861084,-0.5003976225852966,-0.47694605588912964,-0.45349445939064026,-0.4300428628921509,-0.4065912663936615,-0.3831396698951721,-0.3596881031990051,-0.33623650670051575,-0.31278491020202637,-0.2893333435058594,-0.26588174700737,-0.24243015050888062,-0.21897855401039124,-0.19552697241306305,-0.17207539081573486,-0.14862379431724548,-0.1251721978187561,-0.10172061622142792,-0.07826902717351913,-0.05481743812561035,-0.03136584907770157,-0.007914260029792786,0.015537329018115997,0.03898891806602478,0.06244050711393356,0.08589209616184235,0.10934368520975113,0.1327952742576599,0.1562468707561493,0.17969845235347748,0.20315003395080566,0.22660163044929504,0.2500532269477844,0.2735047936439514,0.2969563901424408,0.3204079866409302,0.34385958313941956,0.36731117963790894,0.3907627463340759,0.4142143428325653,0.4376659393310547,0.4611175060272217,0.48456910252571106,0.5080206990242004,0.5314722657203674,0.5549238920211792,0.5783754587173462,0.6018270254135132,0.625278651714325,0.6487302184104919,0.6721818447113037,0.6956334114074707],"_type":"histogram"},"train/data":1.2675979137420654,"train/physics_comp_0":1.3793562650680542,"train/physics_comp_1":0.788070023059845,"val/total":1.61205225e+06,"_step":999}