{"_runtime":683,"val/total":0.00039872966590337455,"val/mse_P_bh":0.0002965141902677715,"gradients/main_layers.3.weight":{"bins":[-0.0005753593286499381,-0.000557645398657769,-0.0005399314104579389,-0.0005222174804657698,-0.0005045034922659397,-0.0004867895331699401,-0.0004690755740739405,-0.0004513616149779409,-0.0004336476558819413,-0.0004159337258897722,-0.0003982197667937726,-0.000380505807697773,-0.0003627918486017734,-0.0003450778895057738,-0.0003273639304097742,-0.0003096499713137746,-0.000291936012217775,-0.0002742220531217754,-0.0002565080940257758,-0.0002387941349297762,-0.0002210801758337766,-0.00020336623128969222,-0.00018565227219369262,-0.00016793831309769303,-0.00015022435400169343,-0.00013251039490569383,-0.00011479643580969423,-9.708248398965225e-05,-7.936852489365265e-05,-6.165456579765305e-05,-4.394061033963226e-05,-2.6226653062622063e-05,-8.512695785611868e-06,9.201261491398327e-06,2.6915218768408522e-05,4.4629174226429313e-05,6.234313332242891e-05,8.005709241842851e-05,9.77710442384705e-05,0.0001154850033344701,0.0001331989624304697,0.0001509129215264693,0.0001686268806224689,0.0001863408397184685,0.00020405478426255286,0.00022176874335855246,0.00023948270245455205,0.00025719666155055165,0.00027491062064655125,0.00029262457974255085,0.00031033853883855045,0.00032805249793455005,0.00034576645703054965,0.00036348041612654924,0.00038119437522254884,0.00039890833431854844,0.0004166222643107176,0.0004343362234067172,0.0004520501825027168,0.0004697641415987164,0.000487478100694716,0.000505192088894546,0.0005229060188867152,0.0005406200070865452,0.0005583339370787144],"_type":"histogram","values":[1,0,1,0,1,1,0,0,2,1,1,4,2,1,2,6,3,2,6,18,8,28,39,26,50,66,84,94,154,197,335,538,686,528,299,254,159,119,96,76,46,41,30,30,18,8,13,4,4,5,1,3,1,0,1,0,0,0,1,1,0,0,0,1]},"gradients/main_layers.3.bias":{"values":[1,0,0,0,0,0,0,0,0,0,0,0,1,0,0,0,0,0,0,0,1,1,0,0,2,1,0,2,1,0,1,0,1,3,0,3,3,3,1,3,2,2,3,2,3,4,3,2,4,1,1,0,1,0,0,1,0,2,2,0,1,1,0,1],"bins":[-0.0011025834828615189,-0.0010776349809020758,-0.0010526864789426327,-0.0010277379769831896,-0.0010027894750237465,-0.0009778409730643034,-0.0009528924711048603,-0.0009279439691454172,-0.0009029954671859741,-0.000878046965226531,-0.0008530984632670879,-0.0008281499613076448,-0.0008032014593482018,-0.0007782529573887587,-0.0007533044554293156,-0.0007283559534698725,-0.0007034074515104294,-0.0006784589495509863,-0.0006535104475915432,-0.0006285619456321001,-0.000603613443672657,-0.0005786649417132139,-0.0005537164397537708,-0.0005287679377943277,-0.0005038194358348846,-0.00047887093387544155,-0.00045392243191599846,-0.00042897392995655537,-0.0004040254279971123,-0.0003790769260376692,-0.0003541284240782261,-0.000329179922118783,-0.0003042314201593399,-0.0002792829181998968,-0.0002543344162404537,-0.00022938591428101063,-0.00020443741232156754,-0.00017948891036212444,-0.00015454040840268135,-0.00012959190644323826,-0.00010464340448379517,-7.969490252435207e-05,-5.474640056490898e-05,-2.979789860546589e-05,-4.849396646022797e-06,2.0099105313420296e-05,4.504760727286339e-05,6.999610923230648e-05,9.494461119174957e-05,0.00011989311315119267,0.00014484161511063576,0.00016979011707007885,0.00019473861902952194,0.00021968712098896503,0.0002446356229484081,0.0002695841249078512,0.0002945326268672943,0.0003194811288267374,0.0003444296307861805,0.0003693781327456236,0.0003943266347050667,0.0004192751366645098,0.00044422363862395287,0.00046917214058339596,0.000494120642542839],"_type":"histogram"},"gradients/main_layers.2.bias":{"_type":"histogram","values":[1,1,0,0,0,1,0,0,0,0,0,1,1,0,2,0,2,1,1,0,1,2,1,1,2,1,1,2,2,2,2,0,4,6,3,2,2,2,1,0,4,2,4,1,0,0,0,0,0,0,0,0,0,0,0,1,0,0,1,2,0,0,0,1],"bins":[-0.0007775069680064917,-0.0007542399689555168,-0.0007309729116968811,-0.0007077059126459062,-0.0006844388553872705,-0.0006611718563362956,-0.0006379047990776598,-0.000614637800026685,-0.0005913707427680492,-0.0005681037437170744,-0.0005448367446660995,-0.0005215696874074638,-0.0004983026883564889,-0.00047503566020168364,-0.00045176863204687834,-0.00042850160389207304,-0.00040523457573726773,-0.00038196754758246243,-0.00035870051942765713,-0.0003354334912728518,-0.0003121664631180465,-0.0002888994640670717,-0.0002656324359122664,-0.00024236540775746107,-0.00021909837960265577,-0.00019583135144785047,-0.00017256432329304516,-0.0001492973096901551,-0.00012603028153534979,-0.00010276325338054448,-7.94962325016968e-05,-5.62292079848703e-05,-3.2962183468043804e-05,-9.695158951217309e-06,1.3571865565609187e-05,3.683889008243568e-05,6.010591459926218e-05,8.337294275406748e-05,0.00010663996363291517,0.00012990698451176286,0.00015317401266656816,0.00017644104082137346,0.00019970806897617877,0.00022297508257906884,0.0002462420961819589,0.0002695091243367642,0.0002927761524915695,0.0003160431806463748,0.0003393102088011801,0.0003625772369559854,0.00038584426511079073,0.00040911129326559603,0.00043237832142040133,0.0004556453204713762,0.0004789123486261815,0.0005021793767809868,0.0005254463758319616,0.0005487134330905974,0.0005719804321415722,0.000595247489400208,0.0006185144884511828,0.0006417815457098186,0.0006650485447607934,0.0006883156020194292,0.000711582601070404]},"val/mae_P_tb_b":0.013547897338867188,"gradients/output_layer.weight":{"bins":[-0.0009420353453606367,-0.0009082045289687812,-0.0008743737125769258,-0.0008405428961850703,-0.0008067120797932148,-0.0007728812634013593,-0.0007390504470095038,-0.0007052196306176484,-0.0006713888142257929,-0.0006375580560415983,-0.0006037272396497428,-0.0005698964232578874,-0.0005360656068660319,-0.0005022347904741764,-0.00046840397408232093,-0.00043457315769046545,-0.00040074234129860997,-0.0003669115249067545,-0.000333080708514899,-0.00029924989212304354,-0.00026541907573118806,-0.0002315882738912478,-0.00019775747205130756,-0.00016392665565945208,-0.0001300958392675966,-9.626502287574112e-05,-6.243421375984326e-05,-2.860340100596659e-05,5.227411747910082e-06,3.9058224501786754e-05,7.288903725566342e-05,0.00010671984637156129,0.00014055066276341677,0.00017438147915527225,0.00020821229554712772,0.00024204309738706797,0.0002758739283308387,0.0003097047156188637,0.0003435355320107192,0.00037736634840257466,0.00041119716479443014,0.0004450279811862856,0.0004788587975781411,0.0005126895848661661,0.0005465204012580216,0.0005803512176498771,0.0006141820340417325,0.000648012850433588,0.0006818436668254435,0.000715674483217299,0.0007495052996091545,0.0007833361160010099,0.0008171669323928654,0.0008509977487847209,0.0008848285651765764,0.0009186593815684319,0.0009524901397526264,0.0009863210143521428,0.0010201517725363374,0.0010539826471358538,0.0010878134053200483,0.0011216442799195647,0.0011554750381037593,0.0011893059127032757,0.0012231366708874702],"_type":"histogram","values":[1,0,1,1,0,0,1,2,0,0,2,2,7,8,4,6,6,4,3,1,6,6,6,2,1,1,4,3,1,3,4,6,3,4,0,1,2,1,0,5,3,3,1,1,1,2,2,1,2,2,0,1,0,0,0,0,0,0,0,0,0,0,0,1]},"gradients/main_layers.2.weight":{"values":[1,0,0,0,0,1,0,0,0,0,1,0,4,2,1,0,1,1,2,1,4,2,9,12,12,25,34,31,53,78,151,265,421,624,701,570,411,245,169,79,65,37,21,19,12,8,2,5,3,4,1,0,3,1,0,2,0,0,1,0,0,0,0,1],"bins":[-0.0007919014897197485,-0.000768926867749542,-0.0007459523039869964,-0.0007229776820167899,-0.0007000030600465834,-0.0006770284380763769,-0.0006540538743138313,-0.0006310792523436248,-0.0006081046303734183,-0.0005851300666108727,-0.0005621554446406662,-0.0005391808226704597,-0.0005162062007002532,-0.0004932316369377077,-0.00047025701496750116,-0.00044728239299729466,-0.0004243078001309186,-0.0004013332072645426,-0.0003783585852943361,-0.00035538399242796004,-0.00033240937045775354,-0.0003094347775913775,-0.000286460155621171,-0.00026348556275479496,-0.00024051095533650368,-0.00021753634791821241,-0.00019456174049992114,-0.00017158713308162987,-0.00014861254021525383,-0.00012563793279696256,-0.00010266332537867129,-7.968871796038002e-05,-5.671411054208875e-05,-3.3739503123797476e-05,-1.0764899343485013e-05,1.2209706255816855e-05,3.518431185511872e-05,5.815891927340999e-05,8.113351941574365e-05,0.00010410812683403492,0.0001270827342523262,0.00015005734167061746,0.00017303194908890873,0.0001960065565072,0.00021898114937357605,0.00024195575679186732,0.0002649303642101586,0.0002879049861803651,0.00031087957904674113,0.00033385417191311717,0.00035682879388332367,0.0003798033867496997,0.0004027780087199062,0.00042575260158628225,0.00044872722355648875,0.0004717018164228648,0.0004946764092892408,0.0005176510312594473,0.0005406256532296538,0.0005636002169921994,0.0005865748389624059,0.0006095494609326124,0.0006325240829028189,0.0006554986466653645,0.000678473268635571],"_type":"histogram"},"val/mse_P_tb_b":0.0005009451415389776,"gradients/main_layers.0.weight":{"_type":"histogram","values":[1,0,0,0,0,0,0,0,1,0,0,0,0,0,0,0,1,0,0,0,1,0,0,1,3,4,7,7,4,11,8,7,9,21,17,18,22,27,20,17,21,7,24,13,11,7,9,1,5,2,3,3,1,1,0,1,1,2,0,0,0,0,0,1],"bins":[-0.0019043777137994766,-0.0018539339071139693,-0.001803490100428462,-0.0017530462937429547,-0.0017026024870574474,-0.0016521585639566183,-0.001601714757271111,-0.0015512709505856037,-0.0015008271439000964,-0.0014503833372145891,-0.0013999395305290818,-0.0013494957238435745,-0.0012990518007427454,-0.001248607994057238,-0.0011981641873717308,-0.0011477203806862235,-0.0010972765740007162,-0.001046832767315209,-0.0009963889606297016,-0.0009459450957365334,-0.0008955012890510261,-0.0008450574823655188,-0.0007946136174723506,-0.0007441698107868433,-0.000693726004101336,-0.0006432821974158287,-0.0005928383907303214,-0.0005423945258371532,-0.0004919507191516459,-0.0004415069124661386,-0.00039106307667680085,-0.0003406192408874631,-0.0002901754342019558,-0.00023973161296453327,-0.00018928779172711074,-0.00013884397048968822,-8.840014925226569e-05,-3.7956328014843166e-05,1.248749322257936e-05,6.293131446000189e-05,0.00011337513569742441,0.00016381895693484694,0.00021426277817226946,0.0002647066139616072,0.0003151504206471145,0.0003655942273326218,0.00041603806312195957,0.0004664818989112973,0.0005169257055968046,0.0005673695122823119,0.0006178133189678192,0.0006682571838609874,0.0007187009905464947,0.000769144797232002,0.0008195886621251702,0.0008700324688106775,0.0009204762754961848,0.0009709200821816921,0.0010213638888671994,0.0010718076955527067,0.0011222516186535358,0.0011726954253390431,0.0012231392320245504,0.0012735830387100577,0.001324026845395565]},"_wandb":{"runtime":683},"_step":20000,"gradients/output_layer.bias":{"bins":[-0.0012585939839482307,-0.0012521621538326144,-0.0012457302073016763,-0.00123929837718606,-0.0012328664306551218,-0.0012264346005395055,-0.0012200027704238892,-0.001213570823892951,-0.0012071389937773347,-0.0012007071636617184,-0.0011942752171307802,-0.001187843387015164,-0.0011814115568995476,-0.0011749796103686094,-0.001168547780252993,-0.001162115833722055,-0.0011556840036064386,-0.0011492521734908223,-0.0011428202269598842,-0.0011363883968442678,-0.0011299564503133297,-0.0011235246201977134,-0.001117092790082097,-0.001110660843551159,-0.0011042290134355426,-0.0010977971833199263,-0.0010913652367889881,-0.0010849334066733718,-0.0010785015765577555,-0.0010720696300268173,-0.001065637799911201,-0.0010592058533802629,-0.0010527740232646465,-0.0010463421931490302,-0.001039910246618092,-0.0010334784165024757,-0.0010270464699715376,-0.0010206146398559213,-0.001014182809740305,-0.0010077508632093668,-0.0010013190330937505,-0.0009948872029781342,-0.000988455256447196,-0.0009820234263315797,-0.0009755915380083025,-0.0009691596496850252,-0.0009627278195694089,-0.0009562959312461317,-0.0009498640429228544,-0.0009434321545995772,-0.0009370002662763,-0.0009305684361606836,-0.0009241365478374064,-0.0009177046595141292,-0.0009112728293985128,-0.0009048409410752356,-0.0008984090527519584,-0.0008919771644286811,-0.0008855452761054039,-0.0008791134459897876,-0.0008726815576665103,-0.0008662496693432331,-0.0008598178392276168,-0.0008533859509043396,-0.0008469540625810623],"_type":"histogram","values":[1,0,0,0,0,0,0,0,0,0,0,0,0,0,0,0,0,0,0,0,0,0,0,0,0,0,0,0,0,0,0,0,0,0,0,0,0,0,0,0,0,0,0,0,0,0,0,0,0,0,0,0,0,0,0,0,0,0,0,0,0,0,0,1]},"val/mae_P_bh":0.011157989501953125,"train/total":2.9104263376211748e-05,"gradients/main_layers.1.weight":{"bins":[-0.0005891685141250491,-0.0005675542633980513,-0.0005459400126710534,-0.0005243257619440556,-0.0005027115112170577,-0.00048109726049005985,-0.000459483009763062,-0.00043786875903606415,-0.0004162545083090663,-0.0003946402866858989,-0.00037302603595890105,-0.0003514117852319032,-0.00032979753450490534,-0.0003081832837779075,-0.00028656903305090964,-0.0002649547823239118,-0.00024334053159691393,-0.00022172628086991608,-0.00020011203014291823,-0.00017849777941592038,-0.00015688352868892252,-0.0001352692925138399,-0.00011365504178684205,-9.20407910598442e-05,-7.042654033284634e-05,-4.881228960584849e-05,-2.7198042516829446e-05,-5.583793608820997e-06,1.603045529918745e-05,3.7644706026185304e-05,5.925895311520435e-05,8.08732002042234e-05,0.00010248745093122125,0.0001241017016582191,0.00014571595238521695,0.0001673302031122148,0.00018894445383921266,0.00021055869001429528,0.00023217294074129313,0.0002537872060202062,0.00027540145674720407,0.00029701567837037146,0.0003186299290973693,0.00034024417982436717,0.000361858430551365,0.00038347268127836287,0.0004050869320053607,0.0004267011827323586,0.00044831543345935643,0.0004699296841863543,0.0004915439058095217,0.0005131581565365195,0.0005347724072635174,0.0005563866579905152,0.0005780009087175131,0.0005996151594445109,0.0006212294101715088,0.0006428436608985066,0.0006644579116255045,0.0006860721623525023,0.0007076864130795002,0.000729300663806498,0.0007509149145334959,0.0007725291652604938,0.0007941434159874916],"_type":"histogram","values":[1,0,0,1,2,0,1,3,2,1,5,7,6,4,7,11,11,20,31,42,65,85,125,188,302,430,542,531,530,340,254,145,133,83,52,37,36,16,11,10,6,5,4,2,1,0,1,0,1,2,2,0,0,0,0,0,1,0,0,0,0,0,0,1]},"gradients/main_layers.1.bias":{"bins":[-0.000973404326941818,-0.0009421847062185407,-0.0009109650272876024,-0.0008797454065643251,-0.0008485257858410478,-0.0008173061651177704,-0.0007860865443944931,-0.0007548668654635549,-0.0007236472447402775,-0.0006924276240170002,-0.000661207945086062,-0.0006299883243627846,-0.0005987687036395073,-0.00056754908291623,-0.0005363294621929526,-0.0005051097832620144,-0.00047389016253873706,-0.00044267054181545973,-0.00041145089198835194,-0.00038023124216124415,-0.0003490116214379668,-0.0003177920007146895,-0.0002865723508875817,-0.0002553527010604739,-0.0002241330803371966,-0.00019291344506200403,-0.00016169380978681147,-0.0001304741745116189,-9.925453923642635e-05,-6.80349039612338e-05,-3.6815268686041236e-05,-5.595633410848677e-06,2.5624060072004795e-05,5.6843695347197354e-05,8.806333062238991e-05,0.00011928296589758247,0.00015050260117277503,0.0001817222364479676,0.00021294187172316015,0.00024416152155026793,0.00027538114227354527,0.0003066007629968226,0.0003378204128239304,0.00036904006265103817,0.0004002596833743155,0.00043147930409759283,0.0004626989539247006,0.0004939186037518084,0.0005251382244750857,0.0005563578451983631,0.0005875774659216404,0.0006187971448525786,0.000650016765575856,0.0006812363862991333,0.0007124560652300715,0.0007436756859533489,0.0007748953066766262,0.0008061149273999035,0.0008373345481231809,0.0008685542270541191,0.0008997738477773964,0.0009309934685006738,0.000962213147431612,0.0009934327099472284,0.0010246523888781667],"_type":"histogram","values":[1,1,0,0,0,0,1,0,0,0,0,0,3,0,1,1,0,2,2,0,0,0,2,2,3,1,0,2,2,2,2,2,4,0,3,3,2,1,1,1,1,3,0,2,3,2,0,1,1,0,0,1,1,0,0,0,2,0,0,0,0,0,0,2]},"_timestamp":1.7765459955116396e+09,"gradients/main_layers.0.bias":{"values":[1,0,0,0,0,0,0,0,0,0,0,1,1,1,1,1,0,1,0,0,0,0,1,0,1,2,0,1,2,2,1,1,1,3,0,1,2,3,3,0,7,5,1,0,1,4,2,1,3,2,0,0,2,2,0,1,0,1,0,0,0,0,0,1],"bins":[-0.0017772018909454346,-0.0017303628847002983,-0.001683523878455162,-0.0016366848722100258,-0.0015898458659648895,-0.001543006976135075,-0.0014961679698899388,-0.0014493289636448026,-0.0014024899573996663,-0.00135565095115453,-0.0013088119449093938,-0.0012619729386642575,-0.001215134048834443,-0.0011682950425893068,-0.0011214560363441706,-0.0010746170300990343,-0.001027778023853898,-0.0009809390176087618,-0.0009341000113636255,-0.0008872610633261502,-0.0008404220570810139,-0.0007935830508358777,-0.0007467441027984023,-0.000699905096553266,-0.0006530660903081298,-0.0006062270840629935,-0.0005593880778178573,-0.0005125491297803819,-0.00046571012353524566,-0.0004188711172901094,-0.0003720321401488036,-0.0003251931630074978,-0.0002783541567623615,-0.0002315151650691405,-0.00018467617337591946,-0.00013783718168269843,-9.09981899894774e-05,-4.4159198296256363e-05,2.6797933969646692e-06,4.95187850901857e-05,9.635777678340673e-05,0.00014319676847662777,0.0001900357601698488,0.00023687475186306983,0.00028371374355629086,0.0003305527498014271,0.00037739172694273293,0.00042423070408403873,0.000471069710329175,0.0005179087165743113,0.0005647477228194475,0.0006115866708569229,0.0006584256771020591,0.0007052646833471954,0.0007521036313846707,0.000798942637629807,0.0008457816438749433,0.0008926206501200795,0.0009394596563652158,0.000986298662610352,0.0010331375524401665,0.0010799765586853027,0.001126815564930439,0.0011736545711755753,0.0012204935774207115],"_type":"histogram"},"val/rmse_P_bh":0.01721987873315811,"val/rmse_P_tb_b":0.02238202653825283}