{"val/physics_loss":1.926779873429041e-07,"gradients/out.bias":{"values":[1,0,0,0,0,0,0,0,0,0,0,0,0,0,0,0,0,0,0,0,0,0,0,0,0,0,0,0,1,0,0,0,0,0,0,0,0,0,0,0,0,0,0,0,0,0,0,0,0,0,0,0,0,0,0,0,0,0,0,0,0,0,0,1],"bins":[-0.00019937180331908166,-0.0001944125979207456,-0.0001894534070743248,-0.00018449420167598873,-0.00017953499627765268,-0.00017457580543123186,-0.0001696166000328958,-0.00016465739463455975,-0.0001596981892362237,-0.00015473899838980287,-0.00014977979299146682,-0.00014482058759313077,-0.00013986139674670994,-0.0001349021913483739,-0.00012994298595003784,-0.000124983795103617,-0.00012002458970528096,-0.00011506539158290252,-0.00011010618618456647,-0.00010514698806218803,-0.00010018778266385198,-9.522858454147354e-05,-9.02693864190951e-05,-8.531018102075905e-05,-8.035098289838061e-05,-7.539178477600217e-05,-7.043257937766612e-05,-6.547338125528768e-05,-6.051417949493043e-05,-5.5554977734573185e-05,-5.059577961219475e-05,-4.56365778518375e-05,-4.067738336743787e-05,-3.5718181607080624e-05,-3.075897984672338e-05,-2.579978172434494e-05,-2.0840579963987693e-05,-1.5881378203630447e-05,-1.0922178262262605e-05,-5.962977411400061e-06,-1.003776560537517e-06,3.955424290325027e-06,8.914625141187571e-06,1.3873825992050115e-05,1.883302684291266e-05,2.3792228603269905e-05,2.8751428544637747e-05,3.371062848600559e-05,3.8669830246362835e-05,4.362903200672008e-05,4.858823376707733e-05,5.3547431889455765e-05,5.850663364981301e-05,6.346583541017026e-05,6.84250335325487e-05,7.338423893088475e-05,7.834343705326319e-05,8.330263517564163e-05,8.826184057397768e-05,9.322103869635612e-05,9.818024409469217e-05,0.00010313944221707061,0.00010809864033944905,0.0001130578457377851,0.00011801704386016354],"_type":"histogram"},"val/total":87.25432586669922,"train/physics_comp_2":1.6850146167257662e-08,"val/val_comp_2":1.6700891336540735e-08,"gradients/layers.1.weight":{"_type":"histogram","values":[2,2,0,1,3,1,0,1,1,1,1,3,7,2,3,12,7,7,8,18,16,32,55,71,60,76,107,100,130,166,205,203,232,286,340,314,266,243,202,166,128,112,87,87,64,62,52,35,31,13,14,14,7,5,6,7,5,1,2,5,2,3,1,3],"bins":[-6.415051029762253e-05,-6.231057341210544e-05,-6.0470629250630736e-05,-5.863068872713484e-05,-5.679074820363894e-05,-5.4950807680143043e-05,-5.3110867156647146e-05,-5.127092663315125e-05,-4.943098610965535e-05,-4.759104558615945e-05,-4.5751105062663555e-05,-4.391116453916766e-05,-4.207122401567176e-05,-4.023128349217586e-05,-3.8391342968679965e-05,-3.655140244518407e-05,-3.471146192168817e-05,-3.287152139819227e-05,-3.1031580874696374e-05,-2.9191640351200476e-05,-2.735169982770458e-05,-2.551175930420868e-05,-2.3671818780712783e-05,-2.1831878257216886e-05,-1.9991937733720988e-05,-1.815199721022509e-05,-1.6312056686729193e-05,-1.4472116163233295e-05,-1.2632175639737397e-05,-1.07922351162415e-05,-8.952294592745602e-06,-7.1123540692497045e-06,-5.272409907775e-06,-3.432469384279102e-06,-1.5925288607832044e-06,2.474116627126932e-07,2.087352186208591e-06,3.9272927097044885e-06,5.767233233200386e-06,7.607173756696284e-06,9.447114280192181e-06,1.1287054803688079e-05,1.3126995327183977e-05,1.4966935850679874e-05,1.6806876374175772e-05,1.864681689767167e-05,2.0486757421167567e-05,2.2326697944663465e-05,2.4166638468159363e-05,2.600657899165526e-05,2.7846519515151158e-05,2.9686460038647056e-05,3.152640056214295e-05,3.336634108563885e-05,3.520628160913475e-05,3.7046222132630646e-05,3.8886162656126544e-05,4.072610317962244e-05,4.256604370311834e-05,4.440598422661424e-05,4.6245924750110134e-05,4.808586527360603e-05,4.992580579710193e-05,5.176574632059783e-05,5.3605686844093725e-05]},"_wandb":{"runtime":129},"val/val_comp_0":2.978873503423074e-08,"_runtime":129,"train/physics_comp_0":2.985540348277027e-08,"gradients/layers.1.bias":{"bins":[-7.71422783145681e-05,-7.448057294823229e-05,-7.181886758189648e-05,-6.915716949151829e-05,-6.649546412518248e-05,-6.383375875884667e-05,-6.117206066846848e-05,-5.8510355302132666e-05,-5.584864993579686e-05,-5.318694456946105e-05,-5.0525242841104046e-05,-4.786354111274704e-05,-4.5201835746411234e-05,-4.2540130380075425e-05,-3.987842865171842e-05,-3.721672692336142e-05,-3.455502155702561e-05,-3.18933161906898e-05,-2.92316144623328e-05,-2.6569910914986394e-05,-2.390820736763999e-05,-2.1246503820293583e-05,-1.8584800272947177e-05,-1.592309672560077e-05,-1.3261393178254366e-05,-1.059968963090796e-05,-7.937986083561555e-06,-5.276282536215149e-06,-2.614578988868743e-06,4.7124558477662504e-08,2.708828105824068e-06,5.370531653170474e-06,8.032242476474494e-06,1.06939460238209e-05,1.3355649571167305e-05,1.601735311851371e-05,1.8679056665860116e-05,2.1340760213206522e-05,2.4002463760552928e-05,2.6664167307899334e-05,2.932587085524574e-05,3.198757622158155e-05,3.464927794993855e-05,3.731097967829555e-05,3.997268504463136e-05,4.263439041096717e-05,4.529609213932417e-05,4.7957793867681175e-05,5.0619499234016985e-05,5.3281204600352794e-05,5.5942906328709796e-05,5.86046080570668e-05,6.126631342340261e-05,6.392801878973842e-05,6.658972415607423e-05,6.925142224645242e-05,7.191312761278823e-05,7.457483297912404e-05,7.723653106950223e-05,7.989823643583804e-05,8.255994180217385e-05,8.522164716850966e-05,8.788335253484547e-05,9.054505062522367e-05,9.320675599155948e-05],"_type":"histogram","values":[2,1,0,0,1,3,0,1,0,1,1,0,0,1,0,1,0,2,0,0,0,2,2,2,2,1,1,2,3,5,1,1,1,0,0,0,3,0,4,4,2,0,1,1,0,1,2,2,0,0,0,0,1,0,0,0,1,0,0,1,0,0,1,3]},"_step":7000,"gradients/out.weight":{"values":[1,0,0,0,0,0,0,0,0,0,0,0,0,1,0,0,0,0,2,0,0,2,1,1,2,2,1,5,3,1,7,11,8,7,12,4,13,15,11,14,7,5,10,2,6,12,5,5,4,1,3,1,1,0,0,2,1,0,0,0,0,1,1,1],"bins":[-0.00042395020136609674,-0.00041284755570814013,-0.00040174491005018353,-0.00039064226439222693,-0.0003795395896304399,-0.0003684369439724833,-0.0003573342983145267,-0.0003462316526565701,-0.0003351290069986135,-0.0003240263613406569,-0.0003129236865788698,-0.0003018210409209132,-0.0002907183952629566,-0.000279615749605,-0.0002685131039470434,-0.0002574104582890868,-0.0002463078126311302,-0.0002352051524212584,-0.00022410249221138656,-0.00021299984655342996,-0.00020189720089547336,-0.00019079454068560153,-0.00017969189502764493,-0.00016858924936968833,-0.0001574865891598165,-0.0001463839435018599,-0.0001352812978439033,-0.0001241786521859467,-0.00011307599197607487,-0.00010197334631811827,-9.087069338420406e-05,-7.976804772624746e-05,-6.866539479233325e-05,-5.756274549639784e-05,-4.646009620046243e-05,-3.5357443266548216e-05,-2.425479397061281e-05,-1.31521437651827e-05,-2.049493559752591e-06,9.053156645677518e-06,2.0155806851107627e-05,3.1258456147043034e-05,4.236110544297844e-05,5.3463758376892656e-05,6.456641131080687e-05,7.566905696876347e-05,8.677170990267769e-05,9.787435556063429e-05,0.0001089770084945485,0.00012007966142846271,0.00013118231436237693,0.00014228496002033353,0.00015338760567829013,0.00016449026588816196,0.00017559291154611856,0.00018669555720407516,0.00019779821741394699,0.00020890086307190359,0.0002200035087298602,0.0002311061543878168,0.00024220881459768862,0.00025331147480756044,0.00026441412046551704,0.00027551676612347364,0.00028661941178143024],"_type":"histogram"},"train/total":0.0002036724181380123,"train/data":4.069603164680302e-05,"_timestamp":1.7726818344855924e+09,"gradients/layers.0.weight":{"values":[2,1,1,1,0,1,0,0,2,3,2,1,2,4,0,3,2,5,2,1,0,2,3,4,7,0,3,2,4,2,4,2,5,4,1,3,5,1,5,2,6,3,4,2,3,1,1,0,3,2,1,2,0,1,0,1,0,1,2,0,0,1,1,1],"bins":[-0.00013581199164036661,-0.00013143228716216981,-0.00012705258268397301,-0.00012267287820577621,-0.00011829317372757941,-0.00011391346924938262,-0.00010953376477118582,-0.00010515406029298902,-0.00010077435581479222,-9.639465133659542e-05,-9.201494685839862e-05,-8.763524238020182e-05,-8.325553790200502e-05,-7.887583342380822e-05,-7.449612894561142e-05,-7.011642446741462e-05,-6.573671998921782e-05,-6.135701551102102e-05,-5.697731103282422e-05,-5.259760655462742e-05,-4.821790207643062e-05,-4.383819759823382e-05,-3.945849312003702e-05,-3.507878864184022e-05,-3.069908416364342e-05,-2.631937968544662e-05,-2.193967520724982e-05,-1.755997072905302e-05,-1.318026625085622e-05,-8.800561772659421e-06,-4.420857294462621e-06,-4.115281626582146e-08,4.338551661930978e-06,8.718256140127778e-06,1.3097960618324578e-05,1.7477665096521378e-05,2.1857369574718177e-05,2.6237074052914977e-05,3.061677853111178e-05,3.4996483009308577e-05,3.9376187487505376e-05,4.3755891965702176e-05,4.8135596443898976e-05,5.2515300922095776e-05,5.6895005400292575e-05,6.127470987848938e-05,6.565441435668617e-05,7.003411883488297e-05,7.441382331307977e-05,7.879352779127657e-05,8.317323226947337e-05,8.755293674767017e-05,9.193264122586697e-05,9.631234570406377e-05,0.00010069205018226057,0.00010507175466045737,0.00010945145913865417,0.00011383116361685097,0.00011821086809504777,0.00012259057257324457,0.00012697027705144137,0.00013134998152963817,0.00013572968600783497,0.00014010939048603177,0.00014448909496422857],"_type":"histogram"},"gradients/layers.0.bias":{"values":[1,0,0,0,0,0,0,1,0,0,0,0,1,0,1,0,3,3,2,0,0,0,0,3,3,0,3,1,3,2,1,0,3,1,3,0,1,0,0,2,1,1,3,2,1,1,1,3,1,1,3,0,0,1,1,2,2,0,0,0,1,0,0,1],"bins":[-0.00012220935605000705,-0.00011882981925737113,-0.00011545028246473521,-0.0001120707529480569,-0.00010869121615542099,-0.00010531167936278507,-0.00010193214984610677,-9.855261305347085e-05,-9.517307626083493e-05,-9.179353946819901e-05,-8.84140026755631e-05,-8.50344731588848e-05,-8.165493636624888e-05,-7.827539957361296e-05,-7.489587005693465e-05,-7.151633326429874e-05,-6.813679647166282e-05,-6.47572596790269e-05,-6.137772288639098e-05,-5.799819336971268e-05,-5.461865657707676e-05,-5.1239119784440845e-05,-4.7859586629783735e-05,-4.4480053475126624e-05,-4.1100516682490706e-05,-3.772097988985479e-05,-3.434144673519768e-05,-3.096191358054057e-05,-2.758237678790465e-05,-2.4202841814258136e-05,-2.0823306840611622e-05,-1.7443771866965108e-05,-1.4064236893318594e-05,-1.068470191967208e-05,-7.305166946025565e-06,-3.925631972379051e-06,-5.46096998732537e-07,2.833437974913977e-06,6.212972948560491e-06,9.592507922207005e-06,1.297204289585352e-05,1.6351577869500034e-05,1.9731112843146548e-05,2.3110647816793062e-05,2.6490182790439576e-05,2.986971776408609e-05,3.3249252737732604e-05,3.6628785892389715e-05,4.000832268502563e-05,4.338785947766155e-05,4.676739263231866e-05,5.014692578697577e-05,5.352646257961169e-05,5.6905999372247607e-05,6.028553252690472e-05,6.366506568156183e-05,6.704460247419775e-05,7.042413926683366e-05,7.380367605946958e-05,7.718320557614788e-05,8.05627423687838e-05,8.394227916141972e-05,8.732180867809802e-05,9.070134547073394e-05,9.408088226336986e-05],"_type":"histogram"},"train/physics":1.9225554126478528e-07,"val/val_comp_1":5.31544344539725e-07,"gradients/layers.2.bias":{"_type":"histogram","values":[1,1,0,1,1,1,0,2,1,1,0,2,1,2,2,0,2,0,0,2,2,2,0,2,0,3,0,0,2,0,4,1,0,1,2,3,0,0,1,1,1,1,1,2,2,0,2,1,0,0,2,1,2,0,1,1,0,0,1,0,0,1,0,1],"bins":[-8.715831791050732e-05,-8.458257798338309e-05,-8.200683805625886e-05,-7.943109085317701e-05,-7.685535092605278e-05,-7.427961099892855e-05,-7.17038637958467e-05,-6.912812386872247e-05,-6.655238394159824e-05,-6.3976644014474e-05,-6.140090408734977e-05,-5.8825156884267926e-05,-5.6249416957143694e-05,-5.367367703001946e-05,-5.109793346491642e-05,-4.8522189899813384e-05,-4.594644997268915e-05,-4.337071004556492e-05,-4.079496648046188e-05,-3.821922291535884e-05,-3.564348298823461e-05,-3.306774306111038e-05,-3.0491999496007338e-05,-2.7916257749893703e-05,-2.5340516003780067e-05,-2.276477425766643e-05,-2.0189032511552796e-05,-1.761329076543916e-05,-1.5037549019325525e-05,-1.2461807273211889e-05,-9.886065527098253e-06,-7.310323780984618e-06,-4.734589310828596e-06,-2.1588475647149608e-06,4.1689418139867485e-07,2.9926359275123104e-06,5.568377673625946e-06,8.144119419739582e-06,1.0719861165853217e-05,1.3295602911966853e-05,1.587134465808049e-05,1.8447086404194124e-05,2.102282815030776e-05,2.3598569896421395e-05,2.617431164253503e-05,2.8750053388648666e-05,3.13257951347623e-05,3.390153869986534e-05,3.647727862698957e-05,3.9053018554113805e-05,4.1628762119216844e-05,4.4204505684319884e-05,4.6780245611444116e-05,4.935598553856835e-05,5.193172910367139e-05,5.4507472668774426e-05,5.708321259589866e-05,5.965895252302289e-05,6.223469972610474e-05,6.481043965322897e-05,6.73861795803532e-05,6.996191950747743e-05,7.253765943460166e-05,7.511340663768351e-05,7.768914656480774e-05]},"gradients/layers.2.weight":{"_type":"histogram","values":[2,3,2,3,0,5,2,1,13,6,12,11,16,11,22,20,25,29,45,49,53,61,76,107,132,168,199,285,274,325,307,291,262,240,173,181,126,96,77,73,46,56,33,28,24,22,20,18,12,6,10,5,8,4,5,3,3,2,2,1,2,1,0,2],"bins":[-9.345778380520642e-05,-9.041191515279934e-05,-8.736605377634987e-05,-8.432018512394279e-05,-8.127432374749333e-05,-7.822845509508625e-05,-7.518259371863678e-05,-7.21367250662297e-05,-6.909086368978024e-05,-6.604499503737316e-05,-6.299912638496608e-05,-5.995326500851661e-05,-5.690739635610953e-05,-5.386153134168126e-05,-5.0815666327252984e-05,-4.776980131282471e-05,-4.472393629839644e-05,-4.1678071283968166e-05,-3.863220626953989e-05,-3.558634125511162e-05,-3.254047624068335e-05,-2.949460940726567e-05,-2.6448742573847994e-05,-2.340287755941972e-05,-2.035701254499145e-05,-1.7311147530563176e-05,-1.4265281606640201e-05,-1.1219415682717226e-05,-8.173550668288954e-06,-5.12768519911333e-06,-2.081819729937706e-06,9.640457392379176e-07,4.009903932455927e-06,7.055769401631551e-06,1.0101634870807175e-05,1.314750079473015e-05,1.6193365809158422e-05,1.9239230823586695e-05,2.228509765700437e-05,2.5330962671432644e-05,2.8376827685860917e-05,3.142269270028919e-05,3.446855771471746e-05,3.7514422729145736e-05,4.0560291381552815e-05,4.360615639598109e-05,4.665202141040936e-05,4.9697886424837634e-05,5.274375143926591e-05,5.578961645369418e-05,5.883548146812245e-05,6.188135012052953e-05,6.4927211496979e-05,6.797308014938608e-05,7.101894152583554e-05,7.406481017824262e-05,7.711067155469209e-05,8.015654020709917e-05,8.320240885950625e-05,8.624827023595572e-05,8.92941388883628e-05,9.234000026481226e-05,9.538586891721934e-05,9.84317302936688e-05,0.00010147759894607589]},"val/data_loss":17.450864791870117,"train/physics_comp_1":5.300610723679711e-07}