{"gradients/main_layers.0.bias":{"bins":[-0.000763780320994556,-0.0007440550834871829,-0.0007243298459798098,-0.0007046046084724367,-0.0006848793709650636,-0.0006651540752500296,-0.0006454288377426565,-0.0006257036002352834,-0.0006059783627279103,-0.0005862531252205372,-0.0005665278877131641,-0.000546802650205791,-0.000527077354490757,-0.0005073521169833839,-0.0004876268794760108,-0.0004679016419686377,-0.0004481764044612646,-0.0004284511669538915,-0.0004087259294465184,-0.00038900066283531487,-0.0003692754253279418,-0.0003495501878205687,-0.00032982492120936513,-0.00031009968370199203,-0.00029037444619461894,-0.00027064920868724585,-0.00025092397117987275,-0.0002311987045686692,-0.0002114734670612961,-0.000191748229553923,-0.0001720229774946347,-0.00015229772543534636,-0.00013257248792797327,-0.00011284724314464256,-9.312199836131185e-05,-7.339675357798114e-05,-5.3671508794650435e-05,-3.394626401131973e-05,-1.4221019227989018e-05,5.504225555341691e-06,2.52294703386724e-05,4.495471512200311e-05,6.467995990533382e-05,8.440520468866453e-05,0.00010413044947199523,0.00012385568697936833,0.00014358093903865665,0.00016330619109794497,0.00018303142860531807,0.00020275666611269116,0.0002224819181719795,0.0002422071702312678,0.0002619324077386409,0.000281657645246014,0.00030138291185721755,0.00032110814936459064,0.00034083338687196374,0.00036055862437933683,0.00038028386188670993,0.0004000091284979135,0.0004197343660052866,0.00043945960351265967,0.0004591848701238632,0.0004789101076312363,0.0004986353451386094],"_type":"histogram","values":[1,0,0,0,0,0,1,0,0,0,0,1,1,0,1,0,2,0,2,0,0,1,2,1,1,2,0,1,3,1,0,1,0,0,1,1,2,3,1,1,2,3,1,3,3,4,2,2,1,0,0,1,0,1,5,0,0,1,0,1,0,0,2,1]},"gradients/main_layers.1.weight":{"values":[1,1,0,0,1,1,2,1,3,4,6,8,7,7,10,14,11,21,21,25,28,53,52,69,72,88,116,161,187,228,342,495,512,344,239,170,149,119,92,101,65,51,32,35,27,27,22,14,17,6,7,7,5,4,2,3,1,4,1,1,1,1,1,1],"bins":[-0.0002512883220333606,-0.00024342646065633744,-0.00023556459927931428,-0.00022770273790229112,-0.00021984087652526796,-0.00021197900059632957,-0.0002041171392193064,-0.00019625527784228325,-0.0001883934164652601,-0.00018053155508823693,-0.00017266969371121377,-0.0001648078323341906,-0.00015694595640525222,-0.00014908409502822906,-0.0001412222336512059,-0.00013336037227418274,-0.00012549851089715958,-0.00011763664952013642,-0.00010977478814311326,-0.00010191291949013248,-9.405105811310932e-05,-8.618919673608616e-05,-7.832732808310539e-05,-7.046546670608222e-05,-6.260360532905906e-05,-5.4741743952035904e-05,-4.6879878937033936e-05,-3.901801392203197e-05,-3.115615254500881e-05,-2.3294289348996244e-05,-1.543242615298368e-05,-7.570562956971116e-06,2.912711352109909e-07,8.153134331223555e-06,1.601499752723612e-05,2.3876860723248683e-05,3.173872391926125e-05,3.960058529628441e-05,4.7462450311286375e-05,5.532431532628834e-05,6.31861767033115e-05,7.104803808033466e-05,7.890989945735782e-05,8.67717681103386e-05,9.463362948736176e-05,0.00010249549086438492,0.0001103573595173657,0.00011821922089438885,0.00012608108227141201,0.00013394294364843518,0.00014180480502545834,0.0001496666664024815,0.00015752852777950466,0.00016539040370844305,0.0001732522650854662,0.00018111412646248937,0.00018897598783951253,0.0001968378492165357,0.00020469971059355885,0.000212561571970582,0.0002204234478995204,0.00022828530927654356,0.00023614717065356672,0.00024400903203058988,0.00025187089340761304],"_type":"histogram"},"gradients/main_layers.1.bias":{"_type":"histogram","values":[1,0,0,1,0,0,1,0,0,1,2,0,0,2,0,0,4,0,0,0,3,2,3,2,1,0,1,3,0,2,2,0,3,3,1,4,2,1,1,1,2,2,0,0,3,3,1,2,0,1,0,0,0,1,0,1,0,0,0,0,0,0,0,1],"bins":[-0.000532706908416003,-0.000514908810146153,-0.0004971107700839639,-0.00047931267181411386,-0.00046151457354426384,-0.0004437165043782443,-0.0004259184352122247,-0.0004081203369423747,-0.00039032226777635515,-0.0003725241986103356,-0.00035472610034048557,-0.000336928031174466,-0.00031912996200844646,-0.00030133186373859644,-0.0002835337945725769,-0.00026573569630272686,-0.0002479376271367073,-0.00023013954341877252,-0.00021234145970083773,-0.00019454339053481817,-0.00017674530681688339,-0.0001589472230989486,-0.00014114915393292904,-0.00012335107021499425,-0.00010555298649705946,-8.775490277912468e-05,-6.99568263371475e-05,-5.2158746257191524e-05,-3.4360666177235544e-05,-1.6562586097279564e-05,1.2354939826764166e-06,1.9033574062632397e-05,3.6831595934927464e-05,5.4629676014883444e-05,7.242775609483942e-05,9.02258325368166e-05,0.00010802391625475138,0.00012582199997268617,0.00014362006913870573,0.00016141815285664052,0.0001792162365745753,0.0001970143202925101,0.00021481240401044488,0.00023261047317646444,0.000250408542342484,0.000268206640612334,0.00028600470977835357,0.0003038028080482036,0.00032160087721422315,0.0003393989463802427,0.0003571970446500927,0.0003749951138161123,0.0003927932120859623,0.00041059128125198185,0.0004283893504180014,0.00044618744868785143,0.000463985517853871,0.00048178358701989055,0.0004995816852897406,0.0005173797835595906,0.0005351778236217797,0.0005529759218916297,0.0005707740201614797,0.0005885720602236688,0.0006063701584935188]},"val/rmse_P_bh":0.01096363551914692,"val/mse_P_bh":0.00012019131099805236,"train/total":1.730429175950121e-05,"val/rmse_P_tb_b":0.020579732954502106,"val/mae_P_tb_b":0.010586261749267578,"gradients/main_layers.2.bias":{"values":[1,0,0,0,0,0,0,0,0,0,0,0,0,0,0,1,1,1,0,0,3,2,2,2,2,0,1,3,1,0,0,6,1,2,1,0,0,1,2,3,2,1,1,2,0,2,3,1,1,1,1,1,2,2,2,1,0,2,0,0,2,0,0,1],"bins":[-0.0005561502766795456,-0.000540544162504375,-0.0005249381065368652,-0.0005093319923616946,-0.0004937258781865239,-0.0004781197931151837,-0.0004625137080438435,-0.0004469076229725033,-0.0004313015379011631,-0.00041569542372599244,-0.00040008933865465224,-0.00038448325358331203,-0.0003688771394081414,-0.00035327105433680117,-0.00033766496926546097,-0.0003220588550902903,-0.0003064527700189501,-0.0002908466849476099,-0.00027524057077243924,-0.00025963448570109904,-0.00024402840062975883,-0.0002284223010065034,-0.00021281620138324797,-0.00019721011631190777,-0.00018160401668865234,-0.0001659979170653969,-0.0001503918319940567,-0.00013478573237080127,-0.00011917964002350345,-0.00010357354767620564,-8.79674480529502e-05,-7.236135570565239e-05,-5.675526335835457e-05,-4.114917101105675e-05,-2.5543075025780126e-05,-9.936980859492905e-06,5.669113306794316e-06,2.1275207473081537e-05,3.688130163936876e-05,5.248739762464538e-05,6.80934899719432e-05,8.369958231924102e-05,9.930567466653883e-05,0.00011491177428979427,0.0001305178739130497,0.0001461239589843899,0.00016173005860764533,0.00017733614367898554,0.00019294224330224097,0.0002085483429254964,0.0002241544279968366,0.00023976052762009203,0.00025536661269143224,0.0002709727268666029,0.0002865788119379431,0.0003021848970092833,0.00031779101118445396,0.00033339709625579417,0.00034900318132713437,0.0003646092663984746,0.00038021538057364523,0.00039582146564498544,0.00041142755071632564,0.0004270336648914963,0.0004426397499628365],"_type":"histogram"},"gradients/main_layers.3.weight":{"bins":[-0.0003886123886331916,-0.00037617646739818156,-0.000363740575267002,-0.00035130465403199196,-0.00033886873279698193,-0.00032643284066580236,-0.00031399691943079233,-0.0003015609981957823,-0.00028912510606460273,-0.0002766891848295927,-0.0002642532635945827,-0.0002518173714634031,-0.00023938145022839308,-0.00022694554354529828,-0.00021450963686220348,-0.00020207371562719345,-0.00018963780894409865,-0.00017720190226100385,-0.00016476598102599382,-0.00015233007434289902,-0.00013989416765980422,-0.0001274582464247942,-0.0001150223397416994,-0.0001025864330586046,-9.015051909955218e-05,-7.771460514049977e-05,-6.527869845740497e-05,-5.284278449835256e-05,-4.040687417727895e-05,-2.7970963856205344e-05,-1.5535051716142334e-05,-3.0991404855740257e-06,9.336770744994283e-06,2.177268106606789e-05,3.4208591387141496e-05,4.664450534619391e-05,5.9080415667267516e-05,7.151632598834112e-05,8.395223994739354e-05,9.638814663048834e-05,0.00010882406058954075,0.00012125997454859316,0.00013369588123168796,0.00014613178791478276,0.0001585677091497928,0.0001710036158328876,0.0001834395225159824,0.00019587544375099242,0.00020831135043408722,0.00022074725711718202,0.00023318317835219204,0.0002456190704833716,0.00025805499171838164,0.00027049091295339167,0.00028292680508457124,0.00029536272631958127,0.0003077986475545913,0.00032023453968577087,0.0003326704609207809,0.0003451063821557909,0.0003575422742869705,0.0003699781955219805,0.00038241411675699055,0.0003948500088881701,0.00040728593012318015],"_type":"histogram","values":[1,0,1,0,1,2,1,0,0,1,3,6,5,8,6,11,7,13,24,29,29,30,45,77,88,102,116,191,245,301,510,720,369,279,183,158,136,77,65,60,50,37,19,24,16,13,4,6,4,3,3,4,5,3,1,2,1,0,0,0,0,0,0,1]},"val/mae_P_bh":0.007084369659423828,"gradients/main_layers.3.bias":{"_type":"histogram","values":[1,0,0,0,0,0,0,0,0,0,0,1,1,1,1,1,1,1,3,2,0,0,2,2,2,2,0,0,1,1,3,1,4,4,0,1,1,3,3,0,1,1,1,3,1,5,1,0,0,1,1,1,0,2,0,0,0,1,0,0,0,0,1,1],"bins":[-0.000509594043251127,-0.0004939910722896457,-0.0004783880722243339,-0.0004627850721590221,-0.00044718210119754076,-0.00043157910113222897,-0.0004159761010669172,-0.00040037313010543585,-0.00038477013004012406,-0.00036916712997481227,-0.00035356415901333094,-0.00033796115894801915,-0.00032235815888270736,-0.000306755187921226,-0.00029115218785591424,-0.0002755492168944329,-0.0002599462168291211,-0.0002443432167638093,-0.000228740245802328,-0.0002131372457370162,-0.00019753426022361964,-0.00018193127471022308,-0.0001663282746449113,-0.00015072528913151473,-0.00013512230361811817,-0.0001195193181047216,-0.00010391632531536743,-8.831333252601326e-05,-7.27103470126167e-05,-5.7107357861241326e-05,-4.150436870986596e-05,-2.590137955849059e-05,-1.0298390407115221e-05,5.304598744260147e-06,2.0907587895635515e-05,3.6510577047010884e-05,5.211356619838625e-05,6.771655171178281e-05,8.331954450113699e-05,9.892253729049116e-05,0.00011452552280388772,0.00013012850831728429,0.00014573149383068085,0.00016133449389599264,0.0001769374794093892,0.00019254046492278576,0.00020814346498809755,0.0002237464505014941,0.00023934943601489067,0.00025495243608020246,0.0002705554070416838,0.0002861584071069956,0.0003017613780684769,0.0003173643781337887,0.0003329673781991005,0.00034857034916058183,0.0003641733492258936,0.0003797763492912054,0.00039537932025268674,0.00041098232031799853,0.0004265853203833103,0.00044218829134479165,0.00045779129141010344,0.0004733942623715848,0.0004889972624368966]},"_wandb":{"runtime":485},"gradients/output_layer.bias":{"values":[1,0,0,0,0,0,0,0,0,0,0,0,0,0,0,0,0,0,0,0,0,0,0,0,1,0,0,0,0,0,0,0,0,0,0,0,0,0,0,0,0,0,0,0,0,0,0,0,0,0,0,0,0,0,0,0,0,0,0,0,0,0,0,2],"bins":[-0.0010738782584667206,-0.0010563614778220654,-0.0010388446971774101,-0.0010213280329480767,-0.0010038112523034215,-0.0009862944716587663,-0.000968777691014111,-0.0009512609685771167,-0.0009337441879324615,-0.0009162274072878063,-0.000898710684850812,-0.0008811939042061567,-0.0008636771235615015,-0.0008461604011245072,-0.000828643620479852,-0.0008111268980428576,-0.0007936101173982024,-0.0007760933367535472,-0.0007585766143165529,-0.0007410598336718976,-0.0007235431112349033,-0.0007060263305902481,-0.0006885095499455929,-0.0006709928275085986,-0.0006534760468639433,-0.0006359592662192881,-0.0006184425437822938,-0.0006009257631376386,-0.0005834089824929833,-0.000565892260055989,-0.0005483754794113338,-0.0005308587569743395,-0.0005133419181220233,-0.0004958251374773681,-0.0004783084150403738,-0.0004607916343957186,-0.0004432748828548938,-0.00042575813131406903,-0.0004082413506694138,-0.00039072459912858903,-0.00037320784758776426,-0.0003556910960469395,-0.0003381743445061147,-0.0003206575638614595,-0.0003031408123206347,-0.00028562406077980995,-0.0002681072801351547,-0.00025059052859432995,-0.00023307377705350518,-0.0002155570255126804,-0.0001980402594199404,-0.0001805234933272004,-0.00016300674178637564,-0.00014548999024555087,-0.00012797322415281087,-0.00011045646533602849,-9.29397065192461e-05,-7.542294770246372e-05,-5.790618888568133e-05,-4.0389430068898946e-05,-2.287267125211656e-05,-5.355912435334176e-06,1.216084638144821e-05,2.9677605198230594e-05,4.719436401501298e-05],"_type":"histogram"},"gradients/main_layers.2.weight":{"values":[1,0,0,0,0,0,0,0,1,0,0,0,0,0,2,0,1,3,2,12,5,13,10,13,28,19,32,37,53,75,118,133,236,338,463,753,518,377,252,167,110,72,59,51,40,18,20,15,14,4,6,4,4,2,4,2,1,3,2,0,1,1,0,1],"bins":[-0.00044806464575231075,-0.00043548602843657136,-0.0004229074402246624,-0.00041032882290892303,-0.00039775020559318364,-0.00038517158827744424,-0.0003725930000655353,-0.0003600143827497959,-0.0003474357654340565,-0.0003348571772221476,-0.0003222785599064082,-0.0003096999425906688,-0.0002971213252749294,-0.00028454273706302047,-0.0002719641197472811,-0.0002593855024315417,-0.0002468068851158023,-0.00023422829690389335,-0.00022164967958815396,-0.0002090710768243298,-0.0001964924595085904,-0.00018391385674476624,-0.00017133523942902684,-0.00015875663666520268,-0.0001461780339013785,-0.00013359941658563912,-0.00012102080654585734,-0.00010844219650607556,-9.58635937422514e-05,-8.328498370246962e-05,-7.070637366268784e-05,-5.812776362290606e-05,-4.554915358312428e-05,-3.29705435433425e-05,-2.0391935322550125e-05,-7.813326192263048e-06,4.765282938024029e-06,1.7343892977805808e-05,2.9922501198598184e-05,4.250110941939056e-05,5.507971945917234e-05,6.765832949895412e-05,8.02369395387359e-05,9.281554957851768e-05,0.00010539415234234184,0.00011797276238212362,0.0001305513724219054,0.0001431299897376448,0.00015570859250146896,0.00016828719526529312,0.00018086581258103251,0.00019344441534485668,0.00020602303266059607,0.00021860163542442024,0.00023118025274015963,0.0002437588555039838,0.00025633745826780796,0.00026891607558354735,0.00028149469289928675,0.0002940732811111957,0.0003066518984269351,0.00031923051574267447,0.00033180913305841386,0.0003443877212703228,0.0003569663385860622],"_type":"histogram"},"val/mse_P_tb_b":0.00042351539013907313,"gradients/main_layers.0.weight":{"_type":"histogram","values":[1,0,0,0,0,1,0,2,0,1,1,3,3,3,4,3,5,4,2,3,4,5,3,4,9,12,15,15,20,18,17,23,19,20,20,8,8,5,4,3,3,4,8,7,1,4,3,3,1,5,2,1,3,1,2,0,1,0,1,0,0,1,0,1],"bins":[-0.0004772556130774319,-0.00046193081652745605,-0.00044660604908131063,-0.0004312812816351652,-0.00041595648508518934,-0.00040063168853521347,-0.00038530692108906806,-0.00036998215364292264,-0.00035465735709294677,-0.0003393325605429709,-0.0003240077930968255,-0.00030868302565068007,-0.0002933582291007042,-0.0002780334325507283,-0.0002627086651045829,-0.0002473838976584375,-0.00023205910110846162,-0.00021673431911040097,-0.00020140953711234033,-0.0001860847551142797,-0.00017075997311621904,-0.0001554351911181584,-0.00014011040912009776,-0.0001247856271220371,-0.00010946084512397647,-9.413606312591583e-05,-7.881128112785518e-05,-6.348649912979454e-05,-4.8161717131733894e-05,-3.283693513367325e-05,-1.7512153135612607e-05,-2.1873711375519633e-06,1.313741086050868e-05,2.8462192858569324e-05,4.378697485662997e-05,5.911175685469061e-05,7.443653885275126e-05,8.97613208508119e-05,0.00010508610284887254,0.00012041088484693319,0.00013573566684499383,0.00015106044884305447,0.00016638523084111512,0.00018171001283917576,0.0001970347948372364,0.00021235957683529705,0.0002276843588333577,0.00024300914083141834,0.000258333922829479,0.00027365871937945485,0.00028898348682560027,0.0003043082542717457,0.00031963305082172155,0.0003349578473716974,0.00035028261481784284,0.00036560738226398826,0.00038093217881396413,0.00039625697536394,0.0004115817428100854,0.00042690651025623083,0.0004422313068062067,0.0004575561033561826,0.000472880870802328,0.0004882056382484734,0.0005035304347984493]},"_runtime":485,"_step":20000,"gradients/output_layer.weight":{"_type":"histogram","values":[1,0,0,0,0,0,0,0,0,1,1,0,0,2,1,2,0,2,0,0,1,1,4,3,3,1,4,2,3,7,4,5,4,34,70,26,18,6,6,4,6,4,3,4,2,5,2,1,3,3,2,1,0,0,0,0,1,1,0,0,1,0,0,1],"bins":[-0.001005912316031754,-0.0009768265299499035,-0.000947740743868053,-0.0009186549577862024,-0.0008895691717043519,-0.0008604833856225014,-0.0008313975995406508,-0.0008023118134588003,-0.0007732260273769498,-0.0007441401830874383,-0.0007150543970055878,-0.0006859686109237373,-0.0006568828248418868,-0.0006277970387600362,-0.0005987112526781857,-0.0005696254665963352,-0.0005405396805144846,-0.0005114538944326341,-0.0004823681083507836,-0.00045328232226893306,-0.00042419653618708253,-0.00039511072100140154,-0.000366024934919551,-0.0003369391488377005,-0.00030785336275584996,-0.00027876757667399943,-0.0002496817905921489,-0.00022059598995838314,-0.00019151020387653261,-0.00016242441779468209,-0.00013333861716091633,-0.0001042528310790658,-7.516704499721527e-05,-4.6081255277385935e-05,-1.69954655575566e-05,1.2090324162272736e-05,4.117611388210207e-05,7.02618999639526e-05,9.934769332176074e-05,0.0001284334866795689,0.00015751927276141942,0.00018660505884326994,0.00021569084492512047,0.000244776631006971,0.000273862446192652,0.0003029482322745025,0.00033203401835635304,0.0003611198044382036,0.0003902055905200541,0.00041929137660190463,0.00044837716268375516,0.0004774629487656057,0.0005065487348474562,0.0005356345209293067,0.0005647203070111573,0.0005938060930930078,0.0006228919373825192,0.0006519777234643698,0.0006810635095462203,0.0007101492956280708,0.0007392350817099214,0.0007683208677917719,0.0007974066538736224,0.000826492439955473,0.0008555782260373235]},"_timestamp":1.7765619897638557e+09,"val/total":0.00022069242550060153}