{"train/physics_comp_1":1.5922065585982637e-06,"train/physics":5.509210154741595e-07,"_step":7000,"train/physics_comp_0":2.7158291615592134e-08,"_runtime":109,"train/data":1.8398240797523613e-07,"gradients/layers.0.weight":{"_type":"histogram","values":[2,1,0,1,2,1,0,1,3,1,0,1,2,6,3,2,4,6,2,5,4,2,1,3,5,0,4,3,1,2,3,2,2,2,5,2,3,4,1,7,4,2,4,2,4,1,1,2,3,0,1,1,1,0,0,0,0,0,0,1,0,0,0,2],"bins":[-0.00042725828825496137,-0.0004118451615795493,-0.00039643203490413725,-0.0003810189082287252,-0.00036560578155331314,-0.0003501926548779011,-0.000334779528202489,-0.00031936640152707696,-0.0003039532748516649,-0.00028854014817625284,-0.0002731270215008408,-0.0002577138948254287,-0.00024230076815001667,-0.0002268876414746046,-0.00021147451479919255,-0.0001960613881237805,-0.00018064826144836843,-0.00016523513477295637,-0.0001498220080975443,-0.00013440888142213225,-0.0001189957547467202,-0.00010358262807130814,-8.816950139589608e-05,-7.275637472048402e-05,-5.734324804507196e-05,-4.19301213696599e-05,-2.6516994694247842e-05,-1.1103868018835783e-05,4.309258656576276e-06,1.9722385331988335e-05,3.5135512007400393e-05,5.054863868281245e-05,6.596179446205497e-05,8.137492113746703e-05,9.678804781287909e-05,0.00011220117448829114,0.0001276143011637032,0.00014302742783911526,0.00015844055451452732,0.00017385368118993938,0.00018926680786535144,0.0002046799345407635,0.00022009306121617556,0.00023550618789158762,0.0002509193145669997,0.00026633244124241173,0.0002817455679178238,0.00029715869459323585,0.0003125718212686479,0.00032798494794405997,0.000343398074619472,0.0003588112012948841,0.00037422432797029614,0.0003896374546457082,0.00040505058132112026,0.0004204637079965323,0.0004358768346719444,0.00045128996134735644,0.0004667030880227685,0.00048211621469818056,0.0004975293413735926,0.0005129424389451742,0.0005283555947244167,0.0005437687505036592,0.0005591818480752409]},"train/total":0.0001845333317760378,"_timestamp":1.7765242086364248e+09,"val/total":1.3771158456802368,"gradients/out.weight":{"_type":"histogram","values":[2,0,1,1,0,3,7,4,8,2,1,4,5,1,2,3,3,0,4,5,1,1,2,3,4,3,2,6,1,0,4,4,3,1,2,3,4,3,3,4,4,3,6,8,7,7,5,3,3,3,0,4,3,5,9,3,2,4,1,1,0,0,0,1],"bins":[-0.0010177495423704386,-0.0009865857427939773,-0.0009554220014251769,-0.0009242582018487155,-0.0008930944604799151,-0.0008619306609034538,-0.0008307668613269925,-0.0007996031199581921,-0.0007684393203817308,-0.0007372755208052695,-0.0007061117794364691,-0.0006749479798600078,-0.0006437841802835464,-0.000612620438914746,-0.0005814566393382847,-0.0005502928979694843,-0.000519129098393023,-0.00048796532792039216,-0.0004568015574477613,-0.0004256377578713,-0.0003944739873986691,-0.00036331021692603827,-0.00033214641734957695,-0.0003009826468769461,-0.00026981887640431523,-0.00023865510593168437,-0.0002074913209071383,-0.0001763275358825922,-0.00014516376540996134,-0.00011399998766137287,-8.28362099127844e-05,-5.1672432164195925e-05,-2.050877083092928e-05,1.0655006917659193e-05,4.1818784666247666e-05,7.298256241483614e-05,0.00010414634016342461,0.00013531011063605547,0.00016647389566060156,0.00019763768068514764,0.0002288014511577785,0.00025996522163040936,0.0002911289921030402,0.00032229279167950153,0.0003534565621521324,0.00038462033262476325,0.00041578413220122457,0.0004469479026738554,0.0004781116731464863,0.0005092754727229476,0.000540439214091748,0.0005716030136682093,0.0006027667550370097,0.000633930554613471,0.0006650943541899323,0.0006962580955587327,0.0007274218951351941,0.0007585856947116554,0.0007897494360804558,0.0008209132356569171,0.0008520770352333784,0.0008832407766021788,0.0009144045761786401,0.0009455683175474405,0.0009767321171239018]},"gradients/out.bias":{"_type":"histogram","values":[1,0,0,0,0,0,0,1,0,0,0,0,0,0,0,0,0,0,0,0,0,0,0,0,0,0,0,0,0,0,0,0,0,0,0,0,0,0,0,0,0,0,0,0,0,0,0,0,0,0,0,0,0,0,0,0,0,0,0,0,0,0,0,1],"bins":[-0.000653936411254108,-0.0006311775068752468,-0.0006084186607040465,-0.0005856597563251853,-0.000562900910153985,-0.0005401420057751238,-0.0005173831596039236,-0.0004946242552250624,-0.0004718654090538621,-0.0004491065046750009,-0.0004263476293999702,-0.00040358875412493944,-0.0003808298788499087,-0.000358071003574878,-0.00033531212829984725,-0.0003125532530248165,-0.0002897943777497858,-0.00026703550247475505,-0.0002442766271997243,-0.00022151775192469358,-0.00019875887664966285,-0.0001759999868227169,-0.00015324111154768616,-0.00013048223627265543,-0.0001077233609976247,-8.496448572259396e-05,-6.220561044756323e-05,-3.9446727896574885e-05,-1.6687852621544152e-05,6.071024472475983e-06,2.882990156649612e-05,5.158878047950566e-05,7.434765575453639e-05,9.710653102956712e-05,0.00011986540630459785,0.0001426242815796286,0.00016538315685465932,0.00018814204668160528,0.000210900921956636,0.00023365979723166674,0.00025641865795478225,0.00027917756233364344,0.00030193643760867417,0.0003246953128837049,0.00034745418815873563,0.00037021306343376637,0.0003929719387087971,0.00041573081398382783,0.00043848968925885856,0.0004612485645338893,0.00048400743980892,0.0005067663150839508,0.000529525219462812,0.0005522840656340122,0.0005750429700128734,0.0005978018161840737,0.0006205607205629349,0.0006433195667341352,0.0006660784711129963,0.0006888373172841966,0.0007115962216630578,0.0007343550678342581,0.0007571139722131193,0.0007798728183843195,0.0008026317227631807]},"_wandb":{"runtime":109},"gradients/layers.0.bias":{"_type":"histogram","values":[1,1,0,0,0,1,0,1,0,1,2,1,1,0,0,0,0,1,0,2,1,3,0,0,1,2,0,0,1,1,1,0,2,2,3,0,1,0,4,1,1,0,1,3,1,1,1,3,2,3,0,1,0,4,0,2,0,0,2,0,1,1,0,2],"bins":[-0.000449667451903224,-0.00043761226697824895,-0.0004255570820532739,-0.0004135018971282989,-0.00040144671220332384,-0.0003893915272783488,-0.00037733634235337377,-0.00036528115742839873,-0.0003532259725034237,-0.0003411707584746182,-0.00032911557354964316,-0.0003170603886246681,-0.0003050052036996931,-0.00029295001877471805,-0.000280894833849743,-0.00026883964892476797,-0.00025678446399979293,-0.0002447292790748179,-0.00023267409414984286,-0.00022061890922486782,-0.00020856372429989278,-0.00019650852482300252,-0.00018445333989802748,-0.00017239815497305244,-0.0001603429700480774,-0.00014828778512310237,-0.00013623260019812733,-0.0001241774152731523,-0.00011212222307221964,-0.0001000670381472446,-8.801184594631195e-05,-7.595666102133691e-05,-6.390150520019233e-05,-5.1846320275217295e-05,-3.979113171226345e-05,-2.773594496829901e-05,-1.5680758224334568e-05,-3.6255714803701267e-06,8.429615263594314e-06,2.0484802007558756e-05,3.25399887515232e-05,4.4595173676498234e-05,5.665036223945208e-05,6.870555080240592e-05,8.076073572738096e-05,9.2815920652356e-05,0.00010487111285328865,0.00011692629777826369,0.00012898148270323873,0.00014103666762821376,0.0001530918525531888,0.00016514703747816384,0.00017720222240313888,0.00018925742188002914,0.00020131260680500418,0.00021336779172997922,0.00022542297665495425,0.0002374781615799293,0.00024953336105681956,0.0002615885459817946,0.00027364373090676963,0.00028569891583174467,0.0002977541007567197,0.00030980928568169475,0.0003218644706066698]},"gradients/layers.1.bias":{"values":[1,0,0,0,0,0,0,0,0,0,0,0,2,1,0,0,0,0,0,0,0,2,0,1,1,4,3,0,0,3,1,3,2,1,1,2,4,2,0,1,0,2,2,2,1,3,2,1,1,2,2,3,1,3,0,0,0,0,0,1,1,0,0,2],"bins":[-0.0002882701519411057,-0.00028058604220859706,-0.0002729019324760884,-0.00026521782274357975,-0.0002575337130110711,-0.0002498496032785624,-0.000242165508097969,-0.00023448139836546034,-0.00022679728863295168,-0.00021911317890044302,-0.00021142906916793436,-0.0002037449594354257,-0.00019606086425483227,-0.0001883767545223236,-0.00018069264478981495,-0.0001730085350573063,-0.00016532442532479763,-0.00015764031559228897,-0.0001499562058597803,-0.00014227209612727165,-0.000134587986394763,-0.00012690389121416956,-0.0001192197814816609,-0.00011153567174915224,-0.00010385156201664358,-9.616745228413492e-05,-8.848334255162627e-05,-8.079924009507522e-05,-7.311513036256656e-05,-6.54310206300579e-05,-5.774691453552805e-05,-5.0062808440998197e-05,-4.237868415657431e-05,-3.469457442406565e-05,-2.7010468329535797e-05,-1.932636041601654e-05,-1.1642252502497286e-05,-3.95814458897803e-06,3.725963324541226e-06,1.1410071238060482e-05,1.9094179151579738e-05,2.6778287065098993e-05,3.446239497861825e-05,4.21465010731481e-05,4.983061080565676e-05,5.751472053816542e-05,6.519882299471647e-05,7.288293272722512e-05,8.056704245973378e-05,8.825115219224244e-05,9.59352619247511e-05,0.00010361936438130215,0.00011130347411381081,0.00011898758384631947,0.0001266716863028705,0.00013435579603537917,0.00014203990576788783,0.0001497240155003965,0.00015740812523290515,0.0001650922349654138,0.00017277634469792247,0.0001804604398785159,0.00018814454961102456,0.00019582865934353322,0.00020351276907604188],"_type":"histogram"},"gradients/layers.2.bias":{"_type":"histogram","values":[1,0,0,0,0,0,0,0,0,0,1,0,0,0,1,0,0,1,0,0,0,0,1,0,0,1,2,2,4,1,5,4,2,1,5,2,2,7,2,1,1,3,2,2,1,2,1,0,0,0,1,0,1,0,0,0,1,0,2,0,0,0,0,1],"bins":[-0.00034568089176900685,-0.0003357520909048617,-0.000325823319144547,-0.0003158945182804018,-0.00030596571741625667,-0.0002960369165521115,-0.00028610811568796635,-0.00027617934392765164,-0.0002662505430635065,-0.0002563217421993613,-0.0002463929704390466,-0.00023646416957490146,-0.0002265353687107563,-0.00021660656784661114,-0.0002066777815343812,-0.00019674899522215128,-0.00018682019435800612,-0.00017689139349386096,-0.00016696260718163103,-0.0001570338208694011,-0.00014710502000525594,-0.00013717621914111078,-0.00012724743282888085,-0.0001173186392406933,-0.00010738984565250576,-9.746105206431821e-05,-8.753225847613066e-05,-7.760346488794312e-05,-6.767467129975557e-05,-5.774587771156803e-05,-4.781708412338048e-05,-3.788829053519294e-05,-2.7959526050835848e-05,-1.8030732462648302e-05,-8.101938874460757e-06,1.8268547137267888e-06,1.1755648301914334e-05,2.168444189010188e-05,3.1613235478289425e-05,4.154202906647697e-05,5.1470822654664516e-05,6.139961624285206e-05,7.132840983103961e-05,8.125720341922715e-05,9.11859970074147e-05,0.00010111479059560224,0.00011104358418378979,0.00012097237777197734,0.00013090117136016488,0.00014082997222431004,0.00015075875853653997,0.0001606875448487699,0.00017061634571291506,0.00018054514657706022,0.00019047393288929015,0.00020040271920152009,0.00021033152006566525,0.0002202603209298104,0.00023018910724204034,0.00024011789355427027,0.00025004669441841543,0.0002599754952825606,0.0002699042670428753,0.00027983306790702045,0.0002897618687711656]},"gradients/layers.1.weight":{"values":[2,0,0,0,1,1,3,4,2,5,1,5,8,8,16,13,20,16,28,24,39,48,64,70,104,153,202,224,311,358,357,341,353,279,236,172,148,92,83,68,53,36,27,21,22,10,13,8,10,9,3,5,11,4,1,1,0,1,0,0,0,1,0,1],"bins":[-0.00017340088379569352,-0.00016779382713139057,-0.0001621867559151724,-0.00015657969925086945,-0.0001509726425865665,-0.00014536558592226356,-0.0001397585147060454,-0.00013415145804174244,-0.0001285444013774395,-0.00012293733016122133,-0.00011733027349691838,-0.00011172321683261544,-0.00010611615289235488,-0.00010050909622805193,-9.490203228779137e-05,-8.929497562348843e-05,-8.368791168322787e-05,-7.808084774296731e-05,-7.247379107866436e-05,-6.68667271384038e-05,-6.125967047410086e-05,-5.56526065338403e-05,-5.0045546231558546e-05,-4.4438485929276794e-05,-3.883142562699504e-05,-3.322436532471329e-05,-2.7617305022431538e-05,-2.2010242901160382e-05,-1.640318259887863e-05,-1.0796122296596877e-05,-5.189061084820423e-06,4.1799967220867984e-07,6.025060429237783e-06,1.1632120731519535e-05,1.7239181033801287e-05,2.2846243155072443e-05,2.8453303457354195e-05,3.406036557862535e-05,3.9667425880907103e-05,4.5274486183188856e-05,5.088154648547061e-05,5.648860678775236e-05,6.209567072801292e-05,6.770272739231586e-05,7.330979133257642e-05,7.891684799687937e-05,8.452391193713993e-05,9.013096860144287e-05,9.573803254170343e-05,0.00010134509648196399,0.00010695215314626694,0.0001125592170865275,0.00011816627375083044,0.000123773337691091,0.00012938039435539395,0.0001349874510196969,0.00014059452223591506,0.000146201578900218,0.00015180863556452096,0.00015741570678073913,0.00016302276344504207,0.00016862982010934502,0.00017423687677364796,0.00017984394798986614,0.00018545100465416908],"_type":"histogram"},"gradients/layers.2.weight":{"bins":[-0.0003301413089502603,-0.00031986908288672566,-0.0003095968859270215,-0.0002993246598634869,-0.0002890524629037827,-0.0002787802368402481,-0.00026850803988054395,-0.00025823581381700933,-0.0002479635877534747,-0.00023769139079377055,-0.00022741917928215116,-0.00021714696777053177,-0.00020687474170699716,-0.00019660253019537777,-0.00018633031868375838,-0.000176058107172139,-0.0001657858956605196,-0.0001555136841489002,-0.00014524147263728082,-0.00013496926112566143,-0.00012469704961404204,-0.00011442483082646504,-0.00010415261203888804,-9.388040052726865e-05,-8.360818901564926e-05,-7.333597750402987e-05,-6.306376599241048e-05,-5.279154720483348e-05,-4.251933569321409e-05,-3.22471241815947e-05,-2.1974909031996503e-05,-1.1702695701387711e-05,-1.4304532669484615e-06,8.841760063660331e-06,1.9113973394269124e-05,2.9386186724877916e-05,3.965840005548671e-05,4.99306115671061e-05,6.0202826716704294e-05,7.047504186630249e-05,8.074725337792188e-05,9.101946488954127e-05,0.00010129167640116066,0.00011156389518873766,0.00012183610670035705,0.00013210832548793405,0.00014238053699955344,0.00015265274851117283,0.00016292496002279222,0.0001731971715344116,0.000183469383046031,0.0001937415945576504,0.00020401380606926978,0.0002142860321328044,0.00022455824364442378,0.00023483045515604317,0.0002451026812195778,0.00025537487817928195,0.00026564710424281657,0.00027591930120252073,0.00028619152726605535,0.0002964637242257595,0.0003067359502892941,0.0003170081472489983,0.0003272803733125329],"_type":"histogram","values":[1,0,2,2,3,7,6,5,6,8,8,9,12,13,18,21,24,19,19,26,61,41,37,59,73,107,138,161,163,239,299,405,452,306,258,188,148,126,107,77,56,48,48,50,37,29,28,24,20,17,16,12,10,9,3,5,6,5,9,4,1,1,1,3]},"train/physics_comp_2":3.339819798497956e-08}