{"gradients/encoder_2.bias":{"values":[2,0,0,0,0,0,0,1,0,1,1,0,1,0,1,1,1,1,1,2,2,3,2,2,2,0,0,2,0,3,1,2,2,2,1,0,0,2,1,1,0,0,2,2,2,1,3,2,0,2,2,0,0,0,2,2,1,1,0,0,0,0,0,1],"bins":[-2.0020692348480225,-1.9405781030654907,-1.8790870904922485,-1.8175959587097168,-1.756104826927185,-1.6946138143539429,-1.6331226825714111,-1.5716315507888794,-1.5101405382156372,-1.4486494064331055,-1.3871582746505737,-1.3256672620773315,-1.2641761302947998,-1.202684998512268,-1.1411939859390259,-1.0797028541564941,-1.018211841583252,-0.9567207098007202,-0.8952295780181885,-0.8337385058403015,-0.7722474336624146,-0.7107563018798828,-0.6492652297019958,-0.5877741575241089,-0.5262830257415771,-0.4647919535636902,-0.4033008813858032,-0.34180977940559387,-0.2803186774253845,-0.21882760524749756,-0.1573365032672882,-0.09584541618824005,-0.034354329109191895,0.02713676169514656,0.08862785249948502,0.15011894702911377,0.21161003410816193,0.2731011211872101,0.33459222316741943,0.3960832953453064,0.45757439732551575,0.5190654993057251,0.5805565714836121,0.642047643661499,0.7035387754440308,0.7650298476219177,0.8265209197998047,0.8880120515823364,0.9495031237602234,1.0109941959381104,1.072485327720642,1.1339763402938843,1.195467472076416,1.2569586038589478,1.31844961643219,1.3799407482147217,1.4414318799972534,1.5029228925704956,1.5644140243530273,1.625905156135559,1.6873961687088013,1.748887300491333,1.8103784322738647,1.871869444847107,1.9333605766296387],"_type":"histogram"},"_step":7000,"gradients/layers.0.bias":{"bins":[-0.021670034155249596,-0.021143034100532532,-0.020616035908460617,-0.020089035853743553,-0.01956203579902649,-0.019035037606954575,-0.01850803755223751,-0.017981037497520447,-0.017454039305448532,-0.016927039250731468,-0.016400039196014404,-0.01587303914129734,-0.015346040949225426,-0.014819040894508362,-0.014292041771113873,-0.013765041716396809,-0.01323804259300232,-0.01271104346960783,-0.012184043414890766,-0.011657044291496277,-0.011130044236779213,-0.010603045113384724,-0.010076045989990234,-0.00954904593527317,-0.009022046811878681,-0.008495047688484192,-0.007968047633767128,-0.007441048510372639,-0.006914048921316862,-0.0063870493322610855,-0.005860050208866596,-0.00533305061981082,-0.004806051962077618,-0.004279052373021841,-0.003752053016796708,-0.003225053660571575,-0.0026980540715157986,-0.002171054482460022,-0.001644055126234889,-0.0011170556535944343,-0.0005900561809539795,-6.305670831352472e-05,0.00046394276432693005,0.0009909422369673848,0.0015179417096078396,0.002044941298663616,0.002571940654888749,0.003098940011113882,0.0036259396001696587,0.004152939189225435,0.004679938778281212,0.005206937901675701,0.005733937490731478,0.006260937079787254,0.006787936203181744,0.00731493579223752,0.007841935381293297,0.008368934504687786,0.00889593455940485,0.00942293368279934,0.009949933737516403,0.010476932860910892,0.011003931984305382,0.011530932039022446,0.012057931162416935],"_type":"histogram","values":[1,0,0,0,0,0,0,0,0,0,0,0,0,0,0,0,0,0,1,1,0,0,0,0,2,2,0,1,0,3,1,0,2,0,1,2,0,2,3,4,4,2,2,3,1,4,1,2,2,2,3,1,1,1,0,2,0,1,2,0,2,0,1,1]},"train/physics_comp_1":1.347459419775987e-05,"train/physics_comp_0":1.0508548342613722e-07,"gradients/out.bias":{"values":[1,0,0,0,0,0,0,0,0,0,0,0,0,0,0,0,0,0,0,0,0,0,0,0,0,0,0,0,0,0,0,0,0,0,0,1,0,0,0,0,0,0,0,0,0,0,0,0,0,0,0,0,0,0,0,0,0,0,0,0,0,0,0,1],"bins":[2.52069354057312,2.544133424758911,2.567573308944702,2.591013193130493,2.614453077316284,2.637892961502075,2.661332845687866,2.6847727298736572,2.7082126140594482,2.7316524982452393,2.7550923824310303,2.778532028198242,2.801971912384033,2.825411796569824,2.8488516807556152,2.8722915649414062,2.8957314491271973,2.9191713333129883,2.9426112174987793,2.9660511016845703,2.9894909858703613,3.0129308700561523,3.0363707542419434,3.0598106384277344,3.0832505226135254,3.1066904067993164,3.1301302909851074,3.1535701751708984,3.1770100593566895,3.2004499435424805,3.2238898277282715,3.2473297119140625,3.2707695960998535,3.2942092418670654,3.3176491260528564,3.3410890102386475,3.3645288944244385,3.3879687786102295,3.4114086627960205,3.4348485469818115,3.4582884311676025,3.4817283153533936,3.5051681995391846,3.5286080837249756,3.5520479679107666,3.5754878520965576,3.5989277362823486,3.6223676204681396,3.6458075046539307,3.6692473888397217,3.6926872730255127,3.7161271572113037,3.7395670413970947,3.7630069255828857,3.7864465713500977,3.8098864555358887,3.8333263397216797,3.8567662239074707,3.8802061080932617,3.9036459922790527,3.9270858764648438,3.9505257606506348,3.973965644836426,3.997405529022217,4.020845413208008],"_type":"histogram"},"gradients/layers.1.bias":{"_type":"histogram","values":[1,0,0,0,0,0,1,0,0,0,2,0,1,0,0,1,5,1,5,0,1,1,1,1,3,3,2,2,5,3,1,0,1,3,1,1,1,2,3,0,3,0,1,0,1,0,2,0,0,1,0,1,0,0,0,1,0,0,1,0,0,0,0,1],"bins":[-0.038332197815179825,-0.03699653968214989,-0.03566088154911995,-0.03432522714138031,-0.03298956900835037,-0.031653910875320435,-0.030318252742290497,-0.02898259647190571,-0.02764693833887577,-0.026311280205845833,-0.024975623935461044,-0.023639965802431107,-0.02230430766940117,-0.02096865139901638,-0.019632993265986443,-0.018297336995601654,-0.016961678862571716,-0.01562602072954178,-0.01429036445915699,-0.012954706326127052,-0.01161904912441969,-0.010283391922712326,-0.008947733789682388,-0.007612076587975025,-0.006276419386267662,-0.004940762184560299,-0.0036051045171916485,-0.0022694470826536417,-0.0009337896481156349,0.00040186778642237186,0.0017375252209603786,0.0030731826554983854,0.004408843815326691,0.005744501017034054,0.007080158684402704,0.008415816351771355,0.009751473553478718,0.011087130755186081,0.012422788888216019,0.013758446089923382,0.015094103291630745,0.016429761424660683,0.01776541769504547,0.01910107582807541,0.020436733961105347,0.021772390231490135,0.023108048364520073,0.02444370463490486,0.0257793627679348,0.027115020900964737,0.028450677171349525,0.029786335304379463,0.03112199157476425,0.03245764970779419,0.03379330784082413,0.035128965973854065,0.036464624106884,0.03780027851462364,0.03913593664765358,0.04047159478068352,0.041807252913713455,0.04314291104674339,0.04447856545448303,0.04581422358751297,0.04714988172054291]},"train/total":0.4980943500995636,"_wandb":{"runtime":99},"train/data":0.009961784817278385,"_timestamp":1.7726862307511215e+09,"gradients/out.weight":{"_type":"histogram","values":[2,0,1,0,0,3,1,2,1,2,3,3,3,3,2,4,10,5,6,4,6,5,6,1,4,9,3,3,4,5,2,7,2,7,2,6,5,8,6,1,4,5,6,4,2,3,1,4,2,2,1,2,0,1,1,0,2,0,0,1,0,1,2,1],"bins":[-0.6693776845932007,-0.6476978659629822,-0.6260180473327637,-0.6043382287025452,-0.5826584100723267,-0.5609785914421082,-0.5392987728118896,-0.5176189541816711,-0.49593913555145264,-0.4742593467235565,-0.452579528093338,-0.4308997094631195,-0.409219890832901,-0.3875400722026825,-0.365860253572464,-0.3441804349422455,-0.322500616312027,-0.30082079768180847,-0.27914097905158997,-0.25746116042137146,-0.23578134179115295,-0.21410153806209564,-0.19242171943187714,-0.17074190080165863,-0.14906208217144012,-0.12738226354122162,-0.10570244491100311,-0.0840226337313652,-0.0623428151011467,-0.04066299647092819,-0.018983181565999985,0.002696635201573372,0.02437645196914673,0.046056270599365234,0.06773608922958374,0.08941590040922165,0.11109571903944016,0.13277553021907806,0.15445534884929657,0.17613516747951508,0.19781498610973358,0.2194948047399521,0.2411746233701706,0.2628544270992279,0.2845342457294464,0.3062140643596649,0.3278938829898834,0.34957370162010193,0.37125352025032043,0.39293333888053894,0.41461315751075745,0.43629297614097595,0.45797279477119446,0.47965261340141296,0.5013324022293091,0.5230122208595276,0.5446920394897461,0.5663718581199646,0.5880516767501831,0.6097314953804016,0.6314113140106201,0.6530911326408386,0.6747709512710571,0.6964507699012756,0.7181305885314941]},"gradients/layers.2.weight":{"bins":[-0.10116450488567352,-0.09812667220830917,-0.09508884698152542,-0.09205101430416107,-0.08901318907737732,-0.08597535640001297,-0.08293753117322922,-0.07989969849586487,-0.07686187326908112,-0.07382404059171677,-0.07078620791435242,-0.06774838268756866,-0.06471055001020432,-0.061672721058130264,-0.05863489210605621,-0.05559706315398216,-0.05255923420190811,-0.04952140524983406,-0.04648357629776001,-0.04344574734568596,-0.04040791839361191,-0.03737008571624756,-0.03433225676417351,-0.03129442781209946,-0.028256598860025406,-0.025218769907951355,-0.022180940955877304,-0.019143110141158104,-0.016105281189084053,-0.013067452237010002,-0.010029622353613377,-0.006991792935878038,-0.003953970968723297,-0.0009161415509879589,0.0021216878667473793,0.0051595172844827175,0.008197346702218056,0.011235175654292107,0.014273005537688732,0.017310835421085358,0.02034866437315941,0.02338649332523346,0.02642432227730751,0.02946215309202671,0.03249998390674591,0.03553781285881996,0.03857564181089401,0.04161347076296806,0.044651299715042114,0.047689128667116165,0.050726957619190216,0.05376478657126427,0.05680261552333832,0.05984044820070267,0.06287827342748642,0.06591610610485077,0.06895393133163452,0.07199176400899887,0.07502959668636322,0.07806742191314697,0.08110525459051132,0.08414307981729507,0.08718091249465942,0.09021873772144318,0.09325657039880753],"_type":"histogram","values":[1,1,0,0,1,1,1,1,1,0,0,0,2,4,11,6,8,11,7,10,19,34,38,43,49,59,68,119,157,178,254,323,445,586,355,310,218,178,154,112,82,58,43,30,17,15,16,13,10,14,5,6,5,0,2,2,4,4,2,1,1,0,0,1]},"_runtime":99,"gradients/layers.2.bias":{"values":[1,2,1,2,0,0,1,1,1,1,1,0,1,0,3,1,0,0,1,1,1,3,3,2,3,3,2,5,3,1,1,6,1,4,0,0,2,0,0,0,0,2,0,1,0,0,1,0,1,0,0,0,0,0,0,0,0,0,0,0,0,0,0,1],"bins":[-0.2222352921962738,-0.21306706964969635,-0.2038988471031189,-0.19473062455654144,-0.185562402009964,-0.17639417946338654,-0.16722595691680908,-0.15805773437023163,-0.14888951182365417,-0.13972128927707672,-0.13055306673049927,-0.12138484418392181,-0.11221662163734436,-0.1030483990907669,-0.09388017654418945,-0.084711953997612,-0.07554373145103455,-0.06637550890445709,-0.05720728635787964,-0.048039063811302185,-0.03887084126472473,-0.029702618718147278,-0.020534396171569824,-0.01136617362499237,-0.002197951078414917,0.006970271468162537,0.01613849401473999,0.025306716561317444,0.0344749391078949,0.04364316165447235,0.052811384201049805,0.06197960674762726,0.0711478590965271,0.08031608164310455,0.089484304189682,0.09865252673625946,0.10782074928283691,0.11698897182941437,0.12615719437599182,0.13532541692256927,0.14449363946914673,0.15366186201572418,0.16283008456230164,0.1719983071088791,0.18116652965545654,0.190334752202034,0.19950297474861145,0.2086711972951889,0.21783941984176636,0.2270076423883438,0.23617586493492126,0.24534408748149872,0.25451231002807617,0.26368051767349243,0.2728487551212311,0.2820169925689697,0.291185200214386,0.30035340785980225,0.3095216453075409,0.31868988275527954,0.3278580904006958,0.33702629804611206,0.3461945354938507,0.35536277294158936,0.3645309805870056],"_type":"histogram"},"val/total":208091.25,"gradients/encoder_2.weight":{"bins":[-1.0244724750518799,-0.9958173632621765,-0.9671621918678284,-0.938507080078125,-0.9098519682884216,-0.8811967968940735,-0.8525416851043701,-0.8238865733146667,-0.7952314615249634,-0.7665762901306152,-0.7379211783409119,-0.7092660665512085,-0.6806108951568604,-0.651955783367157,-0.6233006715774536,-0.5946455001831055,-0.5659903883934021,-0.5373352766036987,-0.5086801052093506,-0.4800249934196472,-0.45136988162994385,-0.4227147400379181,-0.39405959844589233,-0.36540448665618896,-0.3367493450641632,-0.30809420347213745,-0.2794390916824341,-0.2507839500904083,-0.22212882339954376,-0.1934736967086792,-0.16481855511665344,-0.13616342842578888,-0.10750830173492432,-0.07885317504405975,-0.050198040902614594,-0.021542910486459732,0.007112219929695129,0.03576735034584999,0.06442248076200485,0.09307761490345001,0.12173274159431458,0.15038786828517914,0.1790429949760437,0.20769813656806946,0.23635326325893402,0.2650083899497986,0.29366353154182434,0.3223186433315277,0.35097378492355347,0.3796289265155792,0.4082840383052826,0.43693917989730835,0.4655942916870117,0.4942494332790375,0.5229045748710632,0.5515596866607666,0.5802148580551147,0.6088699698448181,0.6375250816345215,0.6661801934242249,0.694835364818573,0.7234904766082764,0.7521455883979797,0.7808007597923279,0.8094558715820312],"_type":"histogram","values":[1,0,0,0,0,0,0,0,0,0,0,0,1,0,1,0,1,1,2,2,1,1,4,0,1,6,5,4,5,3,5,7,3,6,2,7,5,4,5,0,4,5,4,2,3,2,4,3,2,1,4,1,1,2,1,0,1,0,3,0,0,0,0,2]},"gradients/encoder_1.bias":{"bins":[-0.21665412187576294,-0.21096278727054596,-0.20527145266532898,-0.1995801031589508,-0.19388876855373383,-0.18819743394851685,-0.18250609934329987,-0.1768147498369217,-0.1711234152317047,-0.16543208062648773,-0.15974074602127075,-0.15404941141605377,-0.1483580619096756,-0.14266672730445862,-0.13697539269924164,-0.13128405809402466,-0.12559270858764648,-0.1199013814330101,-0.11421003937721252,-0.10851870477199554,-0.10282736271619797,-0.09713602811098099,-0.09144468605518341,-0.08575335144996643,-0.08006201684474945,-0.07437067478895187,-0.0686793401837349,-0.06298799812793732,-0.05729666352272034,-0.05160532519221306,-0.04591398686170578,-0.0402226485311985,-0.03453131020069122,-0.028839971870183945,-0.023148633539676666,-0.017457297071814537,-0.011765958741307259,-0.0060746208764612675,-0.00038328301161527634,0.005308054853230715,0.010999392718076706,0.016690731048583984,0.022382069379091263,0.028073405846953392,0.03376474231481552,0.0394560806453228,0.04514741897583008,0.05083875730633736,0.056530095636844635,0.06222143396735191,0.06791277229785919,0.07360410690307617,0.07929544895887375,0.08498678356409073,0.0906781256198883,0.09636946022510529,0.10206079483032227,0.10775213688611984,0.11344347149133682,0.1191348135471344,0.12482614815235138,0.13051748275756836,0.13620883226394653,0.1419001668691635,0.1475915014743805],"_type":"histogram","values":[2,0,0,0,0,0,0,0,1,0,0,0,0,0,0,0,1,0,0,0,1,0,1,3,0,1,1,3,4,0,0,0,3,1,6,3,0,2,3,4,1,2,3,1,0,2,0,1,2,1,1,3,1,0,0,0,2,0,0,0,1,0,2,1]},"gradients/layers.0.weight":{"_type":"histogram","values":[1,1,0,1,0,0,0,0,1,1,0,0,1,1,0,1,2,2,2,1,2,3,0,2,5,3,8,6,4,9,8,8,6,5,4,6,4,3,3,2,1,1,0,3,1,2,0,1,1,3,1,0,1,0,1,1,2,0,0,0,0,0,1,2],"bins":[-0.005624393466860056,-0.005433741025626659,-0.0052430881187319756,-0.005052435677498579,-0.0048617832362651825,-0.004671130329370499,-0.004480477888137102,-0.004289825446903706,-0.004099172540009022,-0.003908520098775625,-0.0037178676575422287,-0.0035272149834781885,-0.0033365623094141483,-0.003145909868180752,-0.0029552571941167116,-0.002764604752883315,-0.002573952078819275,-0.0023832994047552347,-0.002192646963521838,-0.002001994289457798,-0.0018113417318090796,-0.0016206891741603613,-0.001430036500096321,-0.0012393839424476027,-0.0010487313847988844,-0.000858078827150166,-0.0006674262112937868,-0.00047677362454123795,-0.00028612103778868914,-9.546845103614032e-05,9.518413571640849e-05,0.0002858367224689573,0.0004764888435602188,0.0006671414012089372,0.0008577940170653164,0.0010484466329216957,0.001239099190570414,0.0014297517482191324,0.0016204044222831726,0.001811056979931891,0.0020017095375806093,0.0021923622116446495,0.002383014652878046,0.0025736673269420862,0.0027643200010061264,0.002954972442239523,0.003145625116303563,0.0033362775575369596,0.003526930231601,0.00371758290566504,0.00390823557972908,0.004098888020962477,0.004289540462195873,0.004480193369090557,0.004670845810323954,0.00486149825155735,0.005052151158452034,0.0052428035996854305,0.005433456040918827,0.005624108482152224,0.005814761389046907,0.006005413830280304,0.0061960662715137005,0.006386719178408384,0.006577371619641781]},"gradients/encoder_1.weight":{"_type":"histogram","values":[1,0,1,1,0,2,0,0,1,0,0,0,0,1,1,1,1,3,0,2,1,2,2,1,6,3,1,5,4,5,6,3,3,7,1,8,4,4,3,5,3,6,1,3,1,3,2,4,3,3,2,1,2,0,1,0,1,0,0,1,0,0,0,2],"bins":[-0.15748056769371033,-0.1528996080160141,-0.14831864833831787,-0.14373768866062164,-0.13915672898292542,-0.1345757693052292,-0.12999480962753296,-0.12541384994983673,-0.1208328902721405,-0.11625193059444427,-0.11167097091674805,-0.10709001123905182,-0.10250905156135559,-0.09792809188365936,-0.09334713220596313,-0.0887661725282669,-0.08418521285057068,-0.07960425317287445,-0.07502329349517822,-0.070442333817482,-0.06586137413978577,-0.06128041446208954,-0.05669945478439331,-0.05211849510669708,-0.047537535429000854,-0.042956575751304626,-0.0383756160736084,-0.03379465639591217,-0.029213696718215942,-0.024632737040519714,-0.020051777362823486,-0.015470817685127258,-0.010889872908592224,-0.006308913230895996,-0.001727953553199768,0.00285300612449646,0.007433965802192688,0.012014925479888916,0.016595885157585144,0.021176844835281372,0.0257578045129776,0.030338764190673828,0.034919723868370056,0.039500683546066284,0.04408164322376251,0.04866260290145874,0.05324356257915497,0.057824522256851196,0.062405481934547424,0.06698644161224365,0.07156740128993988,0.07614836096763611,0.08072932064533234,0.08531028032302856,0.08989124000072479,0.09447219967842102,0.09905315935611725,0.10363411903381348,0.1082150787115097,0.11279603838920593,0.11737699806690216,0.12195795774459839,0.12653891742229462,0.13111987709999084,0.13570083677768707]},"train/physics_comp_2":1.7254157000934356e-06,"gradients/layers.1.weight":{"bins":[-0.018928270787000656,-0.01833191141486168,-0.01773555390536785,-0.017139194533228874,-0.016542837023735046,-0.01594647765159607,-0.015350118279457092,-0.01475375983864069,-0.014157401397824287,-0.013561042957007885,-0.012964684516191483,-0.012368325144052505,-0.011771966703236103,-0.0111756082624197,-0.010579248890280724,-0.009982890449464321,-0.009386532008647919,-0.008790173567831516,-0.008193815127015114,-0.007597455754876137,-0.007001097314059734,-0.006404738873243332,-0.005808379966765642,-0.005212021060287952,-0.00461566261947155,-0.0040193041786551476,-0.003422945272177458,-0.0028265865985304117,-0.0022302279248833656,-0.0016338692512363195,-0.0010375105775892735,-0.00044115190394222736,0.00015520863234996796,0.000751567305997014,0.0013479259796440601,0.0019442846532911062,0.0025406433269381523,0.0031370020005851984,0.0037333606742322445,0.004329719580709934,0.004926078021526337,0.005522436462342739,0.006118795368820429,0.006715154275298119,0.007311512716114521,0.007907871156930923,0.0085042305290699,0.009100588969886303,0.009696947410702705,0.010293305851519108,0.01088966429233551,0.011486023664474487,0.01208238210529089,0.012678740546107292,0.01327509991824627,0.013871458359062672,0.014467816799879074,0.015064175240695477,0.01566053368151188,0.016256893053650856,0.016853250563144684,0.01744960993528366,0.018045969307422638,0.018642326816916466,0.019238686189055443],"_type":"histogram","values":[2,2,1,0,3,2,3,4,3,9,8,6,11,9,15,13,20,12,33,27,27,39,39,66,86,121,124,157,221,323,317,493,388,323,279,164,154,106,82,76,52,55,39,27,27,24,19,18,11,12,11,6,4,5,5,3,2,4,1,1,1,0,0,1]},"train/physics":5.101698206999572e-06}