{"train/physics_comp_0":4.033569567241102e-08,"gradients/layers.1.weight":{"bins":[-0.05358836054801941,-0.0516623891890049,-0.049736421555280685,-0.047810450196266174,-0.04588448256254196,-0.04395851120352745,-0.04203254356980324,-0.04010657221078873,-0.038180604577064514,-0.03625463321805,-0.03432866185903549,-0.03240269422531128,-0.030476722866296768,-0.028550753369927406,-0.026624783873558044,-0.024698814377188683,-0.02277284488081932,-0.02084687538444996,-0.018920905888080597,-0.016994936391711235,-0.015068965964019299,-0.013142996467649937,-0.011217026039958,-0.009291056543588638,-0.007365087047219276,-0.0054391175508499146,-0.0035131475888192654,-0.0015871778596192598,0.0003387918695807457,0.0022647615987807512,0.004190731327980757,0.006116701290011406,0.008042670786380768,0.00996864028275013,0.011894609779119492,0.013820580206811428,0.015746548771858215,0.017672520130872726,0.01959848962724209,0.02152445912361145,0.023450428619980812,0.025376398116350174,0.027302367612719536,0.029228337109088898,0.03115430846810341,0.03308027610182762,0.03500624746084213,0.036932215094566345,0.038858186453580856,0.04078415781259537,0.04271012544631958,0.04463609680533409,0.046562064439058304,0.048488035798072815,0.05041400343179703,0.05233997479081154,0.05426594614982605,0.05619191378355026,0.058117885142564774,0.060043852776288986,0.0619698241353035,0.06389579176902771,0.06582175940275192,0.06774773448705673,0.06967370212078094],"_type":"histogram","values":[2,0,2,0,1,0,4,1,3,4,1,4,8,13,18,21,34,35,40,55,73,95,111,149,202,297,378,593,446,293,233,187,160,107,84,82,63,44,53,47,36,26,19,13,13,6,10,6,2,2,3,5,2,1,2,3,1,0,0,0,1,0,1,1]},"gradients/encoder_1.bias":{"values":[1,1,1,1,0,0,1,0,0,2,0,3,0,1,0,0,1,1,2,3,3,0,3,3,0,3,1,0,2,2,1,1,2,0,1,2,0,3,2,0,3,2,1,2,0,1,0,2,0,3,1,0,1,0,0,0,0,0,0,0,0,0,0,1],"bins":[-0.3213611841201782,-0.307599812746048,-0.2938384413719177,-0.28007709980010986,-0.2663157284259796,-0.25255435705184937,-0.2387930005788803,-0.22503164410591125,-0.211270272731781,-0.19750890135765076,-0.1837475448846817,-0.16998618841171265,-0.1562248170375824,-0.14246344566345215,-0.1287020891904831,-0.11494072526693344,-0.10117936134338379,-0.08741799741983414,-0.07365663349628448,-0.05989526957273483,-0.04613390564918518,-0.03237254172563553,-0.018611177802085876,-0.004849813878536224,0.008911550045013428,0.02267291396856308,0.03643427789211273,0.050195641815662384,0.06395700573921204,0.07771836966276169,0.09147973358631134,0.10524109750986099,0.11900246143341064,0.1327638328075409,0.14652518928050995,0.160286545753479,0.17404791712760925,0.1878092885017395,0.20157064497470856,0.2153320014476776,0.22909337282180786,0.2428547441959381,0.25661611557006836,0.2703774571418762,0.28413882851600647,0.2979001998901367,0.3116615414619446,0.32542291283607483,0.3391842842102051,0.3529456555843353,0.3667070269584656,0.38046836853027344,0.3942297399044037,0.40799111127853394,0.4217524528503418,0.43551382422447205,0.4492751955986023,0.46303656697273254,0.4767979383468628,0.49055927991867065,0.5043206214904785,0.5180820226669312,0.531843364238739,0.5456047654151917,0.5593661069869995],"_type":"histogram"},"gradients/out.weight":{"_type":"histogram","values":[1,0,0,3,4,2,0,6,1,2,1,4,4,3,6,2,6,4,8,7,3,8,6,2,3,2,2,1,6,6,4,8,3,4,8,0,5,5,5,4,2,3,5,3,3,2,5,3,4,0,1,2,2,1,2,0,2,0,1,0,0,0,0,2],"bins":[-0.8780325651168823,-0.8468106389045715,-0.815588653087616,-0.7843667268753052,-0.7531447410583496,-0.7219228148460388,-0.6907008290290833,-0.6594789028167725,-0.6282569169998169,-0.5970349907875061,-0.5658130049705505,-0.5345910787582397,-0.5033690929412842,-0.4721471667289734,-0.4409252107143402,-0.40970325469970703,-0.37848129868507385,-0.3472593426704407,-0.3160373866558075,-0.2848154306411743,-0.25359347462654114,-0.22237153351306915,-0.19114957749843597,-0.1599276214838028,-0.12870566546916962,-0.09748370945453644,-0.06626175343990326,-0.03503980487585068,-0.0038178488612174988,0.02740410529077053,0.05862605944275856,0.08984801173210144,0.12106996774673462,0.1522919237613678,0.18351387977600098,0.21473583579063416,0.24595779180526733,0.2771797478199005,0.3084017038345337,0.33962365984916687,0.37084561586380005,0.40206754207611084,0.433289498090744,0.4645114541053772,0.4957334101200104,0.5269553661346436,0.5581773519515991,0.5893992781639099,0.6206212043762207,0.6518431901931763,0.6830651164054871,0.7142871022224426,0.7455090284347534,0.776731014251709,0.8079529404640198,0.8391749262809753,0.8703968524932861,0.9016188383102417,0.9328407645225525,0.9640627503395081,0.9952846765518188,1.0265066623687744,1.05772864818573,1.088950514793396,1.1201725006103516]},"train/data":0.000753087573684752,"gradients/encoder_2.weight":{"bins":[-1.2076915502548218,-1.1706504821777344,-1.1336092948913574,-1.09656822681427,-1.059527039527893,-1.0224859714508057,-0.9854448437690735,-0.9484037160873413,-0.9113625884056091,-0.874321460723877,-0.8372803330421448,-0.8002392053604126,-0.7631981372833252,-0.726157009601593,-0.6891158819198608,-0.6520747542381287,-0.6150336265563965,-0.5779924988746643,-0.5409513711929321,-0.5039102435112,-0.46686914563179016,-0.429828017950058,-0.3927869200706482,-0.355745792388916,-0.31870466470718384,-0.28166353702545166,-0.24462242424488068,-0.2075813114643097,-0.17054018378257751,-0.13349905610084534,-0.09645794332027435,-0.05941682308912277,-0.022375822067260742,0.014665298163890839,0.05170641839504242,0.088747538626194,0.12578865885734558,0.16282978653907776,0.19987089931964874,0.23691201210021973,0.2739531397819519,0.3109942674636841,0.34803539514541626,0.38507649302482605,0.4221176207065582,0.4591587483882904,0.4961998462677002,0.5332409739494324,0.5702821016311646,0.6073232293128967,0.6443643569946289,0.6814054846763611,0.7184466123580933,0.7554876804351807,0.7925288081169128,0.829569935798645,0.8666110634803772,0.9036521911621094,0.9406933188438416,0.9777344465255737,1.0147755146026611,1.051816701889038,1.0888577699661255,1.1258989572525024,1.1629400253295898],"_type":"histogram","values":[1,0,0,2,1,0,0,0,0,0,0,3,3,1,2,1,1,3,3,2,4,2,3,3,3,4,2,3,3,5,3,2,2,5,5,1,4,4,4,2,7,2,2,5,2,3,4,3,1,4,2,0,1,0,1,0,0,2,0,1,0,0,0,1]},"_wandb":{"runtime":162},"_timestamp":1.7726859395509808e+09,"train/total":0.03790418431162834,"gradients/layers.1.bias":{"bins":[-0.06183364614844322,-0.058612383902072906,-0.05539112538099289,-0.052169863134622574,-0.04894860088825226,-0.04572733864188194,-0.04250607639551163,-0.03928481787443161,-0.036063555628061295,-0.03284229338169098,-0.029621032997965813,-0.026399772614240646,-0.02317851036787033,-0.019957248121500015,-0.01673598773777485,-0.013514726422727108,-0.010293465107679367,-0.007072203792631626,-0.003850942477583885,-0.0006296811625361443,0.0025915801525115967,0.005812841467559338,0.009034102782607079,0.01225536409765482,0.01547662541270256,0.018697887659072876,0.021919148042798042,0.02514040842652321,0.028361670672893524,0.03158293291926384,0.034804195165634155,0.03802545368671417,0.04124671220779419,0.044467974454164505,0.04768923670053482,0.05091049522161484,0.05413175746798515,0.05735301971435547,0.060574278235435486,0.0637955442070961,0.06701680272817612,0.07023806124925613,0.07345932722091675,0.07668058574199677,0.07990184426307678,0.0831231102347374,0.08634436875581741,0.08956563472747803,0.09278689324855804,0.09600815176963806,0.09922941774129868,0.10245067626237869,0.1056719422340393,0.10889320075511932,0.11211445927619934,0.11533572524785995,0.11855698376893997,0.12177824229001999,0.1249995082616806,0.12822076678276062,0.13144202530384064,0.13466328382492065,0.13788455724716187,0.14110581576824188,0.1443270742893219],"_type":"histogram","values":[1,0,0,0,0,0,1,2,0,2,3,1,0,4,2,2,1,2,1,5,3,2,2,3,3,2,2,2,4,0,1,1,1,2,1,0,0,0,1,0,0,0,1,2,0,1,0,0,1,1,0,0,0,0,0,0,0,0,0,0,0,0,0,1]},"gradients/layers.2.bias":{"values":[1,0,0,0,0,0,0,1,1,1,2,0,2,1,1,1,1,1,2,0,1,1,1,0,0,1,1,1,2,1,0,0,1,2,3,5,3,4,2,1,1,3,3,2,0,1,1,1,0,3,0,0,0,0,1,0,0,0,0,0,0,1,0,2],"bins":[-0.44420719146728516,-0.4325510263442993,-0.4208948314189911,-0.40923866629600525,-0.3975825011730194,-0.3859263062477112,-0.37427014112472534,-0.3626139760017395,-0.3509577810764313,-0.33930161595344543,-0.3276454508304596,-0.31598925590515137,-0.3043330907821655,-0.2926769256591797,-0.28102073073387146,-0.2693645656108856,-0.2577083706855774,-0.24605220556259155,-0.2343960404396057,-0.22273986041545868,-0.21108368039131165,-0.1994275152683258,-0.18777133524417877,-0.17611515522003174,-0.1644589900970459,-0.15280281007289886,-0.14114663004875183,-0.1294904500246048,-0.11783428490161896,-0.10617810487747192,-0.09452193230390549,-0.08286575227975845,-0.07120957970619202,-0.05955340340733528,-0.047897227108478546,-0.03624105453491211,-0.024584878236055374,-0.012928702868521214,-0.001272527500987053,0.010383647866547108,0.02203982323408127,0.033695999532938004,0.04535217583179474,0.057008348405361176,0.06866452097892761,0.08032070100307465,0.09197687357664108,0.10363305360078812,0.11528922617435455,0.1269454061985016,0.13860157132148743,0.15025775134563446,0.1619139313697815,0.17357009649276733,0.18522627651691437,0.1968824565410614,0.20853862166404724,0.22019480168819427,0.2318509817123413,0.24350716173648834,0.2551633417606354,0.2668195068836212,0.27847567200660706,0.2901318669319153,0.3017880320549011],"_type":"histogram"},"_step":7000,"gradients/layers.2.weight":{"values":[1,0,0,0,0,3,0,0,1,0,3,3,1,4,2,4,5,10,10,14,21,21,11,31,24,39,43,66,79,78,103,130,180,198,261,397,573,435,293,212,172,157,111,88,58,62,29,37,24,25,12,13,15,6,9,7,5,3,3,0,1,0,2,1],"bins":[-0.17266494035720825,-0.1679433286190033,-0.16322173178195953,-0.15850012004375458,-0.15377850830554962,-0.14905689656734467,-0.1443352997303009,-0.13961368799209595,-0.134892076253891,-0.13017047941684723,-0.12544886767864227,-0.12072725594043732,-0.11600565165281296,-0.111284039914608,-0.10656243562698364,-0.10184082388877869,-0.09711921960115433,-0.09239761531352997,-0.08767600357532501,-0.08295439928770065,-0.0782327875494957,-0.07351118326187134,-0.06878957152366638,-0.06406796723604202,-0.059346359223127365,-0.05462475121021271,-0.04990314319729805,-0.04518153518438339,-0.04045993089675903,-0.035738322883844376,-0.031016714870929718,-0.02629510685801506,-0.021573498845100403,-0.016851890832185745,-0.012130283750593662,-0.007408676203340292,-0.0026870686560869217,0.0020345388911664486,0.006756146438419819,0.011477753520011902,0.01619936153292656,0.020920969545841217,0.025642577558755875,0.030364183709025383,0.03508578985929489,0.03980739787220955,0.04452900588512421,0.049250613898038864,0.05397222191095352,0.05869382992386818,0.06341543793678284,0.0681370422244072,0.07285865396261215,0.07758025825023651,0.08230186998844147,0.08702347427606583,0.09174507856369019,0.09646669030189514,0.1011882945895195,0.10590990632772446,0.11063151061534882,0.11535312235355377,0.12007472664117813,0.12479633837938309,0.12951794266700745],"_type":"histogram"},"train/physics_comp_1":6.851200282653735e-07,"gradients/layers.0.bias":{"values":[1,0,0,0,0,0,1,1,0,0,2,0,1,0,0,1,1,0,2,1,3,4,1,2,3,1,6,3,3,1,2,1,3,6,0,2,2,2,0,1,1,1,0,2,0,1,0,0,0,0,0,0,0,0,0,1,0,0,0,0,0,0,0,1],"bins":[-0.038469117134809494,-0.03707634285092354,-0.03568357229232788,-0.034290798008441925,-0.03289802372455597,-0.03150524944067001,-0.030112477019429207,-0.0287197045981884,-0.027326930314302444,-0.02593415603041649,-0.024541383609175682,-0.023148611187934875,-0.02175583690404892,-0.020363062620162964,-0.018970290198922157,-0.01757751777768135,-0.016184743493795395,-0.014791970141232014,-0.013399196788668633,-0.012006423436105251,-0.01061365008354187,-0.009220876730978489,-0.007828103378415108,-0.0064353300258517265,-0.005042556673288345,-0.003649783320724964,-0.002257009968161583,-0.0008642366155982018,0.0005285367369651794,0.0019213100895285606,0.003314083442091942,0.004706856794655323,0.006099626421928406,0.007492399774491787,0.008885173127055168,0.01027794647961855,0.01167071983218193,0.013063493184745312,0.014456266537308693,0.0158490389585495,0.017241813242435455,0.01863458752632141,0.020027359947562218,0.021420132368803024,0.02281290665268898,0.024205680936574936,0.025598453357815742,0.02699122577905655,0.028384000062942505,0.02977677434682846,0.031169546768069267,0.032562319189310074,0.03395509347319603,0.035347867757081985,0.03674063831567764,0.0381334125995636,0.039526186883449554,0.04091896116733551,0.042311735451221466,0.04370450600981712,0.04509728029370308,0.046490054577589035,0.04788282513618469,0.04927559942007065,0.050668373703956604],"_type":"histogram"},"_runtime":162,"gradients/out.bias":{"bins":[2.479186773300171,2.519256591796875,2.559326410293579,2.599395990371704,2.639465808868408,2.6795356273651123,2.7196054458618164,2.7596750259399414,2.7997448444366455,2.8398146629333496,2.8798844814300537,2.9199540615081787,2.960023880004883,3.000093698501587,3.040163516998291,3.080233097076416,3.12030291557312,3.160372734069824,3.2004425525665283,3.2405123710632324,3.2805819511413574,3.3206517696380615,3.3607215881347656,3.4007914066314697,3.4408609867095947,3.480930805206299,3.521000623703003,3.561070442199707,3.601140022277832,3.641209840774536,3.6812796592712402,3.7213494777679443,3.7614192962646484,3.8014888763427734,3.8415586948394775,3.8816285133361816,3.9216983318328857,3.9617679119110107,4.001837730407715,4.04190731048584,4.081977367401123,4.122046947479248,4.162117004394531,4.202186584472656,4.242256164550781,4.2823262214660645,4.3223958015441895,4.3624653816223145,4.402535438537598,4.442605018615723,4.482675075531006,4.522744655609131,4.562814235687256,4.602884292602539,4.642953872680664,4.683023929595947,4.723093509674072,4.763163089752197,4.8032331466674805,4.8433027267456055,4.8833723068237305,4.923442363739014,4.963511943817139,5.003582000732422,5.043651580810547],"_type":"histogram","values":[1,0,0,0,0,0,0,1,0,0,0,0,0,0,0,0,0,0,0,0,0,0,0,0,0,0,0,0,0,0,0,0,0,0,0,0,0,0,0,0,0,0,0,0,0,0,0,0,0,0,0,0,0,0,0,0,0,0,0,0,0,0,0,1]},"val/total":12351.3837890625,"gradients/encoder_2.bias":{"bins":[-2.7498950958251953,-2.6739907264709473,-2.598086357116699,-2.522181749343872,-2.446277379989624,-2.370373010635376,-2.294468402862549,-2.218564033508301,-2.1426596641540527,-2.0667552947998047,-1.990850806236267,-1.9149463176727295,-1.8390419483184814,-1.7631375789642334,-1.6872330904006958,-1.6113286018371582,-1.5354242324829102,-1.459519863128662,-1.3836153745651245,-1.307710886001587,-1.2318065166473389,-1.1559021472930908,-1.0799976587295532,-1.0040931701660156,-0.9281888008117676,-0.8522843718528748,-0.7763799428939819,-0.7004755139350891,-0.6245710849761963,-0.5486666560173035,-0.47276222705841064,-0.3968577980995178,-0.3209536075592041,-0.24504917860031128,-0.16914474964141846,-0.09324032068252563,-0.017335891723632812,0.05856853723526001,0.13447296619415283,0.21037739515304565,0.2862818241119385,0.3621862530708313,0.4380906820297241,0.5139951109886169,0.5898995399475098,0.6658039689064026,0.7417083978652954,0.8176128268241882,0.893517255783081,0.9694216847419739,1.0453261137008667,1.1212306022644043,1.1971349716186523,1.2730393409729004,1.348943829536438,1.4248483180999756,1.5007526874542236,1.5766570568084717,1.6525615453720093,1.7284660339355469,1.804370403289795,1.880274772644043,1.9561792612075806,2.032083749771118,2.107988119125366],"_type":"histogram","values":[1,0,0,1,1,0,0,0,1,0,0,1,1,0,1,0,0,1,1,0,1,0,1,1,1,3,4,1,1,2,0,2,1,0,3,2,0,2,1,2,3,0,4,1,3,1,4,1,1,1,2,0,1,1,0,1,0,1,0,0,0,0,0,2]},"train/physics":0.00024980786838568747,"gradients/layers.0.weight":{"bins":[-0.0250948965549469,-0.02437225915491581,-0.02364962361752987,-0.02292698621749878,-0.02220434881746769,-0.02148171328008175,-0.02075907588005066,-0.02003643848001957,-0.01931380294263363,-0.01859116554260254,-0.01786852814257145,-0.01714589260518551,-0.01642325520515442,-0.01570061780512333,-0.014977982267737389,-0.014255344867706299,-0.013532708398997784,-0.012810071930289268,-0.012087434530258179,-0.011364798061549664,-0.010642161592841148,-0.009919524192810059,-0.009196887724101543,-0.008474251255393028,-0.007751614321023226,-0.007028977386653423,-0.006306340917944908,-0.005583703983575106,-0.004861067049205303,-0.004138430580496788,-0.0034157936461269855,-0.0026931569445878267,-0.001970520243048668,-0.001247883541509509,-0.0005252467235550284,0.0001973900361917913,0.000920026795938611,0.0016426634974777699,0.0023653004318475723,0.003087937133386731,0.00381057383492589,0.0045332107692956924,0.005255847238004208,0.00597848417237401,0.0067011211067438126,0.007423757575452328,0.008146394044160843,0.008869031444191933,0.009591667912900448,0.010314304381608963,0.011036941781640053,0.011759578250348568,0.012482214719057083,0.013204852119088173,0.013927488587796688,0.014650125056505203,0.015372762456536293,0.016095397993922234,0.016818035393953323,0.017540672793984413,0.018263308331370354,0.018985945731401443,0.019708583131432533,0.020431218668818474,0.021153856068849564],"_type":"histogram","values":[1,1,0,0,0,0,0,1,0,0,0,0,0,1,1,2,1,0,1,1,2,3,2,1,3,0,1,4,3,4,6,5,6,5,11,10,8,2,4,3,4,3,2,7,2,1,1,4,3,0,1,0,1,3,0,0,0,0,1,0,0,0,0,2]},"gradients/encoder_1.weight":{"values":[1,0,0,0,0,1,1,1,0,2,3,2,1,0,1,4,3,1,2,2,0,1,3,6,4,10,2,1,2,4,8,2,7,3,4,4,4,1,4,5,1,2,4,2,1,2,3,1,1,0,1,1,1,0,1,1,2,1,0,0,1,1,0,1],"bins":[-0.2557382583618164,-0.24625757336616516,-0.23677687346935272,-0.22729618847370148,-0.21781550347805023,-0.2083348035812378,-0.19885411858558655,-0.1893734335899353,-0.17989274859428406,-0.17041204869747162,-0.16093136370182037,-0.15145067870616913,-0.1419699788093567,-0.13248929381370544,-0.1230086013674736,-0.11352791637182236,-0.10404722392559052,-0.09456653147935867,-0.08508584648370743,-0.07560515403747559,-0.06612446904182434,-0.0566437765955925,-0.04716308414936066,-0.03768239542841911,-0.02820170670747757,-0.018721017986536026,-0.009240327402949333,0.000240362249314785,0.009721051901578903,0.019201740622520447,0.02868243120610714,0.03816312178969383,0.047643810510635376,0.05712449923157692,0.06660518795251846,0.0760858803987503,0.08556656539440155,0.09504725784063339,0.10452795028686523,0.11400863528251648,0.12348932772874832,0.13297002017498016,0.1424507051706314,0.15193139016628265,0.1614120900630951,0.17089277505874634,0.18037346005439758,0.18985415995121002,0.19933484494686127,0.2088155299425125,0.21829622983932495,0.2277769148349762,0.23725759983062744,0.24673829972743988,0.25621896982192993,0.26569968461990356,0.2751803696155548,0.28466105461120605,0.2941417396068573,0.30362242460250854,0.3131031095981598,0.3225838243961334,0.33206450939178467,0.3415451943874359,0.35102587938308716],"_type":"histogram"},"train/physics_comp_2":2.396795082404424e-07}