{"_runtime":136,"train/physics":NaN,"gradients/layers.1.weight":{"_type":"histogram","values":[1,0,1,0,0,1,2,1,1,3,2,3,3,3,11,6,11,11,14,14,17,21,36,52,52,58,87,125,140,171,199,253,331,374,403,360,245,223,193,152,116,91,55,48,42,30,28,22,22,16,7,11,4,3,5,2,5,3,2,1,0,2,0,1],"bins":[-0.014271500520408154,-0.013851603493094444,-0.01343170553445816,-0.013011808507144451,-0.012591911479830742,-0.012172013521194458,-0.011752116493880749,-0.011332218535244465,-0.010912321507930756,-0.010492424480617046,-0.010072526521980762,-0.009652629494667053,-0.00923273153603077,-0.00881283450871706,-0.00839293748140335,-0.007973039522767067,-0.007553142495453358,-0.007133245002478361,-0.0067133475095033646,-0.006293450482189655,-0.005873552989214659,-0.005453655496239662,-0.005033758468925953,-0.004613860975950956,-0.00419396348297596,-0.003774065990000963,-0.0033541687298566103,-0.0029342714697122574,-0.002514373976737261,-0.0020944764837622643,-0.0016745792236179113,-0.0012546818470582366,-0.0008347835391759872,-0.0004148861626163125,5.011213943362236e-06,0.000424908590503037,0.0008448059670627117,0.0012647033436223865,0.0016846007201820612,0.002104497980326414,0.0025243954733014107,0.0029442929662764072,0.00336419022642076,0.003784087486565113,0.00420398497954011,0.004623882472515106,0.0050437794998288155,0.005463676992803812,0.005883574485778809,0.006303471978753805,0.006723369471728802,0.007143266499042511,0.0075631639920175076,0.007983061484992504,0.008402958512306213,0.008822856470942497,0.009242753498256207,0.009662650525569916,0.0100825484842062,0.010502445511519909,0.010922342538833618,0.011342240497469902,0.011762137524783611,0.012182035483419895,0.012601932510733604]},"val/val_comp_2":NaN,"gradients/out.bias":{"bins":[-0.09287676215171814,-0.0913611426949501,-0.08984551578760147,-0.08832989633083344,-0.0868142768740654,-0.08529864996671677,-0.08378303050994873,-0.0822674110531807,-0.08075178414583206,-0.07923616468906403,-0.07772054523229599,-0.07620491832494736,-0.07468929886817932,-0.07317367941141129,-0.07165805250406265,-0.07014243304729462,-0.06862680613994598,-0.06711118668317795,-0.06559556722640991,-0.06407994031906128,-0.06256432086229324,-0.06104870140552521,-0.05953307822346687,-0.05801745504140854,-0.0565018355846405,-0.05498621240258217,-0.053470589220523834,-0.0519549660384655,-0.050439346581697464,-0.04892372339963913,-0.047408100217580795,-0.04589248076081276,-0.044376861304044724,-0.04286123812198639,-0.04134561866521835,-0.03982999548316002,-0.038314372301101685,-0.03679875284433365,-0.035283129662275314,-0.03376750648021698,-0.032251887023448944,-0.03073626384139061,-0.029220640659332275,-0.02770501933991909,-0.026189398020505905,-0.02467377483844757,-0.023158153519034386,-0.02164253033697605,-0.020126909017562866,-0.01861128769814968,-0.017095664516091347,-0.015580043196678162,-0.014064420945942402,-0.012548798695206642,-0.011033177375793457,-0.009517555125057697,-0.008001932874321938,-0.006486310623586178,-0.004970688838511705,-0.0034550668206065893,-0.0019394448027014732,-0.00042382278479635715,0.001091799233108759,0.002607421251013875,0.004123043268918991],"_type":"histogram","values":[1,0,0,0,0,0,0,0,0,0,0,0,0,0,0,0,0,0,0,0,0,0,0,0,0,0,0,0,0,0,0,0,0,0,0,0,0,0,0,0,0,0,0,0,0,0,0,0,0,0,1,0,0,0,0,0,0,0,0,0,0,0,0,1]},"gradients/layers.2.weight":{"values":[1,0,0,0,0,0,0,0,0,0,0,2,0,1,1,0,1,2,2,1,4,3,2,2,9,8,10,10,34,120,316,793,1621,735,242,89,36,11,14,6,5,3,3,3,2,1,0,0,1,0,0,0,0,0,0,0,0,0,0,0,0,0,0,2],"bins":[-0.053443167358636856,-0.051796805113554,-0.050150446593761444,-0.04850408434867859,-0.04685772582888603,-0.04521136358380318,-0.04356500506401062,-0.041918642818927765,-0.04027228057384491,-0.03862592205405235,-0.0369795598089695,-0.03533320128917694,-0.033686839044094086,-0.03204048052430153,-0.030394118279218674,-0.028747757896780968,-0.02710139751434326,-0.025455037131905556,-0.02380867674946785,-0.022162316367030144,-0.020515955984592438,-0.018869593739509583,-0.017223233357071877,-0.01557687297463417,-0.013930512592196465,-0.012284152209758759,-0.010637791827321053,-0.008991430513560772,-0.007345070131123066,-0.00569870974868536,-0.004052348900586367,-0.002405988285318017,-0.0007596239447593689,0.0008867366705089808,0.0025330972857773304,0.004179458133876324,0.00582581851631403,0.007472178898751736,0.009118540212512016,0.010764900594949722,0.012411260977387428,0.014057621359825134,0.01570398174226284,0.017350342124700546,0.0189967043697834,0.020643064752221107,0.022289425134658813,0.02393578551709652,0.025582145899534225,0.02722850628197193,0.028874866664409637,0.030521227046847343,0.03216758742928505,0.033813949674367905,0.03546030819416046,0.03710667043924332,0.03875303268432617,0.04039939120411873,0.042045753449201584,0.04369211196899414,0.045338474214076996,0.04698483273386955,0.04863119497895241,0.050277553498744965,0.05192391574382782],"_type":"histogram"},"train/physics_comp_0":NaN,"train/physics_comp_1":NaN,"train/physics_comp_2":NaN,"gradients/layers.0.bias":{"bins":[-0.11058345437049866,-0.10768884420394897,-0.1047942265868187,-0.10189960896968842,-0.09900499880313873,-0.09611038863658905,-0.09321577101945877,-0.09032115340232849,-0.08742654323577881,-0.08453193306922913,-0.08163731545209885,-0.07874269783496857,-0.07584808766841888,-0.0729534775018692,-0.07005885988473892,-0.06716424226760864,-0.06426963210105896,-0.06137501820921898,-0.058480404317379,-0.05558579042553902,-0.052691176533699036,-0.049796562641859055,-0.046901948750019073,-0.04400733485817909,-0.04111272096633911,-0.03821810707449913,-0.03532349318265915,-0.03242887929081917,-0.029534265398979187,-0.026639651507139206,-0.023745037615299225,-0.020850423723459244,-0.01795581728219986,-0.015061203390359879,-0.012166589498519897,-0.009271975606679916,-0.006377361714839935,-0.0034827478229999542,-0.0005881339311599731,0.002306479960680008,0.005201093852519989,0.00809570774435997,0.010990321636199951,0.013884935528039932,0.016779549419879913,0.019674163311719894,0.022568777203559875,0.025463391095399857,0.028358004987239838,0.03125261887907982,0.0341472327709198,0.03704184666275978,0.03993646055459976,0.04283107444643974,0.045725688338279724,0.048620302230119705,0.051514916121959686,0.05440953001379967,0.05730414390563965,0.06019875779747963,0.06309337168931961,0.06598798930644989,0.06888259947299957,0.07177720963954926,0.07467182725667953],"_type":"histogram","values":[1,0,0,0,0,0,0,0,0,0,0,0,1,0,1,0,0,1,0,0,1,0,0,1,3,1,2,0,2,4,1,2,3,5,0,2,0,1,4,2,0,1,1,1,2,3,2,1,3,3,1,1,1,0,1,1,0,2,0,0,0,1,0,1]},"val/physics_loss":NaN,"train/data":NaN,"_step":7000,"gradients/layers.0.weight":{"values":[1,0,0,2,3,2,2,1,0,0,1,0,4,2,1,1,2,2,4,2,3,1,7,4,5,5,3,3,5,6,4,2,4,3,4,2,1,2,2,2,3,2,3,2,6,3,0,1,2,2,1,0,0,1,1,1,0,0,0,0,1,0,0,1],"bins":[-0.025380248203873634,-0.024527693167328835,-0.023675138130784035,-0.022822583094239235,-0.021970028057694435,-0.021117473021149635,-0.020264917984604836,-0.019412362948060036,-0.018559807911515236,-0.017707252874970436,-0.016854697838425636,-0.016002142801880836,-0.015149587765336037,-0.014297032728791237,-0.013444477692246437,-0.012591922655701637,-0.011739367619156837,-0.010886812582612038,-0.010034257546067238,-0.009181702509522438,-0.008329147472977638,-0.0074765924364328384,-0.006624037399888039,-0.005771482363343239,-0.004918927326798439,-0.004066372290253639,-0.0032138172537088394,-0.0023612622171640396,-0.0015087071806192398,-0.00065615214407444,0.0001964028924703598,0.0010489579290151596,0.0019015148282051086,0.0027540698647499084,0.0036066249012947083,0.004459179937839508,0.005311734974384308,0.006164290010929108,0.0070168450474739075,0.007869400084018707,0.008721955120563507,0.009574510157108307,0.010427065193653107,0.011279620230197906,0.012132175266742706,0.012984730303287506,0.013837285339832306,0.014689840376377106,0.015542395412921906,0.016394950449466705,0.017247505486011505,0.018100060522556305,0.018952615559101105,0.019805170595645905,0.020657725632190704,0.021510280668735504,0.022362835705280304,0.023215390741825104,0.024067945778369904,0.024920500814914703,0.025773055851459503,0.026625610888004303,0.027478165924549103,0.028330720961093903,0.029183275997638702],"_type":"histogram"},"val/val_comp_1":NaN,"val/total":NaN,"gradients/layers.1.bias":{"_type":"histogram","values":[1,0,0,0,0,1,1,0,2,3,0,0,1,0,1,2,0,2,2,1,1,1,1,3,1,3,4,1,3,4,2,4,2,1,0,1,0,2,1,3,1,0,1,1,0,1,1,0,1,0,0,0,2,0,0,0,0,0,0,0,0,0,0,1],"bins":[-0.04717613384127617,-0.0454016849398613,-0.04362723231315613,-0.04185278341174126,-0.040078334510326385,-0.038303885608911514,-0.03652943670749664,-0.03475498408079147,-0.0329805351793766,-0.03120608627796173,-0.02943163551390171,-0.02765718474984169,-0.02588273584842682,-0.024108286947011948,-0.022333836182951927,-0.020559385418891907,-0.018784936517477036,-0.017010487616062164,-0.015236036852002144,-0.013461587019264698,-0.011687137186527252,-0.009912687353789806,-0.00813823752105236,-0.006363787688314915,-0.004589337855577469,-0.002814888022840023,-0.0010404381901025772,0.0007340116426348686,0.0025084614753723145,0.00428291130810976,0.006057361140847206,0.007831810973584652,0.0096062570810318,0.011380706913769245,0.013155156746506691,0.014929606579244137,0.016704056411981583,0.018478505313396454,0.020252956077456474,0.022027406841516495,0.023801855742931366,0.025576304644346237,0.027350755408406258,0.029125206172466278,0.03089965507388115,0.03267410397529602,0.03444855660200119,0.03622300550341606,0.03799745440483093,0.039771903306245804,0.041546352207660675,0.043320804834365845,0.045095253735780716,0.04686970263719559,0.04864415526390076,0.05041860416531563,0.0521930530667305,0.05396750196814537,0.05574195086956024,0.05751640349626541,0.05929085239768028,0.061065301299095154,0.06283975392580032,0.0646141991019249,0.06638865172863007]},"val/data_loss":NaN,"gradients/layers.2.bias":{"values":[1,0,1,2,0,1,0,2,4,1,1,1,5,0,4,2,2,4,2,0,2,1,3,1,4,2,2,1,3,5,1,0,1,0,1,1,0,0,0,1,0,0,0,0,0,0,0,0,1,0,0,0,0,0,0,0,0,0,0,0,0,0,0,1],"bins":[-0.0310200285166502,-0.029505420476198196,-0.027990810573101044,-0.02647620253264904,-0.024961592629551888,-0.023446984589099884,-0.02193237468600273,-0.020417766645550728,-0.018903158605098724,-0.01738854870200157,-0.015873940661549568,-0.014359330758452415,-0.012844722718000412,-0.011330113746225834,-0.009815504774451256,-0.008300895802676678,-0.0067862868309021,-0.0052716778591275215,-0.003757069120183587,-0.0022424603812396526,-0.0007278514094650745,0.0007867574458941817,0.002301366301253438,0.0038159750401973724,0.0053305840119719505,0.006845192983746529,0.008359801955521107,0.009874410927295685,0.011389018967747688,0.012903627939522266,0.014418236911296844,0.015932846814393997,0.01744745299220085,0.018962061032652855,0.020476670935750008,0.02199127897620201,0.023505888879299164,0.025020496919751167,0.02653510682284832,0.028049714863300323,0.029564324766397476,0.03107893280684948,0.03259354084730148,0.034108150750398636,0.03562276065349579,0.03713736683130264,0.038651976734399796,0.04016658663749695,0.0416811928153038,0.043195802718400955,0.04471041262149811,0.04622502252459526,0.047739628702402115,0.04925423860549927,0.05076884850859642,0.05228345841169357,0.05379806458950043,0.05531267449259758,0.05682728439569473,0.05834189057350159,0.05985650047659874,0.06137111037969589,0.06288571655750275,0.0644003301858902,0.06591493636369705],"_type":"histogram"},"gradients/out.weight":{"bins":[-0.07478952407836914,-0.07249817252159119,-0.07020682841539383,-0.06791547685861588,-0.06562413275241852,-0.06333278119564056,-0.06104143708944321,-0.05875008925795555,-0.056458741426467896,-0.05416738986968994,-0.051876042038202286,-0.04958469420671463,-0.047293346375226974,-0.04500199854373932,-0.04271065071225166,-0.04041930288076401,-0.03812795504927635,-0.035836607217788696,-0.03354525938630104,-0.031253911554813385,-0.02896256372332573,-0.026671214029192924,-0.02437986619770527,-0.022088518366217613,-0.019797170534729958,-0.017505822703242302,-0.015214474871754646,-0.012923126108944416,-0.01063177827745676,-0.008340430445969105,-0.006049082148820162,-0.0037577340845018625,-0.0014663860201835632,0.0008249620441347361,0.0031163101084530354,0.005407658405601978,0.007699006237089634,0.00999035406857729,0.01228170283138752,0.014573050662875175,0.01686439849436283,0.019155746325850487,0.021447094157338142,0.023738441988825798,0.026029791682958603,0.02832113951444626,0.030612487345933914,0.03290383517742157,0.035195183008909225,0.03748653084039688,0.03977787867188454,0.04206922650337219,0.04436057433485985,0.046651922166347504,0.04894326999783516,0.051234617829322815,0.05352596938610077,0.055817317217588425,0.05810866504907608,0.060400012880563736,0.06269136071205139,0.06498270481824875,0.0672740563750267,0.06956540048122406,0.07185675203800201],"_type":"histogram","values":[1,0,0,0,0,0,0,0,0,0,0,0,0,0,0,0,0,0,0,0,0,0,2,2,1,1,3,8,7,14,20,17,16,25,15,22,12,9,4,2,4,2,0,1,0,0,2,0,0,0,0,0,0,0,0,0,0,0,0,0,0,1,0,1]},"_wandb":{"runtime":136},"train/total":NaN,"val/val_comp_0":NaN,"_timestamp":1.772680435190583e+09}