{"gradients/main_layers.0.weight":{"_type":"histogram","values":[1,0,0,0,0,2,1,0,1,1,1,1,0,2,0,1,2,3,1,4,3,4,3,2,9,9,8,7,3,10,7,5,6,9,5,5,4,1,5,6,0,2,4,0,2,3,1,2,0,0,0,0,1,0,0,1,0,0,0,0,0,1,0,1],"bins":[-0.0034096897579729557,-0.0032918474171310663,-0.0031740048434585333,-0.003056162502616644,-0.002938319928944111,-0.0028204775881022215,-0.002702635247260332,-0.002584792673587799,-0.0024669503327459097,-0.0023491079919040203,-0.0022312654182314873,-0.002113423077389598,-0.0019955807365477085,-0.0018777381628751755,-0.001759895822033286,-0.0016420533647760749,-0.0015242109075188637,-0.0014063684502616525,-0.0012885259930044413,-0.0011706836521625519,-0.0010528411949053407,-0.0009349987376481295,-0.0008171563385985792,-0.0006993139395490289,-0.0005814714822918177,-0.0004636290541384369,-0.00034578662598505616,-0.0002279441978316754,-0.00011010176967829466,7.740658475086093e-06,0.00012558308662846684,0.0002434255147818476,0.00036126794293522835,0.0004791103710886091,0.0005969527992419899,0.0007147951982915401,0.0008326376555487514,0.0009504801128059626,0.001068322453647852,0.0011861649109050632,0.0013040073681622744,0.0014218498254194856,0.0015396922826766968,0.0016575346235185862,0.0017753770807757974,0.0018932195380330086,0.002011061878874898,0.002128904452547431,0.0022467467933893204,0.0023645891342312098,0.002482431707903743,0.002600274048745632,0.002718116622418165,0.0028359589632600546,0.002953801304101944,0.003071643877774477,0.0031894862186163664,0.0033073285594582558,0.003425171133130789,0.003543013473972678,0.0036608558148145676,0.0037786983884871006,0.00389654072932899,0.004014383070170879,0.004132225643843412]},"gradients/main_layers.2.weight":{"values":[1,0,1,1,0,0,0,0,1,3,2,1,2,1,1,1,5,1,5,2,4,3,5,1,3,8,16,6,14,15,17,18,29,57,69,124,166,88,68,43,25,18,14,6,7,9,5,4,5,5,1,0,3,3,3,2,1,0,2,0,2,1,1,1],"bins":[-0.004534613806754351,-0.004409550689160824,-0.00428448710590601,-0.004159423988312483,-0.004034360405057669,-0.003909297287464142,-0.0037842339370399714,-0.003659170586615801,-0.0035341072361916304,-0.00340904388576746,-0.0032839805353432894,-0.003158917184919119,-0.003033854067325592,-0.0029087907169014215,-0.002783727366477251,-0.0026586640160530806,-0.00253360066562891,-0.0024085373152047396,-0.002283473964780569,-0.0021584106143563986,-0.002033347263932228,-0.0019082840299233794,-0.0017832207959145308,-0.0016581574454903603,-0.0015330940950661898,-0.0014080307446420193,-0.0012829673942178488,-0.0011579041602090001,-0.0010328408097848296,-0.0009077774593606591,-0.0007827141671441495,-0.00065765087492764,-0.0005325875245034695,-0.00040752420318312943,-0.0002824608818627894,-0.00015739756054244936,-3.233423922210932e-05,9.272908209823072e-05,0.00021779240341857076,0.0003428557247389108,0.00046791904605925083,0.0005929823964834213,0.0007180456886999309,0.0008431089809164405,0.000968172331340611,0.0010932356817647815,0.0012182989157736301,0.0013433622661978006,0.0014684256166219711,0.0015934889670461416,0.0017185523174703121,0.0018436155514791608,0.001968679018318653,0.00209374213591218,0.0022188054863363504,0.002343868836760521,0.0024689321871846914,0.002593995537608862,0.0027190588880330324,0.002844122238457203,0.0029691853560507298,0.0030942487064749002,0.0032193120568990707,0.0033443754073232412,0.0034694387577474117],"_type":"histogram"},"gradients/output_layer.bias":{"values":[1,0,0,0,1,0,0,0,0,0,0,0,0,0,0,0,0,0,0,0,0,0,0,0,0,0,0,0,0,0,0,0,0,0,0,0,0,0,0,0,0,0,0,0,0,0,0,0,0,0,0,0,0,0,0,0,0,0,0,0,0,0,0,1],"bins":[-0.0014552123611792922,-0.001292291795834899,-0.0011293712304905057,-0.0009664506651461124,-0.0008035300998017192,-0.0006406095344573259,-0.0004776889691129327,-0.00031476840376853943,-0.00015184783842414618,1.1072726920247078e-05,0.00017399329226464033,0.0003369138576090336,0.0004998344229534268,0.0006627549882978201,0.0008256755536422133,0.0009885961189866066,0.0011515166843309999,0.001314437249675393,0.0014773578150197864,0.0016402783803641796,0.0018031989457085729,0.001966119511052966,0.002129040192812681,0.0022919606417417526,0.002454881090670824,0.002617801772430539,0.002780722454190254,0.0029436429031193256,0.003106563352048397,0.003269484033808112,0.0034324047155678272,0.0035953251644968987,0.0037582460790872574,0.003921166528016329,0.0040840869769454,0.004247007891535759,0.00440992834046483,0.004572848789393902,0.0047357697039842606,0.004898690152913332,0.005061610601842403,0.005224531050771475,0.005387451499700546,0.005550372414290905,0.005713292863219976,0.005876213312149048,0.006039134226739407,0.006202054675668478,0.0063649751245975494,0.006527895573526621,0.006690816022455692,0.006853736937046051,0.0070166573859751225,0.007179577834904194,0.007342498749494553,0.007505419198423624,0.0076683396473526955,0.007831260561943054,0.007994180545210838,0.008157101459801197,0.008320022374391556,0.00848294235765934,0.008645863272249699,0.008808783255517483,0.008971704170107841],"_type":"histogram"},"val/total":0.006313371937721968,"val/comp_P_tb_b":0.002048483584076166,"gradients/main_layers.2.bias":{"bins":[-0.0011377019109204412,-0.0010615162318572402,-0.000985330669209361,-0.000909145048353821,-0.000832959427498281,-0.00075677374843508,-0.00068058812757954,-0.000604402506724,-0.0005282168858684599,-0.0004520312650129199,-0.00037584564415737987,-0.00029965999419800937,-0.00022347437334246933,-0.0001472887524869293,-7.110311707947403e-05,5.082511052023619e-06,8.126813918352127e-05,0.0001574537600390613,0.00023363939544651657,0.00030982503085397184,0.0003860106517095119,0.0004621962725650519,0.0005383819225244224,0.0006145675433799624,0.0006907531642355025,0.0007669387850910425,0.0008431244059465826,0.0009193100268021226,0.0009954957058653235,0.0010716812685132027,0.0011478669475764036,0.0012240525102242827,0.0013002383057028055,0.0013764239847660065,0.0014526095474138856,0.0015287952264770865,0.0016049807891249657,0.0016811664681881666,0.0017573520308360457,0.0018335377098992467,0.0019097232725471258,0.0019859089516103268,0.0020620946306735277,0.0021382803097367287,0.002214465755969286,0.002290651435032487,0.002366837114095688,0.002443022793158889,0.0025192084722220898,0.002595393918454647,0.002671579597517848,0.002747765276581049,0.00282395095564425,0.002900136401876807,0.002976322080940008,0.003052507760003209,0.00312869343906641,0.003204879118129611,0.0032810645643621683,0.0033572502434253693,0.00343343592248857,0.003509621601551771,0.0035858070477843285,0.0036619927268475294,0.0037381784059107304],"_type":"histogram","values":[1,0,0,0,1,1,0,0,0,1,2,2,2,1,0,5,0,2,1,1,0,2,0,0,0,0,0,0,0,1,0,0,1,0,0,0,0,0,2,0,0,0,1,0,0,0,0,0,0,1,0,0,0,0,0,0,0,0,0,0,0,0,1,1]},"gradients/main_layers.0.bias":{"bins":[-0.0050535863265395164,-0.004921465180814266,-0.004789344500750303,-0.004657223355025053,-0.00452510267496109,-0.00439298152923584,-0.004260860849171877,-0.004128739703446627,-0.003996619023382664,-0.0038644978776574135,-0.003732376964762807,-0.0036002560518682003,-0.00346813490614295,-0.0033360139932483435,-0.003203893080353737,-0.0030717721674591303,-0.0029396512545645237,-0.002807530341669917,-0.0026754094287753105,-0.002543288515880704,-0.0024111676029860973,-0.002279046457260847,-0.0021469255443662405,-0.002014804631471634,-0.0018826837185770273,-0.0017505628056824207,-0.0016184418927878141,-0.0014863208634778857,-0.0013541999505832791,-0.0012220790376886725,-0.0010899580083787441,-0.0009578370954841375,-0.0008257157169282436,-0.000693594804033637,-0.0005614738329313695,-0.0004293528909329325,-0.00029723194893449545,-0.0001651110069360584,-3.2990064937621355e-05,9.913087706081569e-05,0.00023125181905925274,0.0003633727610576898,0.0004954937030561268,0.0006276146741583943,0.0007597355870530009,0.0008918564999476075,0.001023977529257536,0.0011560984421521425,0.0012882193550467491,0.0014203402679413557,0.0015524611808359623,0.0016845822101458907,0.0018167031230404973,0.001948824035935104,0.0020809450652450323,0.002213065978139639,0.0023451868910342455,0.002477307803928852,0.0026094287168234587,0.0027415496297180653,0.0028736707754433155,0.003005791688337922,0.0031379126012325287,0.0032700335141271353,0.003402154427021742],"_type":"histogram","values":[1,0,0,0,0,0,2,0,0,0,0,0,0,0,0,0,0,0,0,1,0,0,0,2,1,1,1,1,0,0,1,1,1,0,1,2,2,0,1,1,1,0,1,2,1,0,0,0,0,1,1,0,0,0,0,0,0,0,0,0,0,0,2,1]},"val/comp_m_oil":0.014847854152321815,"_runtime":271,"gradients/main_layers.1.weight":{"bins":[-0.004632709082216024,-0.004495774861425161,-0.004358841106295586,-0.004221906885504723,-0.0040849726647138596,-0.003948038909584284,-0.003811104688793421,-0.0036741704680025578,-0.0035372364800423384,-0.003400302492082119,-0.003263368271291256,-0.0031264342833310366,-0.002989500295370817,-0.002852566074579954,-0.0027156320866197348,-0.0025786978658288717,-0.0024417638778686523,-0.002304829889908433,-0.00216789566911757,-0.0020309616811573505,-0.0018940275767818093,-0.0017570934724062681,-0.0016201594844460487,-0.0014832253800705075,-0.0013462912756949663,-0.001209357171319425,-0.001072423066943884,-0.0009354890789836645,-0.0007985549746081233,-0.0006616208702325821,-0.0005246868240647018,-0.00038775274879299104,-0.0002508186735212803,-0.00011388459824956954,2.3049477022141218e-05,0.00015998355229385197,0.0002969176275655627,0.0004338517028372735,0.0005707857781089842,0.0007077198242768645,0.0008446539286524057,0.000981588033027947,0.0011185221374034882,0.0012554561253637075,0.0013923902297392488,0.00152932433411479,0.0016662583220750093,0.0018031924264505506,0.0019401265308260918,0.002077060518786311,0.002213994739577174,0.0023509287275373936,0.0024878629483282566,0.002624796936288476,0.0027617309242486954,0.0028986651450395584,0.003035599132999778,0.003172533120959997,0.00330946734175086,0.0034464013297110796,0.003583335317671299,0.003720269538462162,0.0038572035264223814,0.003994137514382601,0.004131071735173464],"_type":"histogram","values":[1,0,1,0,1,0,0,1,3,0,0,2,0,1,2,0,1,3,3,2,5,2,7,4,8,5,15,15,17,37,40,62,101,130,144,91,53,33,25,11,14,7,8,9,7,4,5,4,1,1,2,3,1,0,1,1,0,0,0,0,3,2,0,1]},"gradients/output_layer.weight":{"_type":"histogram","values":[2,0,0,0,2,0,0,0,1,1,1,0,0,0,0,0,1,1,0,1,1,2,2,0,2,2,0,1,7,9,3,4,8,6,8,3,7,1,1,0,2,2,0,0,1,1,1,0,0,1,0,0,0,0,0,1,1,0,0,1,1,0,0,1],"bins":[-0.00897208135575056,-0.00868943240493536,-0.00840678345412016,-0.008124134503304958,-0.007841486483812332,-0.007558837067335844,-0.0072761885821819305,-0.00699353963136673,-0.006710890680551529,-0.006428241729736328,-0.006145592778921127,-0.005862944293767214,-0.005580295342952013,-0.005297646392136812,-0.005014997906982899,-0.004732348956167698,-0.004449700005352497,-0.004167051054537296,-0.003884402336552739,-0.003601753618568182,-0.003319104667752981,-0.0030364557169377804,-0.0027538069989532232,-0.002471158280968666,-0.0021885093301534653,-0.0019058604957535863,-0.0016232116613537073,-0.0013405628269538283,-0.0010579139925539494,-0.0007752651581540704,-0.0004926163237541914,-0.00020996748935431242,7.268227636814117e-05,0.00035533111076802015,0.0006379799451678991,0.0009206287795677781,0.001203277613967657,0.001485926448367536,0.001768575282767415,0.002051224000751972,0.002333872951567173,0.002616521902382374,0.002899170620366931,0.003181819338351488,0.003464468289166689,0.0037471172399818897,0.004029765725135803,0.004312414675951004,0.004595063626766205,0.004877712577581406,0.0051603615283966064,0.00544301001355052,0.005725658964365721,0.0060083079151809216,0.006290956400334835,0.006573605351150036,0.006856254301965237,0.0071389032527804375,0.007421552203595638,0.007704200688749552,0.007986849173903465,0.008269498124718666,0.008552147075533867,0.008834796026349068,0.009117444977164268]},"gradients/main_layers.1.bias":{"bins":[-0.005025831051170826,-0.004873744677752256,-0.004721658304333687,-0.00456957146525383,-0.00441748509183526,-0.004265398718416691,-0.004113311879336834,-0.003961225505918264,-0.003809139132499695,-0.0036570527590811253,-0.003504966152831912,-0.003352879546582699,-0.0032007931731641293,-0.0030487067997455597,-0.0028966201934963465,-0.0027445335872471333,-0.0025924472138285637,-0.002440360840409994,-0.002288274234160781,-0.0021361876279115677,-0.001984101254492998,-0.0018320147646591067,-0.0016799282748252153,-0.001527841784991324,-0.0013757552951574326,-0.0012236688053235412,-0.0010715823154896498,-0.0009194958256557584,-0.000767409335821867,-0.0006153228459879756,-0.0004632363561540842,-0.0003111498663201928,-0.00015906291082501411,-6.976420991122723e-06,0.00014511006884276867,0.00029719655867666006,0.00044928304851055145,0.0006013695383444428,0.0007534560281783342,0.0009055425180122256,0.001057629007846117,0.0012097154976800084,0.0013618019875138998,0.0015138884773477912,0.0016659749671816826,0.001818061457015574,0.0019701479468494654,0.0021222345530986786,0.002274320926517248,0.0024264072999358177,0.002578493906185031,0.002730580512434244,0.0028826668858528137,0.0030347532592713833,0.0031868398655205965,0.0033389264717698097,0.0034910128451883793,0.003643099218606949,0.003795185824856162,0.003947272431105375,0.004099358804523945,0.004251445177942514,0.004403531551361084,0.004555618390440941,0.00470770476385951],"_type":"histogram","values":[1,0,0,0,0,0,0,0,0,0,0,1,0,0,0,0,0,0,1,0,1,1,0,0,0,1,0,0,2,2,1,1,3,4,4,0,0,1,2,1,0,0,0,0,0,1,0,0,1,0,0,0,0,0,0,0,0,0,0,0,0,0,0,1]},"val/comp_P_bh":0.0020437773782759905,"gradients/main_layers.3.weight":{"bins":[-0.0035558382514864206,-0.0034507950767874718,-0.0033457521349191666,-0.0032407089602202177,-0.003135665785521269,-0.0030306228436529636,-0.0029255796689540148,-0.002820536494255066,-0.0027154935523867607,-0.002610450377687812,-0.002505407202988863,-0.002400364028289914,-0.002295321086421609,-0.00219027791172266,-0.002085234737023711,-0.001980191795155406,-0.0018751486204564571,-0.00177010556217283,-0.0016650623874738812,-0.0015600193291902542,-0.0014549761544913054,-0.0013499330962076783,-0.0012448900379240513,-0.0011398468632251024,-0.0010348038049414754,-0.0009297606884501874,-0.0008247175719588995,-0.0007196745136752725,-0.0006146313971839845,-0.0005095882806926966,-0.0004045451933052391,-0.0002995021059177816,-0.00019445898942649364,-8.941588748712093e-05,1.5627214452251792e-05,0.00012067031639162451,0.00022571341833099723,0.0003307565348222852,0.00043579962220974267,0.0005408427095972002,0.0006458858260884881,0.000750928942579776,0.000855972059071064,0.000961015117354691,0.001066058175638318,0.001171101350337267,0.001276144408620894,0.0013811875833198428,0.0014862306416034698,0.0015912736998870969,0.0016963168745860457,0.0018013599328696728,0.0019064031075686216,0.002011446049436927,0.0021164892241358757,0.0022215323988348246,0.0023265755735337734,0.0024316185154020786,0.0025366616901010275,0.0026417048647999763,0.0027467478066682816,0.0028517909813672304,0.0029568341560661793,0.0030618770979344845,0.0031669202726334333],"_type":"histogram","values":[1,1,0,1,0,2,0,2,2,2,1,0,1,0,4,7,8,4,7,7,9,3,13,13,8,17,20,31,37,26,45,47,46,149,84,45,44,42,22,23,12,11,15,9,13,5,7,1,7,8,7,4,3,3,1,5,0,1,2,2,2,2,3,3]},"_timestamp":1.7727120491761067e+09,"_wandb":{"runtime":271},"_step":10000,"gradients/main_layers.3.bias":{"bins":[-0.0031707906164228916,-0.003079413902014494,-0.0029880371876060963,-0.0028966604731976986,-0.002805283758789301,-0.0027139068115502596,-0.002622530097141862,-0.0025311533827334642,-0.0024397766683250666,-0.002348399953916669,-0.0022570232395082712,-0.0021656465250998735,-0.002074269577860832,-0.0019828928634524345,-0.0018915161490440369,-0.0018001394346356392,-0.0017087627202272415,-0.0016173860058188438,-0.0015260092914104462,-0.0014346324605867267,-0.001343255746178329,-0.0012518790317699313,-0.0011605022009462118,-0.0010691254865378141,-0.0009777487721294165,-0.0008863720577210188,-0.0007949952851049602,-0.0007036185124889016,-0.0006122417980805039,-0.0005208650836721063,-0.0004294883110560477,-0.00033811156754381955,-0.00024673459120094776,-0.00015535784768871963,-6.39811041764915e-05,2.7395639335736632e-05,0.00011877238284796476,0.0002101491263601929,0.000301525869872421,0.00039290261338464916,0.0004842793568968773,0.000575656071305275,0.0006670328439213336,0.0007584096165373921,0.0008497863309457898,0.0009411630453541875,0.001032539876177907,0.0011239165905863047,0.0012152933049947023,0.0013066700194031,0.0013980467338114977,0.0014894235646352172,0.0015808002790436149,0.0016721769934520125,0.001763553824275732,0.0018549305386841297,0.0019463072530925274,0.002037683967500925,0.0021290606819093227,0.0022204373963177204,0.002311814110726118,0.0024031910579651594,0.002494567772373557,0.0025859444867819548,0.0026773212011903524],"_type":"histogram","values":[1,0,0,0,0,0,0,0,0,0,1,0,0,0,1,1,0,0,0,0,0,0,1,0,1,0,1,0,3,0,2,2,2,1,5,0,0,0,1,0,1,0,0,0,1,0,1,1,0,0,1,0,0,0,0,0,1,0,0,0,0,0,0,1]},"train/total":0.00701516680419445}